<?xml version="1.0"?>
<opencv_storage>
<opencv_ml_svm>
  <format>3</format>
  <svmType>C_SVC</svmType>
  <kernel>
    <type>LINEAR</type></kernel>
  <C>1.</C>
  <term_criteria><iterations>100</iterations></term_criteria>
  <var_count>400</var_count>
  <class_count>10</class_count>
  <class_labels type_id="opencv-matrix">
    <rows>10</rows>
    <cols>1</cols>
    <dt>i</dt>
    <data>
      0 1 2 3 4 5 6 7 8 9</data></class_labels>
  <sv_total>45</sv_total>
  <support_vectors>
    <_>
      0. 0. 0. 0. 0. 0. 0. 0. 0. 0. 0. 0. 0. 0. 0. 0. 0. 0. 0. 0. 0. 0.
      0. 0. 0. 0. 0. 0. 0. 0. 0. 0. 0. 0. 0. 0. 0. 0. 0. 0. 0. 0. 0. 0.
      0. 0. 0. -1.96917404e-06 -1.87165879e-05 -5.43423703e-05
      -1.47189043e-04 -2.63764057e-04 -7.69107937e-05 1.25408245e-04
      2.61012210e-05 0. 0. 0. 0. 0. 0. 0. 0. 0. 0. -6.89210901e-06
      -2.48608212e-05 -4.40602671e-05 -5.03744559e-05 1.30209810e-04
      6.43715728e-04 1.65969919e-04 -8.33338127e-05 -6.06973153e-05
      1.52436223e-05 3.79923804e-05 0. 0. 0. 0. 0. 0. 0. 0. 0.
      -4.96435086e-06 -3.06389957e-05 4.05693463e-05 1.90034596e-04
      2.03040006e-04 3.03066976e-04 1.06916945e-04 2.96489219e-04
      -3.35673249e-04 -8.17345353e-05 5.21323636e-06 -3.45011940e-05 0.
      0. 0. 0. 0. 0. 0. -4.71492349e-05 -1.36857678e-04 1.34413094e-05
      2.32597275e-04 1.04590938e-04 -1.78937225e-05 4.11078436e-05
      -2.01098010e-04 2.45390780e-04 -2.24069445e-04 -2.18028421e-04
      -7.23254925e-05 2.22594263e-05 0. 0. 0. 0. 0. 0. 0.
      -1.05395084e-04 -2.57517881e-04 4.88853511e-05 2.14391592e-04
      -1.70503408e-04 -2.93692225e-04 2.07101839e-04 -1.98715097e-05
      1.32059911e-04 7.23388985e-06 4.08260712e-05 3.31887102e-04
      2.13549691e-04 1.15926032e-05 0. 0. 0. 0. 0. 2.48612810e-06
      -1.05402098e-04 -6.68160646e-05 2.11113089e-04 -1.71953627e-06
      -2.63531721e-04 1.95906949e-04 3.25288202e-05 -2.43750270e-04
      -1.02357306e-04 3.23253225e-05 4.45784040e-04 4.64778830e-04
      4.25028498e-04 8.06657918e-05 -7.49683022e-05 0. 0. 0. 0.
      4.68457183e-05 4.74440203e-05 -1.60895914e-04 -1.30242115e-04
      -4.67860809e-04 1.46963779e-04 1.51090891e-04 -2.93561810e-04
      -4.84952121e-04 -7.10656750e-05 2.85626971e-04 6.18249876e-04
      3.11389595e-04 3.57160636e-04 2.45002506e-04 -6.52949748e-05 0. 0.
      0. 0. 1.07988126e-04 1.96383451e-04 -3.04136192e-05 8.24963136e-05
      3.08689167e-04 5.72713674e-04 -3.38394777e-04 -1.06101634e-03
      -5.90799958e-04 -8.93638571e-05 8.61730368e-05 5.83407935e-04
      2.91119737e-04 3.04465852e-04 3.44402884e-04 -1.37053360e-06 0. 0.
      0. 0. 1.64526922e-04 4.27470077e-04 4.10937297e-04 9.99435288e-05
      8.76252365e-04 3.68724694e-04 -5.25125593e-04 -1.35075464e-03
      -3.45588604e-04 2.71733094e-04 1.41480006e-04 4.79161041e-04
      1.95537345e-04 3.52710893e-04 3.25887901e-04 -1.91874697e-05
      -3.42633393e-06 0. 0. 1.37674056e-06 1.95385917e-04 4.39075811e-04
      3.75053176e-04 3.97498428e-04 9.01132124e-04 1.84969715e-04
      -9.09771421e-04 -1.05064211e-03 -3.39299659e-05 3.46656627e-04
      -5.71299279e-06 4.24100464e-04 3.38269660e-04 4.53442801e-04
      2.28969584e-04 -3.42633393e-06 0. 0. 0. 1.96871019e-06
      1.55554750e-04 3.12487857e-04 3.96588206e-04 1.95429486e-04
      7.66189711e-04 2.50626646e-04 -5.83259389e-04 -2.16086904e-04
      3.02263303e-04 6.95672934e-04 2.97054852e-04 3.65070795e-04
      5.17304463e-04 3.85821128e-04 8.94581826e-05 0. 0. 0. 0.
      4.08880396e-06 1.10925830e-04 2.87544157e-04 5.20406291e-04
      6.57326600e-05 2.67796451e-04 2.68017786e-04 -8.55742197e-04
      -3.50729824e-04 5.39888744e-04 5.02747542e-04 9.46426953e-05
      -9.74522773e-05 2.13959240e-04 8.60888831e-05 -5.41859154e-05
      -4.92293509e-07 0. 0. 0. 6.23188498e-06 9.37755176e-05
      8.13392398e-05 3.59221856e-04 -1.25353225e-04 1.36005692e-04
      3.17363592e-04 -4.54678258e-04 -5.17404638e-04 3.59422120e-04
      -8.71275479e-05 -3.39911785e-04 -2.77028274e-04 -1.39256765e-04
      -3.22939944e-04 -3.09618859e-04 -4.17531119e-05 0. 0. 0.
      3.18474849e-06 7.48560924e-05 4.50113912e-05 -4.79262089e-05
      -2.23309340e-04 3.89344525e-04 3.68905865e-04 1.76243513e-04
      1.63962803e-04 1.93369997e-04 -2.44324037e-04 -1.42373610e-04
      -6.19991843e-05 -1.39954369e-04 -2.85852671e-04 -3.13598255e-04
      -1.57956849e-04 0. 0. 0. 1.00956854e-07 5.65141709e-05
      1.94071254e-04 -4.39019750e-05 -1.45876384e-05 3.90214147e-04
      3.96690477e-04 6.52815797e-04 5.56673389e-04 6.92589310e-06
      -2.42848648e-04 1.36667470e-04 1.17566167e-04 -3.09264178e-05
      -6.27297777e-05 -6.65703774e-05 -3.71257884e-05 0. 0. 0. 0.
      8.07972756e-05 1.78229297e-04 1.48454448e-04 1.24895392e-04
      1.99210612e-04 1.35599752e-04 2.18771223e-04 2.80066917e-04
      1.05947001e-04 -1.55076064e-04 5.14099193e-05 7.05013326e-06 0. 0.
      0. 0. 0. 0. 0. 0. 0. 0. 0. 0. 0. 0. 0. 0. 0. 0. 0. 0. 0. 0. 0. 0.
      0. 0. 0. 0. 0. 0. 0. 0. 0. 0. 0. 0. 0. 0. 0. 0. 0. 0. 0. 0. 0.</_>
    <_>
      0. 0. 0. 0. 0. 0. 0. 0. 0. 0. 0. 0. 0. 0. 0. 0. 0. 0. 0. 0. 0. 0.
      0. 0. 0. 0. -9.29697344e-05 -1.21893652e-04 -1.90954797e-05
      -7.16080467e-05 -7.79732072e-05 -6.36516006e-06 0. 0. 0. 0. 0. 0.
      0. 0. 0. 0. 0. 0. 0. -6.19798229e-05 -4.32863220e-04
      -5.15659165e-04 -5.03609714e-04 -5.27750526e-05 -1.15259500e-04
      -3.92408896e-04 7.99299451e-04 8.37977859e-04 -6.71150337e-04
      -5.28710836e-04 3.11637341e-05 2.02137635e-05 0. 0. 0. 0. 0. 0.
      -3.20185040e-06 -1.12787282e-04 -6.07896887e-04 -8.66787450e-05
      -3.09419178e-04 -5.14390355e-04 5.05572461e-05 -8.81251995e-04
      -8.30465578e-04 7.27726845e-04 1.60664917e-04 -2.13723761e-04
      3.06108763e-04 1.78799804e-04 0. 0. 0. -5.33687262e-06
      -2.01615185e-05 -2.05905271e-05 -7.93481304e-05 -2.83159752e-04
      -3.18726263e-04 5.00682101e-04 -1.79719471e-04 -3.23305954e-04
      -5.98105034e-05 3.01951277e-05 -4.72983374e-04 -2.59770284e-04
      6.66079286e-04 1.07131229e-04 3.92584509e-04 2.03861462e-04 0. 0.
      0. -4.80318522e-05 -1.48814230e-04 -2.45017000e-04 -2.56017753e-04
      -4.14373499e-04 -3.03177949e-04 -2.06342229e-04 1.90646228e-04
      -2.46149546e-04 7.74952641e-04 2.62998743e-04 4.07007436e-04
      7.60287803e-04 -1.69972031e-04 -5.12253609e-04 1.15395655e-04
      1.89079132e-04 0. 0. 0. -9.48777324e-06 -1.39011085e-04
      -2.94285361e-04 -1.47080427e-04 -2.88184441e-04 -4.25770704e-04
      -2.66571704e-04 -6.04382012e-06 2.72641249e-04 5.87211049e-04
      -7.53610046e-04 -8.92938639e-04 5.98082668e-04 -4.94300912e-04
      3.80281854e-04 4.70495695e-04 1.70325482e-04 0. 0. 0. 0.
      -4.96468347e-05 -2.17484368e-04 1.80345785e-04 3.43108637e-04
      1.42753895e-04 -1.36540257e-04 3.94546776e-04 1.04967516e-03
      -3.04938847e-04 -2.46625656e-04 5.26192831e-04 2.79514439e-04
      -2.45449599e-04 5.47254109e-04 1.00364874e-03 4.98206828e-05
      -2.10372455e-05 0. 0. 0. -3.55791508e-06 1.35370225e-04
      1.16378197e-03 1.33656163e-03 1.12733652e-03 3.33568634e-04
      5.03087591e-04 -1.95077839e-04 -3.18489729e-05 9.75149800e-04
      1.41180598e-03 8.62837129e-04 2.99388776e-04 4.62481868e-04
      1.01154193e-03 4.94925625e-05 -2.22320130e-04 -1.77595230e-05 0.
      1.50139322e-05 4.74124181e-06 3.76353884e-04 1.24840741e-03
      1.11482374e-03 1.42840086e-03 9.88872955e-04 5.44609560e-04
      -7.91389612e-04 -6.04362867e-04 -1.89408558e-04 -1.05841144e-04
      -5.64800903e-05 1.51201297e-04 7.86187418e-04 4.78865317e-04
      2.32634440e-04 -2.71576893e-04 -2.26927241e-05 0. 1.58041394e-06
      2.11938618e-06 2.98703468e-04 4.40063857e-04 -9.95442024e-05
      2.60796573e-04 1.03456050e-03 -1.82390122e-05 -4.96454013e-04
      -2.53251242e-03 -9.66722728e-04 3.13525088e-04 3.52971052e-04
      5.82618173e-04 1.17316097e-03 8.07587174e-04 5.72804071e-04
      -1.31109322e-04 -2.29038378e-05 0. 0. -2.26167438e-04
      -1.83558965e-04 9.11759562e-05 -6.17834230e-05 6.03670524e-05
      2.45029631e-04 1.73887704e-04 -1.63214793e-03 -2.54352088e-03
      4.35877970e-04 2.95052105e-05 -8.93113669e-04 4.22470825e-04
      4.66209400e-04 6.65013213e-04 -9.34084383e-05 -5.86753129e-04
      -4.80980598e-05 0. 0. -4.10486478e-04 -2.22996518e-04
      -3.49732465e-04 4.79145470e-04 3.11945550e-05 -1.13034359e-04
      6.90005720e-04 -1.39425939e-03 -5.40773035e-04 2.25215466e-04
      -2.34367457e-04 -8.22499336e-04 -3.05376103e-04 2.49941339e-04
      2.96765502e-04 -3.64920386e-04 -4.48240491e-04 -1.14519185e-06 0.
      0. -3.25335946e-04 -5.32527280e-04 8.13600366e-07 8.96041340e-04
      -4.51639207e-04 -5.29400771e-04 9.70300986e-04 -1.37690629e-03
      -7.79234397e-04 -7.83046766e-04 -9.43070685e-04 -6.67962286e-06
      8.31107085e-04 1.36943228e-04 -8.92504831e-05 -7.10610693e-05
      -6.37804478e-05 0. 0. 0. -6.99985103e-05 -3.68214998e-04
      -4.80776042e-04 5.66182425e-04 -8.89557414e-04 2.28553705e-04
      1.88517282e-04 -1.94520384e-04 -7.82227085e-04 -1.75193520e-04
      -7.57207745e-05 -7.35796872e-04 -6.86105806e-04 -7.04348844e-04
      1.43689467e-04 5.28366181e-05 0. 0. 0. 0. -2.17260254e-04
      1.37627023e-04 -2.44149589e-04 -1.48290608e-04 -2.50062847e-04
      1.55929563e-04 -2.15537366e-04 -2.50019191e-04 1.15432090e-03
      5.44213923e-04 -1.64157071e-03 -7.11054890e-04 3.20383057e-04
      5.42362104e-04 -8.60325963e-05 -1.22259535e-05 -1.36438950e-06 0.
      0. 0. -8.36322943e-05 -1.66433776e-04 1.03537328e-04
      -1.11220370e-03 -5.99138613e-04 3.04768444e-04 1.17248087e-03
      1.66082475e-03 1.24800054e-03 -5.30494028e-04 -1.42500922e-03
      -2.11453094e-04 3.66313645e-04 2.48047054e-05 -2.96171165e-05 0.
      -5.04824129e-05 -2.59234002e-05 0. 0. -2.92328805e-05
      7.67414986e-06 -1.93481628e-05 -2.84593552e-04 -2.89673393e-04
      -6.10911229e-05 5.92497177e-04 7.43038137e-04 2.93370627e-04
      -1.97857808e-05 -8.35395185e-04 -1.06639520e-03 -6.37944613e-04
      -1.72899920e-04 -5.36309963e-05 0. -1.22795054e-05 -5.45755802e-06
      0. 0. 0. 0. 0. 0. 0. 0. 0. 0. 0. 0. -8.78844221e-05
      -4.99183545e-04 -3.05837806e-04 0. 0. 0. 0. 0. 0. 0. 0. 0. 0. 0.
      0. 0. 0. 0. 0. 0. 0. 0. 0. 0. 0. 0. 0. 0.</_>
    <_>
      0. 0. 0. 0. 0. 0. 0. 0. 0. 0. 0. 0. 0. 0. 0. 0. 0. 0. 0. 0. 0. 0.
      0. 0. 0. 0. 0. 0. 0. 0. 0. 0. 0. 0. 0. 0. 0. 0. 0. 0. 0. 0. 0. 0.
      0. 0. 9.86456234e-06 1.27706035e-05 -3.41811858e-04
      -8.28273594e-04 -5.50741155e-04 -4.96767578e-04 -4.41902899e-04
      -2.52596743e-04 -1.07790474e-04 -6.41969700e-06 1.17109475e-05
      7.92211085e-06 0. 0. 0. 0. 0. 0. -7.12921392e-05 -2.42510680e-04
      -3.40881903e-04 -3.64724518e-04 -8.77179555e-04 -1.05641515e-03
      4.12143709e-04 5.51649428e-05 -2.06214158e-04 -3.45923982e-05
      5.78295905e-04 3.40818631e-04 5.57955282e-05 6.74151961e-05 0. 0.
      0. 0. 0. -6.96453717e-05 -4.16772848e-04 -8.75276048e-04
      -8.18726374e-04 -8.01614893e-04 -7.33834342e-04 -4.64947399e-04
      -5.72300851e-05 -4.07658023e-04 -1.21517007e-06 -6.50203961e-04
      4.58044728e-04 3.78927507e-04 -3.35902150e-04 2.91691304e-05 0. 0.
      0. 0. -5.77801911e-05 -1.07873711e-04 -4.28243191e-04
      -8.36764288e-04 -7.81748793e-04 -1.72977394e-04 -1.07216601e-05
      -1.14466464e-04 6.36766417e-05 8.81664382e-05 1.48192325e-04
      -2.46602780e-04 2.18066489e-04 2.50273733e-04 -4.77499416e-04
      -2.26714601e-05 0. 0. 0. 0. -7.66698649e-05 -1.29552209e-04
      -2.49715347e-04 -6.25607674e-04 -3.15032405e-04 7.45240759e-05
      -3.67235014e-04 -3.39233491e-04 4.83667420e-04 1.03827639e-04
      -1.35052469e-04 2.67935975e-04 -9.60702382e-05 2.52512022e-04
      2.70330929e-04 3.52609059e-05 0. 0. 0. 0. -2.22231506e-06
      4.88120095e-05 2.68932868e-04 2.26247110e-04 1.81254654e-04
      2.80686247e-04 -7.42249540e-05 2.76934268e-04 -3.80853271e-06
      -3.56118428e-04 5.43213537e-05 1.14062714e-04 7.23175253e-05
      6.10565476e-04 7.58702459e-04 4.42508099e-05 0. 0. 0. 0. 0.
      1.41973564e-04 6.54930831e-04 5.64950053e-04 4.15482966e-04
      -2.50495912e-04 1.07118910e-06 -2.34025923e-04 -3.14787176e-04
      -5.96732367e-04 -8.91372969e-04 -7.28617815e-05 4.44033270e-04
      7.11603498e-04 7.55298475e-04 1.76463058e-04 0. 0. 0. 0. 0.
      1.62509081e-04 5.73518861e-04 3.25334404e-04 4.13556729e-04
      -4.18138137e-04 -6.45127002e-05 -5.38061373e-04 -1.76201749e-03
      -9.83570586e-04 -9.29035246e-04 -6.97182899e-04 4.39959753e-04
      4.78675822e-04 5.59016946e-04 2.78181251e-04 0. 0. 0. 0.
      5.47455602e-06 3.17294704e-04 6.43567939e-04 6.55664364e-04
      1.33182359e-04 1.10168313e-03 7.69660866e-04 -2.36634689e-04
      -2.30501592e-03 -6.22554333e-04 1.29094973e-04 1.93771871e-06
      3.48631380e-04 1.20657634e-04 3.39103543e-04 1.96748180e-04 0. 0.
      0. -3.77127399e-05 -8.27982949e-05 3.35004093e-04 1.20504480e-03
      1.45916024e-03 1.28211651e-03 1.51159766e-03 6.57773227e-04
      -1.55988825e-03 -2.04623910e-03 1.42650097e-04 -1.52562070e-05
      -1.98602705e-04 2.58473330e-04 3.79816367e-04 2.83845526e-04
      -1.37464885e-04 0. 0. 0. -7.78972390e-05 -2.97844294e-04
      -7.66354569e-05 6.29135815e-04 6.14572840e-04 -1.58565672e-05
      1.09326490e-03 7.76577275e-04 -7.42402510e-04 1.39316344e-05
      1.38238363e-04 -2.90480937e-04 -1.73169828e-04 -1.30757733e-04
      5.71886078e-04 2.86787486e-04 -1.85630954e-04 0. 0. 0.
      -1.17089212e-05 -4.73004242e-04 -2.70886172e-04 -2.56410538e-04
      4.22682439e-04 4.55529487e-04 6.32294628e-04 1.54074247e-03
      -1.74048080e-04 -4.48000719e-05 -2.51666643e-04 -2.29940226e-04
      -5.73270256e-04 -7.75718421e-04 9.92937203e-05 -1.13716735e-04
      -2.96572689e-04 0. 0. 0. 0. -3.92787188e-04 -2.55021849e-04
      -1.01172051e-03 3.77978693e-04 2.17369321e-04 3.91824986e-04
      1.05861726e-03 -1.14735603e-05 -4.62692260e-04 -1.39207565e-04
      -2.18569825e-04 -3.31395102e-04 -5.27149939e-04 -4.58320515e-04
      -5.54422033e-04 -2.95030390e-04 0. 0. 0. 0. -7.47226431e-06
      2.60111265e-04 -1.76098416e-04 1.19246099e-04 -1.63162622e-04
      5.97185455e-04 5.44430164e-04 -7.07622603e-05 -1.47619940e-05
      2.35286076e-04 -3.81962513e-04 -4.41811542e-04 -2.00667535e-04
      -4.45000915e-04 -3.79614299e-04 5.19082778e-06 0. 0. 0. 0.
      -4.79312548e-05 -8.11866703e-05 2.71022262e-04 -3.94612580e-04
      1.87378624e-04 5.83127141e-04 9.52626870e-04 1.31840701e-03
      8.74966732e-04 1.81028852e-04 -7.43882774e-05 4.66780330e-05
      -1.65449965e-04 -2.43136587e-04 -1.54741574e-05 3.56336432e-06 0.
      0. 0. 0. -8.91387390e-05 -2.75197846e-04 -4.80588315e-05
      -4.71659820e-04 -4.62739030e-04 -5.75503043e-04 -2.42821698e-04
      4.51822154e-04 3.19645420e-04 9.52838454e-05 1.44135292e-05
      2.29078960e-05 -1.50003279e-05 2.63865204e-05 5.09052052e-06 0. 0.
      0. 0. 0. -1.38794921e-05 -1.01782942e-04 -1.07598447e-04
      -2.00032518e-04 -2.35649815e-04 -3.25812201e-04 -4.27679362e-04
      -3.74448486e-04 -2.34480452e-04 -1.42586709e-04 -1.12785892e-06 0.
      0. 0. 0. 0. 0. 0. 0. 0. 0. 0. 0. 0. 0. -4.17307820e-05
      -8.57172781e-05 -8.12058424e-05 -7.66944067e-05 -1.91736017e-05 0.
      0. 0. 0. 0. 0. 0. 0.</_>
    <_>
      0. 0. 0. 0. 0. 0. 0. 0. 0. 0. 0. 0. 0. 0. 0. 0. 0. 0. 0. 0. 0. 0.
      0. 0. 0. 0. 0. 0. 0. 0. 0. 0. 0. 0. 0. 0. 0. 0. 0. 0. 0. 0. 0. 0.
      0. 0. -7.13295640e-06 -3.28453789e-05 -2.05391370e-05
      2.66440966e-05 5.66462222e-05 7.58316673e-05 2.56854371e-04
      5.01257127e-05 6.45831096e-06 -4.74733642e-05 -1.60943237e-05 0.
      0. 0. 0. 0. -9.99181452e-07 -1.19901779e-05 -8.13619226e-06 0.
      -1.05180690e-04 -3.37196165e-04 -2.22756076e-04 3.06315545e-04
      8.21713242e-04 5.06900309e-04 6.71735179e-05 1.65731195e-04
      2.48518627e-05 -1.77819355e-04 -1.03092476e-04 -5.75596532e-05 0.
      0. 0. 0. -3.99672581e-06 -3.34012075e-05 -3.21165462e-05
      -4.79916816e-05 -1.73528781e-04 -2.54933548e-04 -2.70466844e-05
      5.62194211e-04 6.80424448e-04 4.07575921e-04 3.72880895e-04
      2.29007637e-04 -8.22212460e-05 -5.15214888e-05 -1.23840640e-04
      -1.50910651e-04 0. 0. 0. 0. -2.53829512e-06 -2.94347446e-05
      -5.89509837e-05 -2.29808022e-04 -2.01082585e-04 -7.28089581e-05
      9.17733705e-05 1.27432810e-04 1.73945606e-04 -3.73697367e-06
      3.68321518e-04 -1.64691301e-04 -3.10101343e-04 -1.57801871e-04
      -6.47299821e-05 -1.70011597e-04 0. 0. 0. 0. -5.57385783e-06
      -6.48870191e-05 -1.63606092e-04 -2.46522599e-04 -3.12065094e-05
      8.53242673e-05 2.62693356e-05 5.69410986e-05 9.14415868e-04
      2.64598319e-04 4.64547833e-04 4.06909094e-04 -3.24647350e-04
      -1.09874549e-04 -3.68494977e-04 -2.07023739e-04 -1.21326848e-05 0.
      0. 0. -6.27204463e-06 -2.24190080e-05 -3.13951132e-05
      1.90706793e-04 1.36903531e-04 -1.20330529e-04 3.34524200e-04
      5.63877868e-04 1.19599607e-03 6.30327151e-04 8.14061437e-04
      8.86191730e-04 2.45219853e-04 3.89980734e-04 2.59805762e-04
      2.05056334e-04 0. 0. 0. 0. -1.75055884e-05 -7.59078976e-05
      2.85909045e-04 1.27925392e-04 -3.93904804e-04 -4.76140258e-06
      4.44931153e-04 4.36809118e-04 2.70712917e-04 -4.13556379e-04
      -3.59724305e-04 1.52953289e-04 2.66152376e-04 4.22115176e-04
      3.74795665e-04 -4.04249695e-05 -1.50013211e-05 0. 0. 0.
      -2.59380231e-05 4.14967399e-05 1.78262024e-04 -3.01530177e-04
      -2.50789861e-04 1.27510357e-05 -1.58682262e-04 -5.15832624e-04
      -6.79343997e-04 -8.76559410e-04 -7.58976734e-04 -7.82554504e-04
      7.97095527e-06 5.51737321e-04 5.52945829e-04 -1.52423483e-04
      -4.75041852e-05 0. 0. 0. -2.01019684e-05 5.33539533e-05
      1.64777637e-04 3.03730281e-04 -4.11089102e-04 1.79315233e-04
      -2.17008288e-04 -5.49590273e-04 -1.17713283e-03 -1.04638946e-03
      -6.25830551e-04 -4.19887714e-04 2.31485741e-04 4.64232726e-04
      3.90194997e-04 1.13863156e-04 0. 0. 0. 0. 0. -3.93289010e-05
      2.36148073e-04 5.73836209e-04 -4.29158012e-04 -5.21505972e-05
      2.71450135e-05 -8.15478212e-04 -1.27665186e-03 -4.89077589e-04
      -2.15277629e-04 -1.19039170e-04 3.74702242e-04 3.25446454e-04
      1.28733489e-04 2.85433227e-04 0. 0. 0. 0. -1.40733428e-05
      -1.06542204e-04 -1.89217710e-04 -3.04700679e-05 -4.59157105e-04
      1.04038802e-04 -2.26448785e-04 -1.02084572e-03 -9.59719007e-04
      -6.71199465e-04 -4.19886928e-04 -4.99491172e-04 -5.74424979e-04
      3.30652838e-05 1.12410795e-04 1.48546795e-04 0. 0. 0. 0.
      5.75782251e-05 1.14670394e-04 -3.07683367e-04 2.94977886e-04
      -3.53270327e-04 -7.30095344e-05 1.31769921e-04 -2.64948409e-04
      -5.19257446e-04 -4.55516507e-04 1.95081957e-04 -4.32718720e-04
      -1.51051616e-04 4.78748960e-04 2.12559215e-04 4.27129562e-05 0. 0.
      0. 0. 8.72916426e-05 4.10450622e-04 3.50473827e-04 7.27790582e-04
      6.55835262e-04 1.07470283e-03 1.12382742e-03 5.82458859e-04
      -4.12218273e-04 -3.68008477e-04 1.55341069e-04 -5.04505937e-04
      -2.96370912e-04 3.11134965e-04 2.46707441e-05 -5.29613453e-06 0.
      0. 0. 0. 9.40501122e-05 2.65642098e-04 4.48338309e-04
      8.07822624e-04 6.33109885e-04 7.97982677e-04 1.22868922e-03
      7.35807407e-04 5.51379169e-04 4.70961357e-04 -2.61450914e-04
      -5.13778068e-04 -3.48347472e-04 8.35183673e-05 -5.69372605e-05
      -7.81891504e-06 0. 0. 0. 0. 3.44571963e-05 1.33907262e-04
      2.34921099e-04 6.59397992e-05 2.18335699e-04 5.06916316e-04
      6.45055668e-04 7.31406966e-04 4.24415164e-04 1.35717404e-04
      -1.59550109e-04 -1.45443973e-05 -3.97109572e-04 -1.92640233e-04
      -3.30699950e-05 -7.95389860e-06 0. 0. 0. 0. 0. 5.85675161e-06
      -1.19261706e-04 -2.37205721e-04 -3.15389188e-04 -2.11007311e-04
      8.15798267e-05 9.59709432e-05 9.00855957e-05 -4.07035986e-05
      7.15726947e-06 8.73127356e-05 -7.38466697e-05 -4.93130938e-05
      -2.19254616e-05 -1.09272814e-05 0. 0. 0. 0. 0. 0. 0.
      -5.92631295e-05 -1.11813839e-04 2.48220590e-06 3.06020775e-05
      2.61237255e-05 -2.56757812e-05 -6.28672860e-05 -7.62027730e-06 0.
      0. 0. -5.46305382e-05 -3.12174525e-05 0. 0. 0. 0. 0. 0. 0.
      -5.15415059e-06 -1.21274134e-05 0. 0. 0. 0. 0. 0. 0. 0. 0. 0. 0.
      0. 0.</_>
    <_>
      0. 0. 0. 0. 0. 0. 0. 0. 0. 0. 0. 0. 0. 0. 0. 0. 0. 0. 0. 0. 0. 0.
      0. 0. 0. 0. 0. 0. 0. 0. 0. 0. 0. 0. 0. 0. 0. 0. 0. 0. 0. 0. 0. 0.
      0. -4.34614121e-05 -4.34614121e-05 1.08475842e-05 1.33807862e-05
      -9.96533272e-05 -3.63053929e-04 -4.30292770e-04 -1.03056169e-04
      -1.11969974e-04 -1.28454936e-04 -7.21910619e-05 1.33492522e-05
      1.77222155e-05 -1.57696868e-05 0. 0. 0. 0. 0. 0. -3.67007480e-04
      -4.86824167e-04 -1.85815734e-04 -2.06371275e-04 -7.62596464e-05
      1.49094465e-03 1.07921229e-03 -5.26184849e-05 -4.49609332e-04
      -6.22269115e-04 -3.93437687e-04 2.78707390e-04 1.59741976e-04
      -1.07624743e-04 0. 0. 0. 0. -5.04278887e-06 -3.25489127e-05
      -3.71597067e-04 -8.85047950e-04 -6.09673967e-04 -7.20804906e-04
      -4.45086189e-04 5.32590551e-04 5.91565913e-04 4.63622942e-04
      2.64185481e-04 3.73695402e-05 -4.92579304e-04 -1.90333285e-05
      -4.25581267e-04 -1.91342740e-04 -6.05010136e-05 0. 0. 0.
      -4.26344886e-05 -1.08319400e-05 -2.34510037e-04 -5.90600132e-04
      7.63298740e-05 6.48744826e-05 -8.84870242e-05 -4.47016282e-05
      3.03067820e-04 1.03270065e-03 1.00746794e-04 -3.01123160e-04
      -9.32696275e-04 -6.45382039e-04 -1.02790305e-03 -5.08866389e-04
      -7.17762887e-05 0. 0. 0. -1.87958503e-05 -1.36613708e-05
      2.56013955e-05 -5.60184941e-04 2.07200457e-04 -4.84575372e-04
      -6.78600103e-04 5.26629097e-04 7.74960325e-04 9.27355839e-04
      4.33250942e-04 -3.74844240e-04 -1.32974616e-04 -1.94596301e-04
      -1.46197563e-03 -8.22488335e-04 -2.09355974e-04 0. 0. 0.
      3.47560963e-05 -1.19839706e-05 -6.56274788e-05 3.06452246e-04
      -1.91632716e-04 -1.15532253e-03 -1.23584934e-04 -7.65815203e-04
      -3.28556162e-05 6.77139105e-05 4.69080493e-04 1.07603602e-03
      1.25527685e-03 1.04014913e-03 -1.45088808e-04 -2.75832048e-04
      -1.82457570e-05 0. 0. 0. 7.42223710e-05 9.16969511e-05
      -1.31811597e-04 5.47857839e-04 -1.13766844e-04 3.03988945e-05
      2.51340134e-05 -7.22132681e-04 -1.09004090e-03 -8.08969562e-05
      5.15422958e-04 1.21279247e-03 1.44568272e-03 1.21613115e-03
      5.38806140e-04 -2.73141031e-05 0. 0. 0. 0. 2.47355405e-04
      5.84572612e-04 -1.97197325e-04 -1.33669208e-04 -1.32067784e-04
      5.64490483e-06 -6.47145906e-04 -1.35209213e-03 -9.96306771e-04
      -5.63786016e-05 1.15369265e-04 8.09334524e-05 3.70390597e-04
      1.16573111e-03 5.81013563e-04 1.25440958e-04 0. 0. 0. 0.
      5.35053376e-04 1.31274038e-03 1.13110442e-03 -5.02377166e-04
      4.64325974e-04 3.63942730e-04 -4.86639998e-04 -1.90770999e-03
      -5.55198640e-04 2.97526276e-04 1.79155279e-04 4.34274640e-04
      -1.50242951e-04 9.79780569e-04 2.05575445e-04 1.63854536e-04 0. 0.
      0. 2.19772155e-05 6.06551999e-04 1.14239124e-03 1.73144287e-03
      5.22252987e-04 3.03786492e-05 4.43832949e-04 -8.25613213e-04
      -2.21042056e-03 1.60459153e-04 -2.08413985e-04 -5.34472638e-04
      -5.20917347e-05 -8.29082928e-05 8.68454867e-04 -2.64379487e-04
      -1.70155035e-04 0. 0. 0. 4.95191016e-05 5.56899817e-04
      4.62167052e-04 6.60347054e-04 7.92458828e-04 1.09411997e-03
      5.54418308e-04 -8.31221871e-04 -4.25492530e-04 2.67524156e-04
      6.29099231e-05 5.46486990e-04 2.56867643e-04 4.91355197e-04
      8.55043298e-04 -7.63015647e-04 -4.12521884e-04 0. 0.
      -9.59759855e-05 -1.86210033e-04 1.97492453e-04 -1.21283862e-04
      6.09885436e-04 9.08452959e-04 1.42367696e-03 9.82184545e-04
      -1.86889304e-03 -8.18429398e-04 1.44349891e-04 3.17150843e-04
      -4.89609229e-05 2.18691916e-04 6.32006500e-04 -2.37515473e-04
      -9.28461086e-04 -2.01846357e-04 0. 0. -8.05724339e-05
      -3.38313548e-04 -1.25753404e-05 -3.71430040e-04 -2.22134069e-04
      -6.83411665e-04 3.98297183e-04 6.45415159e-04 -2.10443439e-04
      3.35435798e-05 7.23772655e-06 -5.74836333e-04 -8.42458539e-05
      -4.01248748e-04 -2.48319586e-04 -8.36613995e-04 -5.65852679e-04 0.
      0. 0. 0. -9.22337567e-05 4.93726227e-04 1.67461185e-04
      -1.12122529e-04 1.82793578e-04 7.76327564e-04 -1.70985833e-04
      1.18755415e-04 4.28882107e-04 -4.69209539e-04 -8.56292085e-04
      -1.12422835e-03 -6.95167633e-04 -3.64022650e-04 -4.94724140e-04
      -6.87979482e-05 0. 0. 0. 0. 3.44840169e-06 5.87057031e-04
      1.04901881e-03 -2.54698069e-04 -4.14351816e-04 8.31263373e-04
      7.97956309e-04 1.01042597e-03 2.22108720e-05 -1.05039787e-03
      -6.40035025e-04 -2.83091271e-04 1.82300893e-04 -1.53061847e-04
      -4.03423110e-05 -4.58435380e-07 0. 0. 0. 0. 0. 1.77625319e-04
      4.22199228e-04 4.84614757e-05 -4.75433044e-04 -3.80789745e-04
      2.14762244e-04 4.53571003e-04 1.98868656e-04 4.82188771e-04
      3.30460258e-04 1.84762917e-04 2.11477873e-05 -6.87653028e-06 0. 0.
      0. 0. 0. 0. 0. 0. 0. -5.21218863e-05 -2.53195467e-04
      -9.62666672e-05 1.58077833e-04 -8.83782777e-05 -2.77835294e-04
      -1.57761518e-04 -1.56069276e-04 -3.83193765e-05 0. 0. 0. 0. 0. 0.
      0. 0. 0. 0. 0. 0. 0. 0. 0. 0. -1.04507390e-05 -4.29641477e-05
      -3.36746016e-05 0. 0. 0. 0. 0. 0. 0.</_>
    <_>
      0. 0. 0. 0. 0. 0. 0. 0. 0. 0. 0. 0. 0. 0. 0. 0. 0. 0. 0. 0. 0. 0.
      0. 0. 0. 0. -1.71232386e-04 -1.22027683e-04 0. 0. -1.51082932e-05
      -1.51111002e-04 -2.16210436e-04 -6.10020434e-05 0. 0. 0. 0. 0. 0.
      0. 0. 0. 0. 0. -1.09999302e-04 -4.75644163e-04 -5.04043710e-04
      -7.65504024e-04 -6.66477310e-04 1.66133439e-04 -7.26011407e-04
      3.65233747e-04 -5.87828050e-04 -5.30472782e-04 -2.82234279e-04
      -1.69378152e-04 -2.44842522e-06 0. 0. 0. 0. 0. 0. -9.84094186e-06
      -2.72299803e-04 -3.08557617e-04 -4.46708756e-04 1.76529618e-04
      6.74165087e-04 1.18695095e-03 9.17134632e-04 6.66790933e-04
      -6.88513101e-04 -7.44235236e-04 -5.59779757e-04 -6.71407615e-04
      -1.03623279e-04 -4.04699786e-05 0. 0. 0. 0. 0. -1.43677753e-04
      -5.14628366e-04 -1.28604137e-04 -8.76073900e-05 -1.16758920e-05
      4.57265298e-04 1.14417798e-03 1.10584882e-03 2.28933670e-04
      -9.93494759e-05 7.34469329e-04 7.19648495e-04 -1.29084889e-04
      -3.80030018e-04 -2.80678883e-04 -1.77545706e-04 0. 0. 0. 0.
      -2.70658667e-04 -4.19390883e-04 -1.29326669e-04 -4.92194551e-04
      -2.17640700e-04 3.45307024e-04 4.53219051e-04 3.26131791e-04
      1.15032459e-03 1.88437337e-03 1.68628281e-03 4.92895721e-04
      1.21206853e-04 -7.57198650e-05 -2.02349882e-04 -1.43603145e-04 0.
      0. 0. -2.75546372e-05 -3.54177930e-04 -5.51114172e-05
      8.01100541e-05 -1.72131768e-04 -3.41626292e-04 -2.42614464e-04
      3.96579097e-04 4.16732219e-04 1.74700259e-03 2.09574378e-03
      -1.39823187e-05 5.93797187e-04 -9.34765631e-05 4.65653953e-04 0.
      0. 0. 0. 0. 3.99235942e-05 -2.56133790e-04 8.56336032e-04
      1.61086544e-04 -1.83482829e-04 2.40340349e-04 4.20739962e-04
      6.27064263e-04 1.36909483e-03 2.11266661e-03 5.00935828e-04
      1.21144381e-04 1.52140833e-03 6.33129966e-04 7.07120460e-04
      -1.59818069e-06 0. 0. 0. 0. -1.00875615e-04 8.80073421e-05
      1.00424269e-03 -1.05705892e-03 1.78641276e-05 3.89099092e-04
      -4.60852243e-05 -3.92805698e-04 -1.72273751e-04 -2.27473327e-04
      -7.13239278e-05 1.26385153e-03 7.65470497e-04 3.37587029e-04
      2.04826283e-04 -5.93139976e-06 0. 0. 0. 0. -1.08486325e-04
      6.52501418e-04 6.47960871e-04 -1.03747135e-03 2.53269594e-04
      -4.80506351e-05 -3.96382326e-04 -1.22148427e-03 -3.05749418e-04
      -1.20297610e-03 -4.86760313e-04 8.01794813e-04 3.72227136e-04
      1.24177226e-04 2.26007265e-04 -4.05114333e-05 0. 0. 0. 0.
      3.90087807e-05 5.35869214e-04 1.05721076e-04 -7.23650679e-04
      4.75385168e-04 -3.56536824e-04 -4.64054581e-04 -1.63683493e-03
      -5.47972799e-04 -7.14212772e-04 5.95837882e-05 3.57567274e-04
      7.24897982e-05 3.25171830e-04 2.45509058e-04 -5.64639231e-05 0. 0.
      0. -1.78215378e-05 5.90860000e-05 6.24075241e-04 4.07405081e-04
      -3.10470205e-04 2.99695617e-04 -5.12875675e-04 -1.39956654e-03
      -1.73652009e-03 -3.03259585e-04 -5.01989911e-04 5.75815211e-04
      2.93929217e-04 8.63729565e-06 -2.86495488e-04 2.60251662e-04
      -3.56215351e-05 0. 0. 0. -1.18810260e-06 -9.94291349e-06
      6.82498445e-04 2.85668822e-04 -8.37538799e-04 1.69719540e-04
      3.73837422e-04 -4.85170138e-04 -9.55343945e-04 -7.06162653e-04
      1.40086006e-04 -2.10960148e-04 -8.45440838e-04 5.09770362e-05
      -2.94134603e-04 2.02946685e-04 -3.78952507e-07 0. 0. 0. 0.
      -6.01223837e-05 1.51161410e-04 3.53402429e-04 -8.45882692e-04
      -5.65595867e-04 3.21959320e-04 -2.13604901e-04 -3.26141278e-04
      -6.97045994e-04 -2.78503052e-04 -1.33381021e-04 -2.56663159e-04
      1.19440610e-05 -5.29171200e-04 1.75137086e-06 0. 0. 0. 0.
      1.66433583e-05 2.09673235e-04 4.74553817e-04 2.66677962e-04
      -4.07472660e-04 2.21241382e-04 5.97323669e-05 -1.62441065e-04
      -6.90560730e-04 -5.32668666e-04 -7.49645289e-04 -5.71462268e-04
      -4.05788945e-04 -4.35187627e-04 1.83133052e-05 5.06385513e-05 0.
      0. 0. 0. 2.04841344e-05 2.57176667e-04 5.40863140e-04
      3.27947055e-04 -6.52866147e-04 7.47640515e-05 4.22852405e-04
      -2.37573171e-04 8.15803724e-05 -1.15426257e-04 -1.34866429e-03
      -1.49756216e-03 -3.46907967e-04 5.70957607e-04 3.03831301e-04 0.
      0. 0. 0. 0. 0. 1.20344288e-04 2.78690568e-04 3.13121622e-04
      7.35091089e-05 4.37598123e-04 9.91380424e-04 1.16011698e-03
      9.71845235e-04 4.73065593e-04 2.38093009e-04 -2.50314679e-06
      1.59754680e-04 2.49575707e-04 0. 0. 0. 0. 0. 0. 0. 6.40129201e-06
      2.43249087e-05 2.55544473e-05 5.25880969e-05 5.77397441e-05
      1.75069377e-04 2.07699079e-04 1.52223918e-04 1.47616563e-04
      2.71639365e-05 -4.41977681e-05 -3.12733646e-05 0. 0. 0. 0. 0. 0.
      0. 0. 0. 0. 0. 0. 0. 0. 0. 0. 0. 0. 0. 0. 0. 0. 0. 0. 0. 0. 0. 0.
      0. 0. 0. 0. 0. 0. 0. 0. 0. 0. 0. 0. 0. 0. 0. 0. 0.</_>
    <_>
      0. 0. 0. 0. 0. 0. 0. 0. 0. 0. 0. 0. 0. 0. 0. 0. 0. 0. 0. 0. 0. 0.
      0. 0. 0. 0. 0. 0. 0. 0. 0. 0. 0. 0. 0. 0. 0. 0. 0. 0. 0. 0. 0. 0.
      0. 0. 0. 7.05948787e-06 1.61424359e-05 4.63595534e-05
      1.50509557e-04 2.02874493e-04 2.18620320e-04 1.19038077e-05
      2.11848492e-05 1.28504817e-05 2.14517495e-05 1.45114782e-05 0. 0.
      0. 0. 0. 0. -2.31740364e-06 -3.55707671e-05 -1.58353985e-04
      -7.17749281e-05 -4.56109301e-05 3.35502787e-04 1.07719016e-03
      1.04978296e-03 7.28596642e-04 2.34663356e-04 2.41234811e-04
      2.11663049e-04 1.60888128e-04 1.25555831e-04 0. 0. 0. 0. 0.
      -3.03138422e-05 -9.63860439e-05 -3.55888333e-04 -4.42197517e-04
      -1.85136334e-04 1.38464049e-04 5.18603018e-04 6.54450094e-04
      3.65249434e-04 8.08476296e-04 4.02225880e-04 1.39140946e-04
      1.80412666e-04 2.17378649e-04 1.29972366e-04 0. 0. 0. 0.
      -7.10400764e-06 -2.32082370e-04 -5.65769733e-04 -5.75048500e-04
      -4.64470679e-04 -1.08384720e-05 2.47417658e-04 1.65086476e-06
      -9.21464289e-06 8.53391975e-06 1.90874503e-04 -7.03943442e-05
      1.04102233e-04 2.31339189e-04 3.03980778e-04 1.22975194e-04 0. 0.
      0. 0. -3.78880395e-05 -3.24655703e-04 -5.23616618e-04
      -9.81524237e-04 -6.72936148e-04 1.56259208e-04 -1.74842877e-04
      3.02894536e-04 6.33460586e-04 2.34696097e-04 -5.17888751e-04
      -1.01926184e-04 -1.27829466e-04 1.72909335e-04 -1.75206296e-04
      5.49544748e-05 0. 0. 0. 0. -1.37480776e-04 -4.58102004e-04
      -5.37856075e-04 -5.72811929e-04 -1.11145986e-04 -6.19895363e-05
      3.43394531e-05 2.70963064e-04 7.25108024e-04 -1.05367246e-04
      -8.16434738e-04 -4.35277092e-04 -3.06320435e-04 6.50347138e-05
      8.18865465e-06 1.34985094e-04 0. 0. 0. 0. -3.58477613e-04
      -4.41242621e-04 6.47701454e-05 4.04780643e-04 3.31582909e-04
      3.05654859e-04 4.17501898e-04 3.18200357e-04 1.44579171e-04
      -6.86077692e-04 -4.87051904e-04 -1.63055534e-04 1.71090185e-04
      -1.83019569e-04 -1.70953776e-04 6.75751362e-05 0. 0. 0. 0.
      -1.46254082e-04 -1.65045305e-04 2.75591505e-04 1.89012673e-04
      1.08432519e-04 -1.59423449e-04 -3.79156809e-05 -4.53759385e-05
      -5.63039852e-04 -7.74295884e-04 -6.10383810e-04 -7.33147026e-05
      -1.73023494e-04 -9.90334229e-05 1.12453432e-04 3.83321400e-04 0.
      0. 0. 0. -8.00427915e-06 -5.95738456e-05 -2.23518044e-04
      1.19925811e-04 -3.62944294e-04 2.50381447e-04 3.04512010e-04
      1.62421507e-04 -7.99135829e-04 -7.53738044e-04 -4.01183381e-04
      -1.05931518e-04 -3.81972204e-04 2.49696692e-04 6.27833244e-04
      6.16095436e-04 0. 0. 0. 0. -7.23858466e-05 -5.60556015e-04
      -8.04546071e-05 1.87909114e-04 -3.29247996e-04 4.62139491e-04
      4.67387668e-04 -8.63414258e-04 -1.20724773e-03 -6.15816971e-04
      -3.63953266e-04 -6.42253435e-04 -3.19883664e-04 6.22360734e-04
      7.39146373e-04 6.49483118e-04 0. 0. 0. 0. -1.23885489e-04
      -4.01440397e-04 5.50818455e-04 5.61754496e-05 5.18320478e-04
      1.28824182e-03 6.61225931e-04 -1.94178079e-04 -1.97774745e-04
      -4.86334000e-04 -1.31264960e-05 -4.11294488e-04 2.42549475e-04
      7.67288089e-04 6.47354638e-04 2.31360042e-04 0. 0. 0. 0.
      2.99766398e-04 5.45329123e-04 1.28130673e-03 1.62286742e-03
      1.19571795e-03 1.38842873e-03 7.63635326e-04 3.69482223e-05
      1.16045612e-07 -6.84483311e-05 1.02716280e-04 2.28950375e-04
      1.77440787e-04 4.42716555e-04 8.87648857e-05 -2.55658495e-04 0. 0.
      0. 0. 6.56380202e-04 8.87100585e-04 1.18444581e-03 9.40743717e-04
      8.77767510e-04 9.59379016e-04 5.91629709e-04 -1.38651085e-04
      -9.69125656e-04 -7.17084476e-05 2.73371523e-04 -1.08314758e-04
      -1.97201181e-04 7.70913830e-05 -4.78721158e-05 -4.96230023e-05 0.
      0. 0. 0. 7.26781145e-04 3.68942012e-04 7.25934864e-04
      5.47402480e-04 2.55796408e-06 4.21069388e-04 3.22780892e-04
      1.20873628e-05 3.81629652e-04 3.08934366e-04 -2.99973646e-04
      4.75131819e-05 4.94530250e-04 -1.67182661e-04 -7.20921298e-06 0.
      0. 0. 0. 0. 3.22663283e-04 1.04975814e-04 4.57083624e-05
      -3.65833432e-04 -5.32124650e-05 7.16585782e-04 5.71248122e-04
      8.82663706e-04 2.61086156e-04 -3.09317751e-04 -4.25327926e-05
      6.62771985e-04 1.80662886e-04 -4.88795340e-04 -1.77600177e-05 0.
      0. 0. 0. 0. -9.49888636e-06 -2.80561624e-04 -6.33996271e-04
      -6.70807087e-04 -3.31290823e-04 -2.72870995e-04 -4.22355282e-04
      1.26962288e-04 8.30190620e-05 -1.14681883e-04 7.14952403e-05
      2.17824214e-04 -3.00210755e-04 -5.33751212e-04 -9.47200988e-06 0.
      0. 0. 0. 0. 0. -2.42872600e-04 -5.27748780e-04 -3.89853667e-04
      -1.02137630e-04 -7.14453170e-04 -6.26006920e-04 4.17079355e-05
      -2.49620003e-04 -4.07645595e-04 -4.27439045e-05 0. -2.03821794e-04
      -6.33177231e-04 -1.92984677e-04 -8.28800876e-06 0. 0. 0. 0. 0.
      -4.99006346e-05 -9.11640454e-05 -3.39311810e-05 -1.16918454e-06
      -7.60688490e-05 -1.06955908e-04 -1.25283432e-05 -1.14182058e-05 0.
      0. 0. -5.77446372e-05 -4.74754837e-04 -1.72087544e-04
      -1.18400123e-06 0. 0.</_>
    <_>
      0. 0. 0. 0. 0. 0. 0. 0. 0. 0. 0. 0. 0. 0. 0. 0. 0. 0. 0. 0. 0. 0.
      0. 0. 0. 0. 0. 0. 0. 0. 0. 0. 0. 0. 0. 0. 0. 0. 0. 0. 0. 0. 0. 0.
      0. 8.61160345e-07 1.16256651e-05 1.50064807e-05 6.72519964e-05
      1.50306747e-04 2.73923768e-04 8.41430956e-05 4.23459277e-08
      2.78571406e-05 5.87183285e-06 -2.76937790e-05 -7.46374280e-06 0.
      0. 0. 0. 0. 0. 0. 0. 1.63620462e-05 9.53458220e-06 -2.08628539e-04
      -4.87010140e-04 1.27195221e-04 1.29456364e-03 3.97413212e-04
      -5.64445101e-04 -1.23996855e-04 2.22932886e-05 -1.31718378e-04
      2.33520423e-05 1.22770498e-05 0. 0. 0. 0. 0. 0. 0. -1.41068420e-04
      -2.99567007e-04 -6.84711908e-04 -9.66227031e-04 -6.21836167e-04
      2.69694981e-04 2.39217930e-04 4.89376907e-05 -4.18824202e-04
      2.01120987e-04 -7.65577279e-05 -1.55359692e-06 -2.13014264e-05 0.
      0. 0. 0. 0. 0. 1.07346896e-04 2.42900114e-05 -2.68384931e-04
      -5.19791211e-04 -6.14102464e-04 -3.77091317e-04 1.06782804e-03
      3.83191596e-04 3.11454933e-04 -7.41915079e-04 -6.85748470e-04
      -2.20018002e-04 -6.51163782e-06 -1.23172606e-04 -2.15281625e-06 0.
      0. 0. 0. -2.61888249e-06 1.16369156e-05 -4.32493136e-04
      -7.84843345e-04 -7.73168867e-04 -7.80309318e-04 -5.36576204e-04
      5.29828307e-04 3.06856491e-05 6.29998103e-05 -4.30404179e-04
      -6.20700361e-04 -1.72457512e-04 -1.43200508e-04 -2.68544274e-04
      -4.09035092e-05 0. 0. 0. 0. -6.85182113e-06 -2.83757581e-05
      -4.95752261e-04 -1.71030886e-04 -2.22531147e-04 -4.62426542e-04
      -1.30917078e-05 4.51403408e-04 3.90337344e-04 3.45783861e-04
      -1.55992439e-05 -1.19826116e-04 -2.82363850e-04 1.32054513e-04
      -1.94680702e-04 -9.32886996e-06 0. 0. 0. 0. 2.81421831e-06
      1.54335867e-04 -2.55418592e-04 1.84903678e-04 -2.68798613e-04
      3.57703044e-04 1.47247338e-04 7.56866430e-05 3.16085498e-05
      7.52428721e-04 2.63590598e-04 5.30213802e-05 -3.46034976e-05
      3.79475649e-04 7.73200281e-06 0. 0. 0. 0. 0. 6.41130755e-05
      3.73037008e-04 1.86978767e-04 1.91798550e-04 -3.83541810e-05
      2.24227741e-04 -6.86368148e-04 -2.34380621e-03 -1.39679923e-03
      -4.29851389e-05 -8.45859686e-05 6.61849568e-04 1.03182501e-04
      6.02139160e-04 2.73916958e-04 -1.06545143e-04 0. 0. 0. 0.
      7.94671141e-05 6.57037017e-04 4.08046180e-04 2.28450474e-04
      3.72584123e-04 -4.83878190e-04 -9.14278615e-04 -2.56130169e-03
      -1.83093513e-03 -1.16173120e-03 3.22895095e-04 1.07822008e-03
      3.74884374e-04 1.47006198e-04 -1.92621243e-04 -3.46271700e-05 0.
      0. 0. 1.76249057e-06 7.96145541e-05 5.20319736e-04 4.44061559e-04
      7.52415217e-04 2.10694809e-04 -9.52523667e-04 -1.92321860e-03
      -2.09552888e-03 -1.23790477e-03 -1.26558682e-03 -2.67318479e-04
      5.12257626e-04 2.50405836e-04 3.05351190e-04 -8.61650915e-05 0. 0.
      0. 0. 4.49514528e-06 1.11900416e-04 4.12263500e-04 2.12132421e-04
      3.54918826e-04 -3.02988017e-04 -3.22445412e-04 -1.05086446e-03
      -3.74205731e-04 -2.38668465e-04 1.73864042e-04 2.41135131e-04
      4.26445418e-04 7.73313805e-04 5.62251196e-04 -1.54913374e-04 0. 0.
      0. 0. 9.08874426e-06 -1.09076418e-05 1.71515363e-04 6.54435717e-04
      -4.07296138e-05 2.63594440e-04 8.72218166e-04 -1.02041056e-03
      -1.04198996e-04 7.17334799e-04 9.19991173e-04 -1.00447825e-04
      -2.50003068e-04 6.24157430e-04 3.27257614e-04 -2.05250253e-04 0.
      0. 0. 0. 9.36574634e-06 -1.03007122e-04 -2.12393687e-04
      8.30270059e-04 -4.23621204e-05 5.00201015e-04 1.45721028e-03
      2.81803688e-04 3.00939078e-04 1.31672609e-03 -2.73449950e-05
      -3.55534256e-04 -4.97611705e-04 4.92782601e-05 6.83047401e-05
      -8.09677658e-05 0. 0. 0. 0. 9.35394200e-06 7.22750483e-05
      9.95507871e-05 2.86518280e-05 8.00461567e-05 3.45475564e-04
      5.93822333e-04 -2.48860480e-04 3.12816817e-04 4.00185934e-04
      -7.69417617e-04 2.13760621e-04 2.32311606e-04 -2.27682031e-04
      -8.42293593e-05 -7.20192702e-06 0. 0. 0. 0. 0. 1.39240699e-04
      4.34427726e-04 -1.04672356e-04 4.38918360e-04 9.00122803e-04
      4.35076545e-05 3.45993496e-04 4.31745459e-04 1.12839683e-04
      4.41664131e-04 5.48820011e-04 -1.25398874e-04 -4.61666321e-04
      -9.96155723e-05 0. 0. 0. 0. 0. 0. 1.67613587e-04 3.74395633e-04
      1.77304319e-04 5.35842373e-05 2.05309057e-04 -1.30476719e-05
      -2.30019170e-04 -4.19622578e-04 3.10617703e-04 2.77599756e-04
      -1.66973608e-04 -3.79426725e-04 -1.40084405e-04 0. 0. 0. 0. 0. 0.
      0. 0. 0. 0. 0. 8.20282294e-05 2.36434309e-04 1.68235201e-04
      -1.79497215e-06 0. 0. 0. 0. 0. 0. 0. 0. 0. 0. 0. 0. 0. 0. 0. 0. 0.
      0. 0. 0. 0. 0. 0. 0. 0. 0. 0. 0. 0.</_>
    <_>
      0. 0. 0. 0. 0. 0. 0. 0. 0. 0. 0. 0. 0. 0. 0. 0. 0. 0. 0. 0. 0. 0.
      0. 0. 0. 0. 0. 0. 0. 0. 0. 0. 0. 0. 0. 0. 0. 0. 0. 0. 0. 0. 0. 0.
      0. 0. 7.48248522e-06 4.49321815e-05 4.49181280e-05 1.27425199e-04
      4.86973950e-05 1.10770779e-04 2.96200160e-04 1.61005461e-04
      2.93276171e-05 0. 0. 0. 0. 0. 0. 0. 0. 0. 0. 1.18472681e-05
      8.98222352e-05 2.44581082e-04 -1.03488281e-04 5.68218646e-04
      7.04070844e-04 5.24311443e-04 5.77594852e-04 5.38639666e-04
      1.90917563e-04 6.60469814e-05 0. 0. 0. 0. 0. 0. 0. 0. 0.
      7.55142537e-05 -3.31794348e-04 -6.60492515e-05 2.12980842e-04
      7.62133626e-04 4.24356083e-04 1.69830630e-04 -6.15070981e-04
      8.59910961e-06 -3.78805824e-04 5.96306752e-04 2.60815897e-04
      5.49444940e-06 0. 0. 0. 0. 0. 0. 7.71723935e-05 -4.09495406e-04
      -5.45876042e-04 -3.89479246e-04 -4.24838188e-04 2.85655493e-04
      -4.06952226e-04 -1.66290760e-04 1.54931418e-04 7.62008189e-04
      -6.11829921e-04 3.24031600e-04 7.63385848e-04 3.82686063e-04 0. 0.
      0. 0. 0. 2.05245724e-05 -1.00663157e-04 -9.64673643e-04
      -3.02906556e-04 -4.14624315e-04 1.09695786e-04 1.03823096e-03
      3.80885176e-04 2.92329205e-04 2.15547170e-05 -1.04963241e-04
      -9.57989017e-04 -2.84897978e-04 2.01423914e-04 3.28181661e-04 0.
      0. 0. 0. -1.34355639e-06 -5.22412010e-05 -3.43342370e-04
      -8.44358816e-04 2.99401116e-04 -2.33260813e-04 -6.82501530e-04
      7.60154973e-04 9.54779855e-04 8.78092018e-04 6.14962948e-04
      -7.11319371e-05 -6.12612988e-04 -4.41427692e-04 2.51178746e-04
      1.25027029e-04 0. 0. 0. 0. -4.92637355e-06 -2.50678335e-04
      -1.53800735e-04 -8.54174723e-04 -6.75752875e-04 -4.70582425e-04
      -5.12701226e-04 -6.62977051e-04 -7.63237942e-04 -8.10478290e-04
      -3.99398414e-04 -2.07453326e-04 -3.29802773e-04 1.15895353e-04
      4.71930398e-04 2.61817913e-04 0. 0. 0. 0. -4.05408973e-05
      -4.04940627e-04 -3.86445536e-05 -3.63813160e-04 7.66084413e-05
      5.61563531e-04 1.83761673e-04 -5.91724063e-04 -1.32849149e-03
      -1.25135353e-03 -4.46002523e-04 -3.55071359e-04 -4.32894922e-05
      4.67725564e-04 3.84672923e-04 4.79958282e-04 0. 0. 0. 0.
      -5.11703147e-05 -1.85860874e-04 8.45616625e-04 6.84698636e-04
      6.21714280e-04 1.56607863e-03 8.13583669e-04 -1.54910318e-04
      -1.23600126e-03 -9.73452232e-04 -8.31550919e-04 -1.05449883e-03
      -7.85615877e-04 6.13285461e-04 -9.03415566e-05 5.33759012e-04 0.
      0. 0. 0. 1.02649783e-05 1.35670896e-04 5.08631347e-04
      9.95688490e-04 4.07752377e-04 7.92661915e-04 6.38020399e-04
      -9.63828003e-04 -1.54197169e-03 -9.00872925e-04 -5.36341686e-04
      -6.18064019e-04 -3.84998537e-04 4.54408655e-06 1.75913985e-04
      5.45308634e-04 0. 0. 0. 0. 5.19764690e-05 7.94848893e-04
      5.38525928e-04 7.62942364e-04 4.81280586e-04 8.40342371e-04
      6.08382223e-04 -8.97106889e-04 -8.41856119e-04 -5.15152875e-04
      -4.08586173e-04 3.38197206e-05 -3.82340455e-04 6.40363840e-04
      -3.58810667e-06 2.49204168e-04 0. 0. 0. 0. 5.85792841e-05
      8.68198113e-04 8.23612500e-04 8.33886559e-04 5.15064348e-05
      -3.11656477e-05 5.36689069e-04 -5.32038219e-04 -3.81794525e-04
      -5.44097333e-04 -3.56640725e-04 5.65630093e-04 -9.50764588e-05
      1.05102314e-03 -3.97218508e-04 -3.73032904e-04 0. 0. 0. 0.
      3.40811275e-05 6.12875505e-04 3.55694734e-04 8.18269400e-05
      7.57598667e-04 1.12695142e-03 9.24671127e-04 1.13256066e-03
      -2.56472849e-04 -4.35133406e-04 3.28311609e-04 -2.01666873e-04
      -1.47581668e-04 7.24199344e-04 -6.42668048e-04 -9.08924849e-04 0.
      0. 0. 0. 1.77546917e-05 2.58432032e-04 4.10709094e-04
      -1.97843838e-05 4.19034710e-04 5.58002095e-04 -5.63828253e-05
      -6.76879252e-04 4.25124017e-04 2.65984680e-04 -1.10835198e-03
      -1.92683714e-04 1.64969999e-04 2.65005045e-04 -7.96370616e-04
      -9.02194297e-04 0. 0. 0. 0. 2.78072821e-06 1.26750834e-04
      3.06752889e-04 -8.69297073e-05 2.42988841e-04 1.60811318e-03
      1.53192843e-03 1.45568163e-03 1.12255989e-03 -1.02821155e-03
      -9.13494732e-04 4.59127536e-04 -1.15383928e-05 -7.96317254e-05
      -4.00642923e-04 -4.48013510e-04 0. 0. 0. 0. 1.06157347e-06
      1.13234501e-05 2.90173721e-05 -9.09560404e-05 -4.76929388e-04
      -5.34555176e-04 -4.88347956e-04 3.23384971e-04 9.56285570e-04
      -3.03090987e-04 -2.49461154e-04 7.07316722e-05 -3.16719583e-04
      -2.21047376e-04 -1.69215549e-04 -1.70989715e-05 0. 0. 0. 0. 0. 0.
      -2.07152561e-06 -1.07418171e-04 -2.73265498e-04 -2.74853839e-04
      -3.06759117e-04 -2.01981748e-04 -6.16359321e-05 2.11216284e-05 0.
      -4.60411502e-05 -1.72578293e-04 -6.19969214e-05 -3.49324655e-05
      -4.92637355e-06 0. 0. 0. 0. 0. 0. 0. -3.79346716e-06
      -4.64699733e-05 -1.04320352e-05 -8.47778722e-07 -1.55426096e-05
      -9.60815942e-06 0. 0. 0. 0. 0. 0. 0. 0. 0.</_>
    <_>
      0. 0. 0. 0. 0. 0. 0. 0. 0. 0. 0. 0. 0. 0. 0. 0. 0. 0. 0. 0. 0. 0.
      0. 0. 0. 0. 0. 0. -1.12749891e-04 -2.02567593e-04 -2.48431952e-05
      0. 0. 0. 0. 0. 0. 0. 0. 0. 0. 0. 1.18089076e-06 3.54267240e-06 0.
      1.01490286e-05 -5.23546587e-05 -1.27159728e-04 2.51290039e-04
      3.94771720e-04 1.32646994e-03 1.42042688e-03 -5.85815229e-04
      1.40792457e-04 -3.35687691e-05 -1.19063388e-05 0. 0. 0. 0. 0. 0.
      3.54267240e-06 1.29897990e-05 -1.80048082e-04 6.74715011e-06
      -2.32356106e-05 -6.83415215e-04 -5.42906520e-04 -1.00572268e-03
      2.63801485e-04 8.41436442e-04 -1.58396608e-03 4.72336338e-04
      5.70388860e-04 -1.59573276e-04 2.18233516e-04 6.46052795e-05 0. 0.
      0. 0. 0. -2.10338054e-04 -9.03368928e-04 -7.00685021e-04
      9.05470282e-04 -4.74272121e-04 -1.82029151e-03 -7.84230127e-04
      -1.19176367e-03 -3.74074443e-04 -2.23117924e-04 9.37288627e-04
      3.60326172e-04 3.34233424e-04 5.98763814e-04 1.27057050e-04 0. 0.
      0. 0. 0. -4.79143026e-04 -1.80823985e-03 -1.34374015e-03
      -2.78056861e-04 7.85477969e-05 -3.96195188e-04 3.33337550e-04
      -3.08863790e-04 4.54861380e-04 -2.14310814e-04 9.54515592e-04
      2.00646187e-04 5.69236465e-04 3.88964632e-04 1.72280743e-05 0. 0.
      0. 0. -3.79053517e-06 -6.98761491e-04 -1.75009714e-03
      -1.35944085e-03 -5.50917874e-04 7.22259865e-04 2.50117409e-05
      -4.82800038e-04 3.70387628e-04 -6.14508899e-05 -9.12825417e-05
      2.47100979e-04 -3.39853053e-04 -5.16376713e-06 9.85882434e-06 0.
      0. 0. 0. 0. -1.84111705e-05 -2.31963117e-04 3.37592282e-05
      5.72811259e-05 -2.46542942e-04 7.01002078e-04 1.40065176e-05
      5.77537692e-04 1.63463131e-03 -9.37412551e-06 -6.36679353e-04
      3.61787934e-05 -5.48005686e-04 -1.64072233e-04 -7.02145962e-06
      -6.57326109e-06 9.25053682e-05 0. 0. 0. -1.02885961e-05
      -1.16965086e-04 5.31915401e-04 1.53681694e-03 1.05719478e-03
      1.22496055e-03 2.40668945e-04 1.73747272e-03 1.47131248e-03
      -1.57709408e-04 -1.24764687e-04 -4.33668902e-04 -7.31548702e-04
      -2.32853461e-04 -3.52299016e-04 -3.86594009e-04 -1.40303571e-04
      -1.77318834e-05 0. 0. 0. -2.46570744e-05 1.90931358e-04
      8.12218350e-04 3.99205688e-04 -2.02150113e-04 6.75634074e-04
      2.03785487e-03 1.77481410e-03 7.04369741e-04 -2.74590013e-04
      -9.91953653e-04 -7.08950451e-04 -5.98003797e-04 -5.38582157e-04
      -3.60068458e-04 -1.95239132e-04 -2.26574084e-05 0. 0.
      -3.61822163e-06 -2.20112488e-04 -3.65055603e-04 -6.88889821e-04
      -3.06975999e-04 -6.40348822e-04 3.43612628e-04 1.49776542e-03
      1.27130060e-03 3.59579775e-04 6.23102940e-04 -7.64496857e-04
      -5.47240139e-04 -2.81706365e-04 -2.37376633e-04 -1.63829216e-04
      -7.74109139e-05 -8.57155737e-06 0. 0. -2.17093293e-05
      -3.86339205e-04 -6.66395412e-04 -1.05701829e-03 -9.40531492e-04
      -1.83190673e-03 -8.43152404e-04 5.66478644e-04 9.81893158e-04
      7.09542772e-04 7.17025250e-04 -6.68996770e-04 -9.63067636e-04
      -2.48199038e-04 -1.56124792e-04 -1.56124792e-04 -1.54288035e-04
      -3.48984831e-05 0. 0. -3.55126322e-05 -4.64189856e-04
      -9.05847875e-04 -1.07832032e-03 -8.14134080e-04 -8.46695504e-04
      -1.89490337e-03 2.54499959e-04 -6.24198728e-05 -2.73927202e-04
      9.31801624e-05 -9.15039680e-04 -5.40004286e-04 -1.19912322e-03
      -3.43417982e-04 -2.63613707e-04 -1.18777294e-04 -4.16332805e-05 0.
      0. -3.12835546e-05 -4.54660127e-04 -6.01598877e-04 -1.08888920e-03
      -5.63632697e-04 -1.44696489e-04 -7.37817143e-04 -2.58160522e-04
      -1.10050396e-03 -1.44200271e-03 -1.07718864e-03 -2.44132039e-04
      9.39541729e-04 -6.65099593e-04 1.77566646e-04 2.30501362e-04
      -1.02248261e-04 -3.06127049e-06 0. 0. -2.04288881e-05
      -2.80992128e-04 -3.25477740e-05 -2.53138860e-04 -1.72476599e-03
      -1.28119614e-03 -4.53139568e-04 -1.00740581e-03 -3.69511372e-06
      -8.28322736e-05 -1.22663710e-04 1.38535670e-05 -6.88718748e-04
      7.64121418e-04 6.07681286e-04 1.77709374e-03 -4.00169847e-05
      -9.48838569e-05 0. 0. -1.21469066e-05 -1.26967498e-04
      6.23308297e-04 1.44121284e-03 -3.30444134e-04 -3.20479274e-04
      3.68498208e-04 -1.58932176e-03 6.30295603e-04 4.67515376e-04
      -1.61151448e-03 -1.83482748e-03 -1.06813584e-03 -3.04588379e-04
      -4.89823811e-04 8.27858632e-04 3.96710704e-04 -1.77907241e-05 0.
      0. 0. -7.66019457e-06 -4.13445465e-04 1.72233456e-04
      8.30516976e-04 1.25440274e-04 -8.01535440e-04 -9.04030690e-04
      3.01127089e-04 2.13282285e-04 1.77779089e-04 -3.89554654e-04
      -5.49285149e-04 -8.97603924e-04 -7.69498351e-04 7.80222690e-05
      9.96277522e-05 0. 0. 0. 0. 1.93815831e-05 4.15928880e-05
      -3.00943415e-04 1.68648388e-04 3.57381854e-04 1.55309695e-04
      1.21230434e-04 -5.86510578e-04 -5.46161958e-04 5.99593739e-04
      -1.18969554e-04 -6.56070246e-04 -5.66417410e-04 -9.66864100e-05
      -3.71870806e-06 0. 0. 0. 0. 0. 0. 0. 0. 0. 0. 0. 0. 0. 0.
      -9.58244345e-06 -5.44282775e-05 -3.33469034e-05 0. 0. 0. 0. 0. 0.
      0. 0. 0. 0. 0. 0. 0. 0. 0. 0. 0. 0. 0. 0. 0. 0. 0. 0. 0.</_>
    <_>
      0. 0. 0. 0. 0. 0. 0. 0. 0. 0. 0. 0. 0. 0. 0. 0. 0. 0. 0. 0. 0. 0.
      0. 0. 0. 0. 0. 0. 0. 0. 0. 0. 0. 0. 0. 0. 0. 0. 0. 0. 0. 0.
      9.69830694e-07 2.90949220e-06 0. 8.72500004e-06 -7.05935599e-05
      -2.35065017e-04 -1.52064124e-04 -2.83505342e-05 1.28630010e-04
      -1.57164715e-04 -7.10661232e-04 -2.33490882e-05 -1.45508666e-05
      4.84915381e-06 0. 0. 0. 0. 0. 0. 2.90949220e-06 1.06681382e-05
      4.68936341e-05 1.31417939e-04 1.27095496e-04 -2.85206275e-04
      -4.54229157e-04 -1.15149457e-03 -6.77559059e-04 2.26809832e-04
      -1.44661148e-03 5.38055792e-05 2.20842427e-04 -9.12461255e-05
      7.72471176e-05 2.40094232e-05 0. 0. 0. 0. 0. -1.27182930e-05
      5.89971569e-05 2.79448024e-04 5.17469598e-04 -6.58465724e-04
      -8.50820681e-04 -1.23828673e-03 -9.31953720e-04 4.78613743e-04
      -3.09698138e-04 7.21908407e-04 8.99559353e-04 2.22636460e-04
      2.55602572e-05 3.73423245e-05 0. 0. 0. 0. -6.63190876e-05
      -3.85585416e-04 -3.94911767e-04 1.70502244e-04 -5.44883427e-04
      -7.77926936e-04 1.72215092e-04 -9.94480914e-04 -4.30226821e-04
      -1.85618032e-04 -1.50380947e-03 -9.26712073e-06 5.16866916e-04
      7.10961351e-04 -3.14047618e-04 -7.96414388e-05 0. 0. 0. 0.
      -3.92804621e-04 -9.25976026e-04 -7.86231249e-04 -2.23106312e-04
      -5.44183888e-04 -3.94560338e-04 2.54800107e-04 6.29892515e-04
      7.18154304e-04 -6.98138319e-04 -1.50927913e-03 -1.80235162e-04
      2.12261322e-04 -4.18282114e-04 -3.81183054e-04 -2.80689364e-05 0.
      0. 0. 0. -4.86440782e-04 -5.02207375e-04 9.54545685e-05
      4.91788378e-05 2.65972805e-04 1.43429570e-04 7.92584906e-04
      1.93141366e-03 2.12510605e-03 -2.89244726e-05 -7.39878509e-04
      -4.94736014e-04 -5.87784627e-04 -3.93757102e-04 -1.11489084e-04
      8.78597930e-05 2.85192567e-04 0. 0. 0. -6.03858971e-05
      -3.25154833e-05 5.50019147e-04 7.00719713e-04 3.01497086e-04
      -3.33639509e-05 -2.00038005e-04 6.52516901e-04 9.61927173e-04
      1.02661352e-03 -3.34273500e-04 -9.68510984e-04 -7.11965258e-04
      -8.58784624e-05 -9.43602117e-06 7.81979616e-05 2.48393539e-04 0.
      0. 0. 0. 5.18628003e-05 6.28234295e-04 4.31999622e-04
      -2.53487262e-04 -8.74667370e-04 -9.61690908e-04 -3.57545738e-04
      6.53959636e-04 1.66815729e-03 -4.13920265e-04 -1.13716442e-03
      -8.15055624e-04 -1.09786204e-04 -4.95497079e-05 0. 0. 0. 0. 0. 0.
      1.14098162e-04 3.24287248e-05 -3.58220801e-04 -6.23377156e-04
      -9.78927361e-04 -1.42378922e-05 -7.45350495e-04 7.85054464e-04
      3.04244295e-05 1.94953725e-04 -1.54165144e-03 -1.14241079e-03
      -1.59058327e-04 -9.23934349e-05 -3.20396612e-05 0. 0. 0. 0.
      -9.10317976e-06 -5.83431065e-05 5.75486483e-05 6.34996832e-05
      -2.59658060e-04 3.53263109e-04 1.03383136e-04 6.61786529e-04
      1.78016489e-03 -6.86779153e-04 6.64007443e-04 -1.47034449e-03
      -1.55995565e-03 -3.62807914e-04 -9.27659930e-05 -7.97265966e-05 0.
      0. 0. 0. -1.28272086e-05 -2.10730374e-04 -5.47194213e-05
      6.49966096e-05 6.31118717e-04 1.00015267e-03 1.10994221e-03
      1.82036858e-03 2.21261405e-03 -1.73084543e-03 -6.08780247e-04
      -1.29437144e-03 -9.53023788e-04 -5.65636146e-04 -2.11629624e-04
      -8.30795834e-05 0. 0. 0. 0. -9.51696074e-06 -4.73694206e-04
      -7.11064145e-04 -7.27371313e-04 -7.49509141e-04 5.49834629e-04
      3.91819594e-05 7.47626240e-04 4.33522568e-04 -6.01899228e-04
      9.84100043e-05 -6.88286149e-04 2.15134482e-04 9.69541506e-05
      4.00011078e-04 3.19718296e-04 5.10686186e-06 0. 0. 0. 0.
      -5.83573594e-04 -7.84963369e-04 -3.58353660e-04 -1.50925538e-03
      3.10483971e-04 7.85645796e-04 1.86222387e-05 -5.12393250e-04
      2.89654796e-04 6.20433653e-04 2.84294365e-04 4.40509721e-05
      4.11568064e-04 9.87827196e-04 1.08677696e-03 1.48165374e-04 0. 0.
      0. 0. -2.69479089e-04 -3.23918008e-04 4.86558420e-04
      -3.62437102e-04 -1.58482275e-04 -8.40981607e-04 2.53041246e-04
      -6.42596046e-04 3.87381850e-04 5.14595944e-04 -2.00100811e-04
      1.74326167e-04 2.98036844e-04 4.71913139e-04 8.17039516e-04
      3.86771600e-04 0. 0. 0. -2.22214730e-05 -1.61281772e-04
      -1.44364822e-04 1.60139716e-05 4.18506650e-04 1.85977042e-04
      5.92782817e-05 8.52317316e-05 -1.57175283e-03 5.11269391e-05
      8.76950857e-04 -5.31296828e-05 3.11630632e-04 9.08061611e-06
      -1.24875674e-04 1.44046629e-04 8.99859951e-05 0. 0. 0.
      -8.14787345e-05 -5.75493556e-04 -4.55524307e-04 -1.24232576e-03
      -1.00456621e-03 -6.71360176e-04 -5.30585530e-04 -9.88461892e-04
      -1.07883534e-03 9.06230271e-05 1.11760652e-04 -1.84783785e-04
      -1.10061614e-04 -3.54892894e-04 -2.00479248e-04 0. 0. 0. 0. 0.
      -2.96286289e-05 -2.17276611e-04 -2.12338506e-04 -1.30859786e-04
      -7.40715723e-06 -1.51844351e-05 -2.46455689e-04 -2.80821754e-04
      2.20890051e-05 -5.76918683e-06 -8.84178808e-05 -2.67251395e-04
      -3.79792880e-04 -2.30767473e-04 -5.19226815e-05 0. 0. 0. 0. 0. 0.
      0. 0. 0. 0. 0. 0. 0. 0. -4.32689012e-06 -5.91341668e-05
      -1.05287661e-04 -9.80761761e-05 -2.88459341e-06 0. 0. 0. 0.</_>
    <_>
      0. 0. 0. 0. 0. 0. 0. 0. 0. 0. 0. 0. 0. 0. 0. 0. 0. 0. 0. 0. 0. 0.
      0. 0. 0. 0. 0. 0. 0. 0. 0. 0. 0. 0. 0. 0. 0. 0. 0. 0. 0. 0. 0. 0.
      0. 6.43213352e-05 9.77421078e-05 -3.68975961e-05 -1.37048210e-05
      4.16435105e-05 1.29624430e-04 1.21883575e-04 -2.36336564e-05
      7.51302068e-05 1.43196899e-04 1.99062943e-05 0. 0. 0. 0. 0. 0. 0.
      0. 1.51609609e-04 7.84052827e-04 6.40110462e-04 3.38951395e-05
      -8.17754044e-05 1.79531649e-04 4.68129118e-04 1.36008440e-03
      -1.98136433e-04 3.51269584e-04 -1.54327019e-04 -3.52373245e-05
      1.59427014e-04 4.58980940e-05 0. 0. 0. 0. 0. 0. 6.20570383e-04
      6.44933316e-04 3.51944545e-05 3.07479670e-04 -2.47339573e-04
      4.66572790e-04 4.53306333e-04 1.48721098e-03 -8.81578308e-05
      1.39497046e-03 -2.39031666e-04 -1.27751031e-04 2.22429284e-04
      7.71588238e-05 0. 0. 0. 0. 0. 0. 8.61794688e-05 4.74518689e-04
      3.43227788e-04 -4.60037350e-04 -2.98740342e-05 4.38437273e-04
      2.96342885e-04 -7.10323919e-04 -2.64109578e-04 1.10820332e-03
      2.57391977e-04 2.32672101e-04 1.00430934e-05 -2.01051535e-05 0. 0.
      0. 0. 0. -2.00301238e-05 -2.36136708e-04 -4.32000728e-04
      2.98217172e-04 -9.53438866e-04 4.05355298e-04 -5.51315679e-05
      -2.60030560e-04 -6.10912277e-04 1.53835432e-03 7.31163949e-04
      1.75951398e-04 5.15762222e-05 -2.86412891e-04 -1.08436172e-04 0.
      0. 0. 0. 0. -9.80421828e-05 -3.10664414e-04 -7.47940387e-04
      -7.56638241e-04 -9.72808280e-04 -4.58099588e-04 1.35562994e-04
      2.50873301e-04 1.07442669e-03 1.07361213e-03 2.77622981e-04
      1.01050086e-04 -2.33110884e-04 -2.11261897e-04 -5.57618223e-05 0.
      0. 0. 0. -2.21385581e-05 -2.37360044e-04 -1.43723082e-04
      -4.79602662e-04 -1.05831272e-03 -1.24832650e-03 8.12222133e-05
      1.92802283e-04 1.09383324e-03 7.75895722e-04 -1.36694638e-03
      -1.26063853e-04 -2.32524908e-04 -2.93218967e-04 -1.51200205e-04
      -4.52863833e-06 0. 0. 0. 0. -4.21686818e-05 -2.74257647e-04
      -8.22117800e-05 -3.10453412e-04 -1.61272206e-03 -2.01707217e-03
      -1.17644621e-03 -2.33521532e-05 1.77216379e-03 1.48893494e-04
      -2.00029067e-03 -3.84907093e-04 -3.69267800e-04 -3.16395250e-04
      -1.46877093e-04 -3.25517044e-06 0. 0. 0. 0. -3.26807276e-05
      -2.71094992e-04 -1.73233071e-04 -3.28939001e-04 -1.37386611e-03
      -1.64272310e-03 -2.10621371e-03 1.74666784e-04 5.51926612e-04
      -1.03700534e-03 -1.27926539e-03 -5.99411491e-04 -4.43750323e-04
      -3.80983460e-04 -4.11960675e-04 -1.49737840e-04 0. 0. 0. 0. 0.
      -1.51968459e-04 -1.14242452e-04 -2.29580610e-06 -5.99356543e-04
      -1.56397629e-03 -1.76025744e-04 4.37428680e-04 1.17043106e-04
      -9.08552844e-04 -5.32458536e-04 -8.24287941e-04 -4.31312335e-04
      -3.14670964e-04 -4.78019880e-04 -1.89507278e-04 0. 0. 0. 0. 0.
      4.24757454e-05 2.79671483e-04 1.38046293e-04 2.70424760e-04
      -5.39566332e-04 -7.73110602e-04 -1.24636572e-03 -7.27099599e-04
      -7.40598596e-04 -1.27809308e-03 -1.81635097e-03 -1.25991646e-03
      -3.53550626e-04 -3.81877850e-04 -1.79741764e-04 0. 0. 0. 0. 0. 0.
      8.42115405e-05 -4.63067372e-05 7.73250416e-04 6.83159917e-04
      -6.02546148e-04 7.44997466e-04 6.05418871e-04 9.46708460e-05
      5.26326301e-04 1.67967417e-04 -9.11193420e-05 -7.99877962e-05
      5.14041385e-05 2.28462832e-05 0. 0. 0. 0. 0. 0. 8.87542228e-06
      2.83846399e-04 4.97249188e-04 8.91870877e-05 -2.86086346e-04
      1.53098151e-03 9.83198872e-04 -9.69471221e-05 7.14092224e-04
      1.16619875e-03 9.82174301e-04 3.89585533e-04 1.61827847e-04
      1.28827654e-04 1.77693310e-05 0. 0. 0. 0. 0. 1.76068846e-04
      5.93850564e-04 4.73779801e-04 4.94232983e-04 7.37417722e-04
      6.18126418e-04 1.06015976e-03 6.77266682e-04 6.61470986e-04
      9.64693085e-04 1.06360298e-03 5.84115623e-04 1.44058504e-04
      1.51673943e-04 7.80581322e-05 0. 0. 0. 0. 3.97352778e-06
      3.70988419e-04 5.64452785e-04 5.95639751e-04 -2.64597911e-04
      2.75688682e-04 2.01232149e-04 7.49816420e-04 9.48828994e-04
      2.52951111e-04 5.70429314e-04 1.05597486e-03 5.35259955e-04
      3.10963296e-05 3.30001858e-05 1.84039509e-05 0. 0. 0. 0.
      1.78808750e-05 3.35763092e-04 7.48638631e-05 4.58240625e-04
      5.35640633e-04 -1.21926430e-04 -6.80302095e-04 -4.57776157e-04
      -2.25420241e-04 -1.21011792e-04 7.53332715e-05 2.00261042e-04
      7.90778940e-05 -6.51034061e-05 -3.58068755e-05 0. 0. 0. 0. 0. 0.
      0. -1.14979186e-04 1.92335836e-04 4.02399630e-04 1.22035872e-05
      -7.82178657e-04 -1.15113461e-03 -3.33687552e-04 0. 0. 0. 0.
      -2.05075732e-04 -1.17186137e-04 0. 0. 0. 0. 0. 0. 0.
      -9.62335616e-06 -2.26431912e-05 0. 0. 0. 0. 0. 0. 0. 0. 0. 0. 0.
      0. 0.</_>
    <_>
      0. 0. 0. 0. 0. 0. 0. 0. 0. 0. 0. 0. 0. 0. 0. 0. 0. 0. 0. 0. 0. 0.
      0. 0. 0. 0. 0. 0. 0. 0. 0. 0. 0. 0. 0. 0. 0. 0. 0. 0. 0. 0. 0. 0.
      0. 1.48008012e-05 2.53728031e-05 1.04510564e-05 1.23271326e-04
      4.00675548e-04 6.10038638e-04 5.82256762e-04 1.27530409e-04
      8.49135613e-05 -5.37002488e-05 -9.71957270e-05 -3.75334093e-05
      -3.15883844e-05 -1.54013560e-05 0. 0. 0. 0. 0. 1.05047155e-04
      4.33119189e-04 4.00666846e-04 1.40965756e-04 2.35568499e-04
      -2.01259943e-04 -6.35602977e-04 6.03671615e-05 9.21610717e-06
      3.46513116e-04 -4.12405760e-04 -1.01122609e-03 -5.28714794e-04
      -2.49783276e-04 -7.42065313e-05 0. 0. 0. 0. 0. 2.45318632e-04
      5.28276840e-04 4.50887310e-04 -1.27692765e-04 -6.74995536e-04
      -4.81143623e-04 -2.75296246e-04 2.32003804e-04 -2.03017466e-04
      6.59404486e-06 -6.31609990e-04 -4.84268210e-04 -4.06801264e-04
      -3.55247641e-04 -1.71252963e-04 -2.22704216e-06 0. 0. 0.
      -1.34576949e-05 -5.37901178e-06 2.90894037e-04 -1.23746053e-04
      1.92199950e-04 1.57207440e-04 -4.19837306e-04 -3.15838843e-04
      4.69878374e-04 -4.68617509e-04 1.41688186e-04 2.87951298e-05
      -1.20318749e-04 -8.82249791e-04 -8.31872050e-04 -2.10194572e-04 0.
      0. 0. 0. -5.63540962e-05 -1.53662579e-04 -2.23541268e-04
      -2.05485718e-04 4.63838660e-04 7.60146824e-04 6.53104216e-05
      -3.01675609e-04 4.21506047e-06 2.01605835e-05 3.49289905e-07
      -6.16780831e-04 -1.41608668e-03 -1.34849444e-03 -1.05944811e-03
      -3.95931420e-04 0. 0. 0. 0. -4.54197216e-05 -9.70942856e-05
      -1.41737954e-04 -6.42231171e-05 7.96489985e-06 2.54847604e-04
      -3.62601626e-04 -2.75830796e-04 1.05026993e-03 1.12476293e-03
      4.39792406e-04 -5.27446682e-04 -5.95884339e-04 -4.49099723e-04
      -2.77061248e-04 3.18649290e-05 -1.38425166e-05 0. 0. 0.
      -7.90639606e-05 1.74046800e-05 6.87209074e-04 6.26037887e-04
      -1.51455475e-04 -1.29720283e-04 -2.28444813e-04 8.11180216e-04
      1.59951672e-03 1.31207088e-03 -5.23578638e-05 -4.90150123e-04
      -2.63526250e-04 -1.81447016e-04 -7.60998300e-05 7.71009945e-05
      -2.02898500e-05 0. 0. 0. -1.07791375e-05 1.21109777e-04
      -3.99270175e-06 -5.78564417e-04 -1.41651253e-03 -1.05324853e-03
      -1.57303984e-05 1.40624074e-03 1.40279264e-03 5.43018978e-04
      -7.20867538e-04 -8.34236329e-04 -5.61439490e-04 -2.64426868e-04
      -2.63424990e-05 0. 0. 0. 0. 0. -3.30812986e-06 -5.41423797e-04
      -9.62317397e-04 -9.72296635e-04 -1.88120734e-03 -8.55713850e-04
      5.45674178e-04 1.76890718e-03 2.09886130e-04 -5.60984539e-04
      -5.20121597e-04 -4.90479695e-04 -3.32196039e-04 -3.36263212e-04
      -1.90191669e-04 0. 0. 0. 0. 0. -2.46957003e-04 -6.06330403e-04
      -4.00111749e-04 -2.14623826e-04 -1.15160784e-03 2.10850165e-04
      1.16135436e-03 1.02546846e-03 -9.36194265e-05 -6.21208164e-04
      -5.10253711e-04 -5.49024262e-04 -3.24420776e-04 -2.81589659e-04
      -3.15770856e-04 0. 0. 0. 0. 0. -9.73894130e-05 -4.88272344e-04
      -3.48820846e-04 -1.12194859e-04 -6.29455259e-04 7.57637899e-04
      6.32219249e-04 1.46355786e-04 -1.10044086e-03 -1.02718605e-03
      -5.38008404e-04 -4.58748982e-04 -4.66823753e-04 -3.22424603e-04
      -3.07793060e-04 0. 0. 0. -1.91069976e-05 -2.89789477e-05
      -1.87503319e-04 -6.72536262e-04 -9.46390443e-04 -4.37820505e-04
      1.27089224e-04 6.10988995e-04 8.93729681e-04 5.24783565e-04
      -7.91469589e-04 -9.52188158e-04 -4.47988627e-04 1.14929244e-04
      -2.22627023e-05 3.65808737e-05 1.54002497e-04 2.82907945e-06 0. 0.
      -3.91693466e-05 -7.92940409e-05 -2.15668304e-04 -3.41906649e-04
      -1.57822971e-03 -8.82203341e-04 9.12975302e-05 1.60463707e-04
      5.19568683e-04 1.25226332e-03 -1.61687029e-04 -7.49168321e-05
      6.35476841e-04 2.85415881e-04 3.40268074e-04 4.51510452e-04
      7.00811506e-04 1.05251696e-04 0. 0. -1.27379985e-06
      -9.87194926e-06 -1.68527855e-04 3.92151444e-04 6.29833376e-04
      -4.64862242e-04 -1.11565262e-03 -1.10596116e-03 -7.60066847e-04
      1.80562667e-04 9.21572850e-04 5.00623064e-05 9.86293799e-06
      2.33047351e-04 2.06554148e-04 1.33172827e-04 4.30606888e-04
      3.16051824e-04 0. 0. 0. 0. -3.37682854e-06 1.42394900e-04
      2.98095256e-04 -4.38815536e-04 -1.30057696e-03 -9.52029659e-04
      -8.34375271e-04 -1.79611976e-04 5.94641198e-04 6.56354969e-05
      -2.84423266e-04 2.42539434e-04 -8.18580520e-05 -5.17260560e-05
      1.17844393e-04 7.38492672e-05 0. 0. 0. 0. 0. -6.29932765e-05
      -1.48209074e-04 -3.63979285e-04 -5.83089655e-04 -3.34536395e-04
      -2.55400839e-04 -2.02973519e-04 -2.90685595e-04 1.04535611e-04
      1.02838843e-04 1.75016437e-04 -6.25667326e-06 0. 0. 0. 0. 0. 0. 0.
      0. -9.16265799e-06 -2.71061981e-05 -3.22284468e-05 -1.22487327e-04
      -1.99792528e-04 -3.57351761e-04 -3.73010698e-04 -3.37094913e-04
      -2.57099775e-04 -7.76132292e-05 -5.23542667e-06 0. 0. 0. 0. 0. 0.
      0. 0. 0. 0. 0. 0. 0. -4.99593125e-06 -3.66368295e-05 0. 0. 0. 0.
      0. 0. 0. 0. 0. 0.</_>
    <_>
      0. 0. 0. 0. 0. 0. 0. 0. 0. 0. 0. 0. 0. 0. 0. 0. 0. 0. 0. 0. 0. 0.
      0. 0. 0. 0. 0. -8.40504072e-06 -3.84313607e-05 -1.20779005e-04
      -2.95452075e-04 -1.77969287e-05 0. 0. 0. 0. 0. 0. 0. 0. 0. 0. 0.
      0. 0. 3.30899684e-06 -1.33363492e-05 -1.86525242e-04
      -1.91825791e-04 -9.46004293e-05 -4.77746071e-04 -2.34269770e-04
      -2.62661430e-04 -5.13743260e-04 -1.24603830e-04 2.71881017e-05
      -3.95011739e-06 0. 0. 0. 0. 0. 0. 0. 6.60829610e-05 2.57711683e-04
      1.38009476e-04 -3.28037102e-04 9.22203981e-06 5.51428529e-04
      6.22637599e-05 2.70467368e-04 -4.79754410e-04 -4.65174206e-04
      -2.52356869e-04 -1.58219016e-04 1.03431368e-04 -5.27470875e-05
      -7.80367118e-05 0. 0. 0. 0. 0. 1.98140959e-04 4.95619897e-04
      2.78947206e-04 3.41744862e-06 4.79805371e-04 6.11236552e-04
      3.45423759e-04 9.61901911e-04 1.11010653e-04 5.16394794e-04
      3.38012469e-04 1.60077965e-04 1.32588311e-05 -4.55467554e-04
      -5.41222340e-04 -3.42354586e-04 0. 0. 0. 0. 8.01821370e-05
      4.45726124e-04 3.63896776e-04 7.27823121e-04 4.74391767e-04
      5.73190511e-04 2.28329765e-04 1.07323902e-03 1.61230884e-04
      7.32894463e-04 2.38426539e-04 6.31224466e-05 -1.87998696e-04
      -4.37861978e-04 -3.90183559e-04 -2.76904466e-04 0. 0. 0. 0.
      5.25602991e-05 1.33896974e-04 2.73923506e-04 7.99309171e-04
      4.53013025e-04 4.70333762e-04 8.43512898e-05 7.13066722e-04
      5.65719849e-04 5.77717670e-04 -4.85296951e-05 -5.97857652e-05
      -6.47079214e-05 -1.51038794e-05 0. 0. 0. 0. 0. 0. 3.86002212e-05
      -1.32877467e-04 -3.76810203e-04 -1.69122941e-05 2.41908871e-04
      5.38220629e-04 4.51704458e-04 1.49012473e-03 1.76442380e-03
      6.22775638e-04 -1.60661381e-04 -4.51635889e-04 -1.57229690e-04
      -8.13667248e-06 7.36182410e-05 0. 0. 0. 0. -2.47961816e-06
      -6.33250456e-05 -3.94823437e-05 -4.40555887e-04 -3.35871562e-04
      3.83012870e-04 -2.14147352e-04 1.08863658e-03 1.13123411e-03
      8.33871018e-04 2.26320015e-04 -2.90751224e-04 -3.87406180e-04
      -1.65133330e-04 -1.43128724e-04 6.37621124e-05 0. 0. 0. 0.
      -7.68681566e-05 -1.58877025e-04 -8.44981550e-05 -5.25120704e-04
      -8.18429166e-04 -6.47582405e-04 -1.86957128e-04 6.71833870e-04
      4.83272510e-04 1.14439819e-04 -7.58497976e-04 -4.93201369e-04
      -3.10180214e-04 -1.96189270e-04 -1.86560763e-04 -3.08429594e-06 0.
      0. 0. 0. -1.14842762e-04 -1.84036558e-04 -1.68858372e-04
      -5.07859222e-04 -1.00465771e-03 -7.37591763e-04 2.26182558e-04
      4.49061248e-04 7.66755024e-04 -7.34911082e-05 -7.09516346e-04
      -7.14082271e-04 -2.22952818e-04 -3.69953661e-04 -8.45656396e-05
      7.22491677e-05 1.60891177e-05 0. 0. 0. -1.20257318e-04
      -2.46707321e-04 -9.29854068e-05 -6.17743062e-04 -6.28662528e-04
      -9.09175025e-04 6.91885652e-04 2.64408474e-04 8.00865309e-05
      -9.83065693e-04 -1.39592518e-03 -9.45157197e-04 -4.51946835e-04
      -3.98411707e-04 -6.15927129e-05 3.83219140e-06 0. 0. 0. 0.
      -6.12419608e-05 -2.58985412e-04 -1.28840707e-04 -2.95840582e-04
      -1.26419554e-03 -1.55032682e-03 4.99024027e-05 -1.06439489e-04
      -1.19891495e-03 -1.21261925e-03 -8.10939178e-04 -7.84205564e-04
      -4.59744566e-04 -2.16354587e-04 -3.72497925e-05 -1.18999289e-07 0.
      0. 0. 0. -3.87829677e-05 1.05660074e-05 1.45572167e-05
      -7.60059454e-04 -1.77608535e-03 -1.06139481e-03 1.84454916e-06
      6.68922803e-05 -8.52253637e-04 -6.55536482e-04 -6.10036135e-04
      1.43817497e-05 -1.44873702e-04 2.06390450e-06 3.87520231e-05
      4.54075149e-07 0. 0. 0. 0. -2.26233988e-05 1.57605507e-04
      3.18751030e-04 -4.61238204e-04 -6.63161685e-04 -4.19956596e-05
      -9.31157614e-04 -3.27458780e-04 -5.22169983e-04 -7.98127789e-04
      -3.42871004e-04 3.74844676e-05 1.08092674e-04 1.53954490e-04
      1.51729633e-04 2.00200739e-05 0. 0. 0. 0. -1.43640625e-06
      3.17603466e-04 4.06393578e-04 -1.37595678e-04 3.15263285e-04
      1.20732679e-04 -1.31994078e-03 -4.33634588e-04 -3.23904824e-04
      -4.79645445e-04 -3.04919871e-04 1.13444068e-04 2.02102223e-04
      1.19038727e-04 1.31413530e-04 6.44631509e-05 0. 0. 0. 0.
      4.44292937e-06 4.17054864e-04 3.02505330e-04 -2.60595203e-04
      4.27735358e-05 8.32252554e-05 -4.65342600e-04 -3.85708467e-04
      6.81323349e-04 5.82854380e-04 3.33422940e-04 4.16437921e-04
      1.13354894e-04 2.54995521e-05 2.70607488e-05 1.50915712e-05 0. 0.
      0. 0. 1.99931819e-05 3.75427509e-04 1.62166922e-04 -1.94433233e-05
      -1.34129059e-05 5.86147435e-05 -1.56182796e-05 8.80239750e-05
      5.10869897e-04 7.09875196e-04 3.62353021e-04 2.03370524e-04
      1.25522320e-05 0. 0. 0. 0. 0. 0. 0. 0. 0. 0. 0. 0. 0. 0. 0. 0. 0.
      0. 0. 0. 0. 0. 0. 0. 0. 0. 0. 0. 0. 0. 0. 0. 0. 0. 0. 0. 0. 0. 0.
      0. 0. 0. 0. 0.</_>
    <_>
      0. 0. 0. 0. 0. 0. 0. 0. 0. 0. 0. 0. 0. 0. 0. 0. 0. 0. 0. 0. 0. 0.
      0. 0. 0. 0. 0. 0. 0. 0. 0. 0. 0. 0. 0. 0. 0. 0. 0. 0. 0. 0. 0. 0.
      0. 3.48123103e-05 5.96782484e-05 0. 4.17180418e-05 2.83953617e-04
      3.45871609e-04 2.73695594e-04 5.30042635e-05 4.13355119e-05
      2.06677560e-05 0. 0. 0. 0. 0. 0. 0. 0. 0. 5.90815871e-05
      4.66550118e-04 3.54713964e-04 -4.22720943e-04 -1.61897464e-04
      6.48264948e-04 6.41442311e-04 1.73344754e-03 1.49378926e-03
      1.03585748e-03 6.37195131e-04 7.48663751e-06 1.16972937e-04
      7.48042585e-05 0. 0. 0. 0. 0. -4.68337566e-05 1.30601373e-04
      1.55101909e-04 -9.02121596e-04 -1.29425223e-03 -1.54812087e-03
      -3.38128128e-04 -2.61444191e-04 -3.12463701e-04 3.11228141e-05
      1.20069005e-03 1.61846494e-03 8.61172011e-05 2.24606163e-04
      1.47115032e-04 0. 0. 0. 0. 0. -2.48804339e-04 -6.72583992e-04
      -2.47307529e-04 -1.79704931e-03 -2.01366725e-03 -9.73257178e-04
      -4.83718526e-04 -3.12462449e-04 -1.04864198e-03 -1.91485696e-03
      -4.04595165e-04 -3.01807067e-05 2.75324855e-04 2.22505900e-04
      1.46621842e-05 0. 0. -1.07784144e-05 -1.43030065e-05
      -2.04315202e-05 -2.21412702e-04 -4.27087070e-04 -4.18798561e-04
      -8.42676556e-04 -2.12571560e-03 -1.06078607e-03 -6.89276902e-04
      -1.77589740e-04 -4.97933186e-04 -7.81541923e-04 -8.07610340e-04
      -2.70889548e-04 -2.27763274e-04 -2.36767941e-04 -3.24460016e-05 0.
      0. 1.77865040e-05 2.58588771e-05 -1.74837085e-04 -7.30983738e-04
      -1.09378394e-04 -5.80886262e-04 -1.39760878e-03 -1.40168983e-03
      1.52568582e-05 1.18305448e-04 -3.24098291e-05 -4.72465472e-04
      -1.16894895e-03 -1.41977705e-03 -9.49130277e-04 -8.03965202e-04
      -4.10920155e-04 -5.09293168e-05 0. 0. 0. -5.99357554e-05
      -6.05868816e-04 -5.17124950e-04 1.28592204e-04 -1.60517462e-04
      -8.59607593e-04 -3.35834193e-04 9.97968134e-04 6.73662289e-04
      9.88612650e-04 7.49495230e-04 -2.69055512e-04 -9.22164763e-04
      -1.22171058e-03 -5.11241378e-04 -3.23533546e-04 -2.09195114e-05 0.
      0. 0. -4.33652807e-04 -4.89005935e-04 -5.72810459e-05
      2.90264143e-04 -8.77084458e-05 -5.32714592e-04 -9.72171489e-04
      4.34603484e-04 8.43600195e-04 2.05071829e-03 1.63493227e-04
      8.59041349e-04 -7.84508418e-04 -6.38028840e-04 -5.24318835e-04
      -1.69679828e-04 0. 0. 0. 0. -9.51920811e-05 -2.61440236e-05
      3.22880223e-05 -2.87337662e-05 -5.51757636e-04 -9.93776484e-04
      -1.29513966e-03 -1.70930914e-04 1.26167329e-03 1.05912320e-03
      -3.29756294e-04 2.80769949e-04 -6.38595782e-04 -4.76985762e-04
      -8.65103968e-04 -5.84247355e-05 0. 0. 0. 0. 0. -1.05712352e-05
      -1.90282226e-04 -3.38275830e-04 -3.33308242e-04 -2.46972399e-04
      -8.37538741e-04 2.32749982e-04 1.47981045e-04 1.24456838e-03
      -4.03974118e-04 -2.57912587e-04 -5.90266427e-04 -6.52731629e-04
      -7.93432526e-04 -2.46380107e-04 -2.40370828e-05 0. 0. 0. 0.
      -3.03923007e-05 -2.93351768e-04 -3.05244408e-04 -1.36286326e-04
      2.53622769e-04 -1.53947985e-04 -9.84540093e-04 -1.03561464e-03
      -1.10986468e-04 -1.00360089e-03 3.39231454e-04 -1.02101731e-04
      -3.88997083e-04 -4.30850341e-04 -5.31026744e-04 -3.33574018e-04 0.
      1.62149936e-05 0. 0. -2.90708958e-05 -1.62532742e-04
      -5.02133662e-05 -1.97305162e-05 3.69697984e-04 3.16637743e-04
      -5.76229359e-04 5.85626221e-05 -7.59594259e-05 -1.97377187e-04
      9.65593266e-04 4.12625923e-05 -1.89919170e-04 -6.30673196e-04
      -6.65554544e-04 -5.24618546e-04 0. 7.98276596e-05 0. 0. 0. 0.
      1.64656085e-05 1.03018894e-04 -1.11866226e-04 -1.47137107e-05
      1.17505668e-04 -2.56108993e-04 1.06848602e-03 1.43083540e-04
      2.41040761e-04 6.47038978e-04 5.51773875e-04 1.97973175e-04
      2.04254757e-04 2.32532024e-04 4.78192160e-05 8.73115096e-06 0. 0.
      0. 0. 5.63881651e-04 9.55012161e-04 -3.43682856e-04 1.61514618e-03
      -4.00835161e-05 -1.76549620e-05 1.05268636e-03 8.47699645e-04
      9.38299228e-04 1.00798241e-03 1.01018930e-03 7.13420974e-04
      3.87677195e-04 4.08171152e-04 2.10062979e-04 0. 0. 0. 0.
      4.41292832e-05 8.05841642e-04 4.13207337e-04 3.11283104e-04
      2.04200484e-03 2.30980149e-05 1.58841081e-03 6.14236051e-04
      -4.61761403e-04 1.10412168e-03 6.98463351e-04 7.17765011e-04
      4.06940788e-04 8.36836261e-05 8.88071154e-05 4.95270433e-05 0. 0.
      0. 0. 6.67339191e-05 3.99717566e-04 -8.09089455e-04
      -3.65066138e-04 6.22772553e-04 -6.99815282e-04 6.10654301e-04
      -1.39198406e-03 -1.48125400e-03 4.30000364e-04 1.41450480e-04
      9.20039674e-05 4.47586863e-05 0. 0. 0. 0. 0. 0. 0. 0.
      -1.00973921e-04 -5.30251011e-04 -3.37328966e-04 -9.99879558e-04
      -1.82236487e-03 -2.01882009e-04 -3.02325090e-04 -2.76040722e-04
      -6.23478772e-05 0. 0. 0. 0. 0. 0. 0. 0. 0. 0. 0. 0.
      -1.17031632e-05 -9.69690664e-05 -8.72858727e-05 -3.29621660e-04
      -9.45686406e-05 0. 0. 0. 0. 0. 0. 0. 0. 0. 0.</_>
    <_>
      0. 0. 0. 0. 0. 0. 0. 0. 0. 0. 0. 0. 0. 0. 0. 0. 0. 0. 0. 0. 0. 0.
      0. 0. 0. 0. 0. 0. 0. 0. 0. 0. 0. 0. 0. 0. 0. 0. 0. 0. 0. 0.
      5.56074497e-07 1.66822360e-06 0. 8.70517470e-05 1.02659460e-05
      -7.42991630e-04 -9.40763683e-04 -7.76305387e-05 5.31479949e-04
      2.34710431e-04 -3.13270371e-04 -1.52380744e-04 3.23152402e-04
      1.55510876e-04 3.57546269e-05 0. 0. 0. 0. 0. 1.66822360e-06
      6.11681980e-06 1.79295719e-04 9.23979154e-04 -1.33707013e-04
      -1.15581218e-03 -3.49116890e-04 -5.90748445e-04 -9.24388180e-04
      6.87831372e-04 -1.31220254e-03 -9.39674210e-04 -4.11063462e-04
      1.04342587e-04 3.51441995e-04 1.12793423e-05 0. 0. 0. 0. 0. 0.
      7.80458853e-04 5.99498395e-04 9.98698524e-05 6.02513435e-04
      -1.21861999e-03 -1.97788258e-03 -1.45067868e-03 -1.54233130e-03
      -1.23591826e-03 -4.45969490e-04 -8.33102269e-04 -4.05643019e-04
      -7.34705509e-06 -7.90137274e-05 0. 0. 0. 0. 0. 0. 1.55185990e-04
      3.47338937e-04 -6.78281958e-06 -2.67967815e-04 -6.03640583e-05
      -1.96234847e-04 7.71512860e-04 -4.87584388e-04 -3.64387466e-04
      1.76594884e-03 5.21209266e-04 7.97393615e-04 1.28736392e-05
      -2.08148689e-04 -9.62990089e-06 0. 0. 0. 0. -4.12443078e-05
      -6.38940255e-05 -7.15015631e-05 -5.06987271e-04 2.95527861e-04
      2.81690765e-04 6.48479850e-04 4.62788739e-04 1.48030126e-03
      -2.33340237e-04 -5.34545747e-04 -8.18794884e-04 -1.11320231e-03
      -9.54557676e-04 -8.38429376e-04 -2.52465106e-04 0. 0. 0.
      -2.17781817e-05 -2.88927113e-04 -1.10643930e-04 -2.09309670e-04
      6.39839505e-04 -1.05895195e-03 -9.09133989e-04 -2.52990867e-04
      1.68545870e-03 1.30359398e-03 -1.17585727e-03 -8.07866963e-05
      -8.63860128e-04 -1.10465824e-03 -8.24482238e-04 -5.77344268e-04
      1.08473381e-04 0. 0. 0. -5.11524522e-05 -4.21597535e-04
      1.48300285e-04 8.81450716e-04 9.63009545e-04 -6.64818042e-04
      -8.80536507e-04 -6.02629676e-04 2.36465689e-03 5.52234298e-04
      -4.68800463e-05 1.51491622e-04 -1.32512616e-03 -9.04671440e-04
      -7.72512052e-04 -3.49469658e-04 2.65187584e-04 0. 0. 0.
      -1.94795939e-05 -1.55196904e-04 6.27303496e-04 7.80922186e-04
      -9.04292276e-04 -2.22609425e-03 -1.00978697e-03 3.68276204e-04
      -7.30833970e-04 -3.76685552e-04 8.80235340e-04 -3.17725760e-04
      -1.30698213e-03 -5.65041963e-04 -2.58468935e-04 -3.47355999e-05
      4.81217012e-06 0. 0. 0. 0. 1.34181304e-04 2.27551049e-04
      -1.71265317e-04 -1.84461169e-04 -9.14650853e-04 3.23010376e-04
      9.45036300e-04 2.99547042e-04 -1.10963569e-03 1.35402265e-03
      -6.24322129e-05 -1.23653532e-04 9.89231266e-05 0. 9.62434024e-06
      6.73703835e-05 1.20304258e-05 0. 0. 0. 0. -4.80886665e-05
      -6.00848325e-05 1.99326496e-05 -2.02765543e-04 2.87509582e-04
      5.08577737e-04 1.40406855e-03 -1.71842810e-04 2.94049416e-04
      -1.19213713e-03 -1.19120150e-03 -3.58977850e-04 0. 0.
      1.20304258e-05 0. 0. 0. 0. -1.11834106e-06 -1.08767650e-04
      -4.43585450e-04 -6.73738890e-04 -1.36249396e-03 3.97247582e-04
      8.79854604e-04 -2.04019059e-04 -9.63380618e-04 -1.43417995e-03
      -1.12530659e-03 -1.79672951e-03 -1.12141203e-03 -2.72019795e-04 0.
      0. 5.39779394e-05 0. 0. 0. -1.49112145e-06 8.19826746e-05
      -4.90988605e-04 -1.30406697e-03 -7.33872148e-05 -5.72543591e-04
      4.72628948e-04 7.85846030e-04 -2.98918836e-04 -1.38985959e-03
      -4.44234087e-04 -2.19265843e-04 -1.49206771e-03 -7.67922029e-05
      2.71928933e-04 2.73543310e-06 2.65737559e-04 0. 0. 0.
      -4.68559520e-05 8.56270435e-06 -8.75875587e-04 -7.12494075e-04
      5.25398413e-04 -5.03234041e-04 6.69265355e-05 1.66102298e-04
      6.01486536e-04 -8.60737782e-05 1.18358829e-03 3.68664041e-04
      -7.52090884e-04 6.78117329e-04 1.03291019e-03 1.42586417e-04
      2.90650460e-05 0. 0. 0. -1.79628318e-04 3.20705556e-04
      8.28804274e-04 5.90714335e-04 2.40745896e-04 1.29875611e-04
      -1.49004289e-03 -2.68331089e-04 3.84265120e-04 1.83747848e-04
      7.55524379e-05 -5.18251443e-04 2.84247886e-04 6.21733780e-04
      9.64757346e-04 4.84900782e-04 0. 0. 0. 0. -1.52357941e-04
      7.98294932e-05 3.95948271e-04 3.89152323e-04 -8.87962306e-05
      -8.59719177e-04 -2.65895142e-05 -8.26622534e-04 -3.34851143e-06
      7.51484360e-04 -3.94030358e-05 7.10078340e-04 6.95752620e-04
      1.44787598e-04 2.03842268e-04 1.13681264e-04 0. 0. 0. 0.
      -2.46745294e-05 1.66776939e-04 -1.31391469e-04 -3.67997593e-04
      -6.47720124e-04 -1.01324322e-03 -8.52337107e-04 -1.97903323e-03
      -1.96439214e-03 3.69628047e-04 8.81334199e-05 2.32967868e-04
      8.73865210e-05 0. 0. 0. 0. 0. 0. 0. 0. 0. 0. 0. 0. 0.
      -8.05022682e-06 -4.52825261e-05 -8.85524933e-05 -3.62260216e-05 0.
      0. -1.97516001e-05 -2.69339998e-05 -1.79560004e-06 0. 0. 0. 0. 0.
      0. 0. 0. 0. 0. 0. 0. 0. 0. 0. 0. 0. -1.43648003e-05
      -1.79559993e-05 -1.79560004e-06 0. 0.</_>
    <_>
      0. 0. 0. 0. 0. 0. 0. 0. 0. 0. 0. 0. 0. 0. 0. 0. 0. 0. 0. 0. 0. 0.
      0. 0. 0. 0. 0. 0. 0. 0. 0. 0. 0. 0. 0. 0. 0. 0. 0. 0. 0. 0. 0. 0.
      0. 4.26600818e-05 7.31315668e-05 -1.27160638e-06 -3.15229772e-05
      1.39894124e-04 5.44644136e-04 5.68275573e-04 1.75288718e-04
      9.50511894e-05 4.75255947e-05 0. 0. 0. 0. 0. 0. 0. 0. 0.
      7.00844175e-05 5.54581056e-04 6.56361459e-04 2.11392166e-04
      -2.86217139e-04 -3.31613301e-05 7.34210887e-04 1.98481558e-03
      7.24216574e-04 2.43682414e-04 2.04600408e-04 2.73572979e-04
      1.16131574e-04 2.68226868e-05 0. 0. 0. 0. 0. 0. 3.05629132e-04
      6.66365202e-04 4.40495758e-04 3.95062030e-04 -2.36735323e-05
      -6.95706985e-05 -4.05765750e-04 5.09881706e-04 -3.61800281e-04
      1.35210270e-04 2.97164777e-04 9.84765589e-04 2.12921092e-04
      5.21563488e-05 0. 0. 0. 0. 0. -7.67161328e-06 2.47187927e-05
      3.96802730e-04 -5.91949611e-05 -7.83438270e-04 -2.36919746e-04
      -1.93968660e-03 -6.28742913e-04 -1.28711399e-03 -2.24667811e-03
      3.61731072e-04 4.72596948e-05 1.28202024e-03 2.06432072e-04
      7.15271653e-06 0. 0. 0. 0. 0. -1.63021778e-05 8.41292640e-05
      1.18227908e-04 -3.16804944e-04 -1.33075344e-03 -5.43871138e-05
      -1.94335065e-03 -5.04716707e-04 -1.61050702e-04 -7.74348620e-04
      -3.55355238e-04 -7.43248675e-04 6.27945628e-05 3.33031130e-05 0.
      0. 0. 0. 0. 0. -1.15640096e-05 1.59891133e-04 -2.56771542e-04
      -4.96563211e-04 -5.36891690e-04 -1.53641740e-04 -1.05971645e-03
      3.57185723e-04 -2.25296302e-04 2.16725035e-04 -2.86584429e-04
      -9.96042974e-04 -3.87925276e-04 -5.21644579e-05 0. 0. 0. 0. 0.
      -1.70653020e-05 -8.95612102e-05 1.99061062e-04 5.68348507e-04
      2.93166295e-06 -2.00754293e-04 -7.28388666e-04 -4.31857799e-04
      4.53163550e-04 -3.51276656e-04 -1.10654742e-03 -4.88946913e-04
      -9.38594225e-04 -3.79826146e-04 -1.20710956e-05 0. 0. 0. 0. 0.
      -1.04920007e-04 -1.31599460e-04 4.43725905e-04 4.33891459e-04
      -1.27930217e-03 -1.31231803e-03 -6.24442066e-04 2.79418804e-04
      9.57935874e-04 -3.13682103e-04 -1.53079326e-03 -1.26991817e-03
      -1.02999422e-03 -2.75442319e-04 0. 0. 0. 0. 0. 0. -1.05552055e-04
      -6.98552903e-05 -1.24272294e-04 -6.97539304e-04 -8.73388839e-04
      -8.98120692e-04 -3.52759147e-04 6.41362742e-04 1.77150115e-03
      -7.01488578e-04 -1.35079492e-03 -1.07658445e-03 -1.05583214e-03
      -1.91973260e-04 -1.39050617e-05 0. 0. 0. 0. 0. -4.04510865e-05
      -1.93702013e-04 -1.36491362e-04 2.71096942e-04 6.07932452e-04
      -2.56582774e-04 1.13090407e-03 7.18066061e-04 1.23873260e-03
      -8.34183709e-04 -5.78674488e-04 -5.94893878e-04 -8.54572630e-04
      -1.91212894e-04 -3.91869908e-05 0. 0. 0. 0. 0. 0. 1.45108759e-04
      8.44300026e-04 7.22860685e-04 -6.04707107e-04 -5.74498146e-04
      6.61271391e-04 1.32241077e-03 3.14017263e-04 -4.00335004e-04
      -1.91688829e-04 -3.56689590e-04 -6.86963089e-04 -1.99107904e-04
      -4.44438265e-05 0. 0. 0. 0. 0. 0. -1.37934867e-05 3.07454030e-07
      -3.59352445e-04 -1.02808546e-04 8.57465900e-04 3.15213023e-04
      1.65234145e-03 9.43483086e-04 1.03024615e-03 4.28857893e-04
      -1.92897114e-05 2.53849284e-04 1.83745738e-04 1.03127066e-04
      9.15384444e-05 0. 0. 0. 0. 0. 0. -1.73878914e-04 1.09603694e-04
      3.42608459e-04 5.86086360e-04 2.98554281e-04 1.12921884e-03
      1.07033527e-03 1.61619030e-03 9.32932831e-04 6.41095277e-04
      1.02528126e-03 7.81481736e-04 5.33006154e-04 5.00441005e-04
      7.79910770e-05 0. 0. 0. 0. -1.31961802e-04 6.50059490e-04
      1.11204421e-03 3.76250246e-04 5.24074305e-04 -1.12631242e-04
      -3.96444404e-04 1.16599933e-03 1.48694566e-03 6.66903041e-04
      4.04063117e-04 6.78603887e-04 7.37293623e-04 4.99650196e-04
      6.21331681e-04 3.42603656e-04 0. 0. 0. 0. -8.73220793e-04
      -9.98101081e-04 -3.06182017e-04 5.96280326e-04 1.50720682e-03
      8.85837013e-04 4.59418981e-04 3.57207609e-04 5.08168363e-04
      3.06495262e-04 1.63036006e-04 3.90228379e-04 2.54569488e-04
      6.12706499e-05 1.44840582e-04 8.07764736e-05 0. 0. 0. 0.
      -9.19090642e-04 -1.48159603e-03 -1.30296161e-03 1.88885388e-05
      1.56684779e-04 5.66118630e-04 -1.24349885e-04 -7.92838182e-05
      -3.26695910e-04 1.06581487e-04 -2.65056355e-04 -1.71632870e-04
      -6.94829068e-05 -2.65460276e-05 -1.58649982e-06 0. 0. 0. 0. 0. 0.
      0. 8.20736750e-05 7.83416908e-05 -5.00881521e-04 -3.44352506e-04
      -1.04119757e-03 -7.07070634e-04 -8.68431933e-04 -4.41170647e-04
      -3.75286065e-04 -5.28729215e-05 0. 0. -5.35443723e-06 0. 0. 0. 0.
      0. 0. 0. 0. 0. 0. 0. 0. -4.43674762e-05 -2.32929247e-04
      -7.89668484e-05 -3.67856665e-05 0. 0. 0. 0. 0. 0.</_>
    <_>
      0. 0. 0. 0. 0. 0. 0. 0. 0. 0. 0. 0. 0. 0. 0. 0. 0. 0. 0. 0. 0. 0.
      0. 0. 0. 0. 0. 0. 0. 0. 1.19965216e-05 9.07236899e-05
      3.52397801e-05 0. 0. 0. 0. 0. 0. 0. 0. 0. 0. 8.99788847e-06
      2.63930360e-05 1.45590689e-04 2.52051512e-04 2.35068655e-04
      3.58126243e-04 2.33465049e-04 -2.00429728e-04 -3.73694289e-04
      -8.56592378e-04 -5.93546196e-04 -1.79618146e-04 -2.64417868e-05
      9.98784981e-06 0. 0. 0. 0. 0. 6.08918162e-06 1.09808039e-04
      -9.68154927e-06 -7.76184097e-05 1.95091707e-04 -4.05819592e-04
      -1.83730299e-04 5.97424456e-04 4.11879329e-04 -1.85528828e-04
      1.66220343e-04 2.65353738e-04 -2.92715296e-04 -4.97416535e-04
      -1.59378542e-04 -1.06084008e-05 0. 0. 0. 0. -1.49968531e-04
      -7.39467650e-05 -5.65438182e-04 -3.54867458e-04 9.28981899e-05
      -2.14397398e-04 3.90897796e-04 -4.36856906e-04 1.87955549e-04
      3.13652272e-05 -5.08416793e-04 -3.24329681e-04 3.78095319e-06
      -4.21567762e-04 -6.80360652e-04 -9.32580660e-05 0. 0. 0. 0.
      -5.37240005e-04 -3.16887890e-04 -5.23912255e-04 -4.42976307e-04
      -6.41724910e-04 -6.19110797e-05 6.13834243e-04 8.52648736e-05
      -1.29756832e-03 1.45554033e-04 -1.07440923e-03 -5.15640073e-04
      5.12537779e-04 3.72688344e-04 -7.90079415e-04 -9.07144859e-05 0.
      0. 0. 0. -6.22767955e-04 -2.58907792e-04 -2.64516886e-04
      -7.65199889e-04 7.50378240e-05 1.43582496e-04 -3.47179419e-04
      -1.12200086e-03 -9.72758698e-06 -2.46679294e-04 6.96034171e-04
      4.61437972e-04 4.19522927e-04 -7.63749704e-04 -5.18359535e-04
      -2.51289512e-05 0. 0. 0. 0. -4.16118564e-04 1.57210336e-04
      2.81986315e-04 -3.52720563e-05 2.77830171e-04 4.59583389e-05
      -2.67562980e-04 -7.92922743e-04 -3.50267452e-04 -5.96187892e-04
      4.41589131e-04 -2.25074109e-04 5.42478811e-04 -9.40497630e-05
      -5.23051480e-04 -4.99596499e-05 1.03897828e-05 0. 0. 0.
      -1.04628860e-04 1.62179087e-04 5.74790058e-04 -2.03022410e-05
      1.11543937e-04 -4.17140138e-04 -8.10778001e-04 -7.44442688e-04
      -7.05302577e-04 -8.32743419e-04 -1.20006641e-03 -1.37799839e-03
      4.19579708e-04 1.36727991e-04 -9.40401005e-05 1.32408779e-04
      6.92652175e-05 0. 0. 0. 0. 3.58043035e-05 1.85823992e-05
      7.56585314e-06 3.51295486e-04 -2.22303006e-05 -9.29426809e-04
      -5.78988343e-04 -7.46586709e-04 -8.55644466e-04 -7.70291896e-04
      -3.80856276e-04 -1.31255965e-05 -6.22440944e-04 1.60373616e-04
      6.01098756e-04 1.47188593e-05 0. 0. 0. 1.12371290e-05
      3.79258534e-04 6.59472833e-04 1.16434682e-03 -1.02482198e-04
      -5.05134871e-04 -2.78728228e-04 -7.41038879e-04 1.32906571e-04
      -1.74700501e-04 -2.84909795e-04 8.29217897e-05 -1.78685339e-04
      -3.04361689e-04 -3.36306868e-04 1.23016594e-04 8.42873051e-05
      1.96016990e-05 0. -5.23713134e-05 1.05919215e-04 5.68543328e-04
      1.43447565e-03 1.46706367e-03 8.87982780e-04 1.72580316e-04
      7.17797724e-04 2.68854110e-05 7.86871242e-04 3.62391293e-05
      4.58065275e-04 8.37852538e-04 1.71106672e-04 5.48628450e-04
      -3.42832209e-04 -4.81180556e-04 2.19539026e-04 4.11635665e-05 0.
      -7.93504732e-05 -2.49799486e-04 -1.02286343e-03 -1.40202319e-04
      -2.47883872e-05 3.34671422e-05 9.07278911e-04 8.69020529e-04
      6.64251682e-04 1.07731938e-03 -2.40110501e-04 -3.28411057e-04
      -5.97211649e-04 2.02397641e-04 5.31489379e-04 8.94205878e-04
      8.19899742e-06 2.35220377e-05 9.80084906e-07 0. 0. -1.03824632e-03
      -1.35058956e-03 -6.88278815e-04 1.82792122e-04 3.69517773e-04
      3.92453017e-04 6.31435076e-04 7.02781137e-04 2.39135625e-04
      5.97743056e-05 4.89117927e-04 1.00787132e-04 -1.96931156e-04
      4.32640409e-05 9.85880150e-04 -2.93021458e-05 0. 0. 0. 0.
      -6.12356234e-04 -8.30087753e-04 -6.74008334e-04 3.60901729e-04
      3.77922406e-04 1.45164435e-03 1.47398131e-03 4.87758429e-04
      4.31544264e-04 4.25152946e-04 -3.51049501e-04 3.06952337e-04
      5.75812592e-04 -3.93045157e-05 7.59280287e-04 1.14080227e-04
      9.39375677e-05 0. 0. 0. 4.62286465e-04 -6.77533717e-06
      2.72174162e-04 3.89125460e-04 -9.47069086e-04 1.84830598e-04
      4.60109877e-04 -3.80152254e-04 -9.50814574e-04 -4.19045391e-04
      -2.39726069e-04 -2.88219253e-05 5.03959658e-04 -3.67356726e-04
      5.01829258e-04 7.52180815e-04 1.80364048e-04 8.67859001e-07 0. 0.
      -3.13859899e-04 -5.00307011e-04 2.86193710e-04 8.79612926e-04
      8.14134910e-06 -8.04375886e-05 6.76740077e-04 5.44675713e-05
      -8.68996780e-04 4.05437633e-04 7.05930695e-04 -3.51960509e-04
      6.68933426e-05 4.76148038e-04 4.09656262e-04 1.65416699e-04
      6.68251378e-05 2.60357683e-06 0. 0. -4.20567842e-04
      -9.65409214e-04 -6.34913333e-04 -2.37170476e-04 -7.13769987e-05
      -3.72280920e-04 -7.16556795e-04 -1.25070615e-03 -9.65669868e-04
      -5.65178634e-04 -4.12001653e-04 3.60261183e-05 1.11729966e-03
      6.32352254e-04 1.06178675e-04 4.65080984e-06 0. 0. 0. 0.
      -1.09778439e-05 -8.05041927e-05 -7.86745513e-05 -4.84854791e-05
      -2.74446097e-06 -1.63821314e-04 -5.31646539e-04 -7.88196863e-04
      -7.88196863e-04 -4.51160595e-04 -4.58572977e-05 -2.01892151e-04
      -1.52968845e-04 -1.18808472e-04 -2.67319065e-05 0. 0. 0. 0. 0. 0.
      0. 0. 0. 0. -1.14365823e-04 -2.34913576e-04 -2.22549716e-04
      -2.10185841e-04 -5.47741183e-05 -3.04446712e-05 -5.42063644e-05
      -5.04935997e-05 -1.48510583e-06 0. 0. 0. 0.</_>
    <_>
      0. 0. 0. 0. 0. 0. 0. 0. 0. 0. 2.29421712e-05 9.02392130e-05
      3.05895628e-06 0. 0. 0. 0. 0. 0. 0. 0. 0. 0. 0. 0. 0. 0. 0.
      1.89080980e-04 6.37473015e-04 1.59973963e-04 3.77832548e-05
      -9.66163952e-07 0. 0. 0. 0. 0. 0. 0. 0. 0. 0. 0. 0. 2.54873266e-05
      5.92092911e-05 8.89375951e-05 2.66487594e-04 1.25010626e-03
      1.17828837e-03 2.27339144e-04 6.41304126e-04 4.83361189e-04
      3.86866857e-04 -5.37322785e-06 -3.05815411e-05 0. 0. 0. 0. 0.
      -3.35311483e-06 -1.67644321e-05 2.59220076e-04 4.61502234e-04
      3.64344392e-04 4.45817161e-04 3.48523463e-05 1.20631419e-03
      1.10463263e-03 6.84019353e-04 5.71594981e-04 1.04916247e-03
      -7.62710348e-04 -5.59293025e-04 -1.76408066e-04 -1.37073104e-04 0.
      0. 0. 0. -1.34124593e-05 -5.90354357e-05 4.20075608e-04
      2.47982989e-05 -4.56579844e-04 4.22295823e-04 9.35783493e-04
      1.28351996e-04 -1.10703113e-04 5.31156402e-05 -1.25832550e-04
      6.62977982e-04 -7.72172061e-04 -9.52841292e-05 -3.55970667e-04
      -3.35001299e-04 -8.38706110e-05 0. 0. 0. -1.05198760e-05
      -1.59269664e-04 -2.74140213e-04 -4.72508946e-05 -3.11935524e-04
      2.58249871e-04 2.27290951e-03 6.75192641e-05 9.89449094e-04
      8.34126840e-04 -1.00751116e-04 6.82187441e-04 -1.33102236e-04
      -1.18071424e-04 -1.50544889e-04 -2.49947130e-04 -9.21821120e-05 0.
      0. 0. -3.37191450e-05 -3.40139784e-04 -1.50054111e-04
      8.95224366e-05 2.19109745e-04 5.64204121e-04 1.22654223e-04
      1.50601772e-04 9.08800459e-04 -8.55523220e-04 9.34223877e-04
      4.24191763e-04 1.43197176e-04 2.21938244e-04 -5.66433519e-05
      -1.24385930e-04 -3.77795550e-06 0. 0. 0. -6.93045076e-05
      -3.73397255e-04 -2.86687602e-04 -4.49353887e-04 -9.78959142e-05
      -6.94040718e-05 4.41707758e-04 -3.53863325e-05 9.03941254e-05
      -2.52750324e-04 1.23820428e-04 -7.95336149e-04 2.02891199e-04
      2.81929184e-04 -2.88338924e-04 1.56307011e-04 8.15695166e-05 0. 0.
      0. -3.02504021e-04 -2.18521600e-04 -3.59122379e-04 -1.30220270e-03
      -1.43029285e-03 -2.32668989e-03 -1.20960607e-03 -7.35289301e-04
      -3.67443834e-04 -2.56156927e-04 -9.02867585e-04 -5.73094294e-04
      3.57245735e-04 1.67459249e-04 2.26592514e-04 6.50110480e-04
      1.01118791e-03 1.64258250e-04 0. 0. 1.05422245e-04 -3.88512097e-04
      -5.78182458e-04 -8.99786421e-04 -1.03118294e-03 -1.12383231e-03
      -1.04328908e-03 4.51233820e-04 3.33196280e-04 5.86081442e-05
      -3.43974476e-04 -3.93197173e-04 -5.99408522e-04 -6.46165645e-05
      4.47245373e-04 6.78054988e-04 1.38361612e-03 2.09885548e-04 0. 0.
      4.02473001e-04 -2.07111632e-04 -7.02342542e-04 9.10023111e-04
      5.84027039e-05 -4.66098893e-04 -2.58977147e-04 5.29091165e-04
      6.23573898e-04 -6.44891290e-04 -2.94790050e-04 -2.54501356e-04
      -3.15250451e-04 -8.57026898e-04 8.09935736e-05 9.21906205e-04
      6.30315568e-04 8.63232126e-05 0. 0. 5.93033736e-04 2.32720180e-04
      -2.67904106e-04 5.28911070e-04 -2.53281978e-05 -8.44630122e-04
      1.57357848e-04 1.01709622e-03 7.44429883e-04 -8.07541190e-04
      8.51426084e-05 -3.46392539e-04 2.32188075e-04 -5.03045274e-04
      -1.25417326e-04 1.81208760e-03 1.68205355e-03 2.82208086e-04 0. 0.
      5.29792043e-04 4.30253771e-04 6.35398261e-04 -7.88256526e-04
      -9.17859084e-04 5.07924764e-04 1.08470884e-03 -7.10605062e-04
      -6.52473129e-04 -2.29012279e-04 2.81806424e-05 -6.23052823e-04
      -4.15848073e-04 5.76285238e-04 -3.82300859e-05 4.75431327e-04
      9.01142892e-04 2.50422832e-04 0. 0. 4.19348100e-04 5.03584160e-04
      -2.76923500e-04 1.65341969e-03 1.10291434e-03 4.61188465e-05
      -2.77311163e-04 -3.92647431e-04 2.97845661e-04 -1.89027109e-04
      1.33346199e-04 -4.00825578e-04 -6.59956277e-05 7.66376092e-04
      1.32561033e-03 5.35055646e-04 2.19411577e-05 1.82842978e-05 0. 0.
      7.26435901e-05 4.62313648e-04 -6.94611663e-05 7.38583738e-04
      8.59379070e-04 1.46864521e-04 9.23442538e-04 7.70601386e-04
      4.70269442e-04 -1.76041081e-04 -5.78772509e-04 3.19244078e-04
      3.93906725e-04 2.54006300e-04 2.42563008e-04 -1.27661595e-04 0. 0.
      0. 0. 2.00910144e-05 1.98070033e-04 1.26602966e-03 1.35270716e-03
      5.53258113e-04 4.32699162e-04 1.32576388e-03 8.78523220e-04
      -2.92366080e-04 -5.61359164e-04 -3.10617092e-04 8.55094186e-05
      -3.51195282e-04 -4.20873461e-04 1.11897076e-04 -8.11682185e-05 0.
      0. 0. 0. 0. 1.60235686e-05 3.86321015e-04 2.96154438e-04
      -7.62790296e-05 -1.11023569e-03 -2.90682889e-04 -5.39035791e-05
      -3.87410371e-04 1.20531273e-04 5.38482214e-04 -3.56398596e-05
      -4.45445155e-04 1.67133199e-04 2.54392566e-04 -6.18932463e-05 0.
      0. 0. 0. 0. 5.06483275e-06 -3.05267575e-04 -5.11849881e-04
      -2.76709616e-04 -5.28082426e-04 -7.04745238e-04 -1.46607781e-04
      -1.66242360e-04 -4.67384962e-04 2.52296217e-04 1.17547915e-03
      7.20084354e-04 4.38835232e-05 -1.30024244e-04 -6.26782348e-05 0.
      0. 0. 0. 0. 0. 0. -8.01881251e-05 -1.06479318e-04 0. 0.
      -3.77795550e-06 -7.43727214e-05 -1.34047048e-04 -4.22069425e-05
      8.41542555e-04 5.34458843e-04 0. -8.28172488e-05 -4.73241416e-05
      0. 0. 0. 0. 0. 0. 0. 0. 0. 0. 0. 0. 0. 0. 0. 0. 0. 0. 0. 0. 0. 0.</_>
    <_>
      0. 0. 0. 0. 0. 0. 0. 0. 0. 0. 0. 0. 0. 0. 0. 0. 0. 0. 0. 0. 0. 0.
      0. 0. 0. 0. 8.57888153e-05 1.12478672e-04 1.08953107e-04
      2.49590841e-04 1.99255461e-04 1.62657507e-05 0. 0. 0. 0. 0. 0. 0.
      0. 0. 0. 0. 0. 0. 3.65982705e-05 4.13700996e-04 4.73130931e-04
      9.14864577e-05 -3.05951799e-05 4.94047825e-04 4.52850072e-04
      -5.94486010e-05 -4.47006678e-05 1.83504639e-07 -1.34453061e-04
      -9.67421729e-05 -7.53495115e-05 -4.37398485e-05 0. 0. 0. 0.
      2.52805403e-05 2.24397008e-04 3.43812426e-04 6.14942692e-04
      7.04563106e-04 6.84286279e-05 4.94095380e-04 3.46202985e-04
      8.24564020e-04 8.60786356e-04 -9.27633228e-05 3.24102439e-04
      4.63052093e-05 -8.31755926e-04 -4.87494865e-04 -1.61199801e-04 0.
      0. 0. 0. 7.10751119e-05 4.89539758e-04 5.30060672e-04
      3.26868059e-04 1.97951285e-05 1.37966592e-04 -8.66088318e-04
      -3.33601347e-04 -1.17474869e-04 2.90951837e-04 -2.29939586e-04
      -8.76121630e-04 -6.72158436e-04 -1.33030675e-03 -1.30067242e-03
      3.02720991e-06 0. 0. 0. 0. -1.14144153e-04 -1.28174681e-04
      2.12590836e-04 -1.16853735e-04 6.55262673e-04 6.67270622e-04
      -2.99160951e-04 -1.10479211e-03 2.10943454e-05 9.90020577e-04
      8.81164451e-04 -8.33556289e-04 -8.07445671e-04 -9.95747279e-04
      -1.18151971e-03 -1.19991244e-04 -2.67979667e-05 0. 0.
      8.74422312e-06 1.34834234e-04 9.78480148e-06 5.77742176e-04
      4.14134789e-04 3.48485191e-04 -5.99851599e-04 3.27305141e-04
      -5.67701587e-04 -5.32493104e-05 1.07197976e-03 7.96557113e-04
      1.06790641e-04 -3.04017216e-04 -1.17875310e-03 -1.84543675e-03
      -1.01498596e-03 -1.91459301e-04 0. 0. 6.50774527e-05
      5.09683741e-04 -8.11920982e-05 -3.39372258e-04 -1.50830674e-04
      -1.36570306e-03 -8.31804937e-04 9.98293617e-05 -2.49206292e-04
      -1.22492085e-04 1.19673161e-04 -7.85030061e-05 1.54425506e-03
      1.38486561e-03 -4.73320804e-04 -9.30434500e-04 -5.81906876e-04
      -1.05724139e-04 0. 0. 6.92823160e-05 6.03588705e-04
      -3.65353510e-04 -9.04538727e-04 -5.05201169e-04 -8.51746940e-04
      -1.07515301e-03 -3.87231121e-04 -2.65615061e-04 -3.13752098e-04
      -4.79701375e-05 2.19088688e-04 1.89227669e-03 1.43441651e-03
      3.38604033e-04 4.13254689e-04 1.46677630e-04 1.60947147e-05 0. 0.
      1.52062581e-04 2.46283511e-04 -5.41987480e-04 -2.33429455e-04
      -4.45828511e-04 -3.39140795e-04 -9.38383106e-04 -7.60575989e-04
      -8.46944749e-04 3.36875200e-05 -1.58201568e-04 2.31100625e-04
      8.19395646e-04 -4.07749612e-05 2.08728889e-04 5.44884242e-04
      3.02244531e-04 4.28457060e-05 0. 0. 2.10572049e-04 7.95365922e-05
      -1.22274781e-04 1.34444376e-03 -1.77128692e-04 -9.87880281e-04
      -4.44996898e-04 4.23755817e-04 1.31242885e-03 7.54248875e-04
      -5.76226390e-04 -1.06688915e-03 -2.86629307e-04 -6.22026506e-04
      -7.58290844e-05 4.22322832e-04 4.29910026e-04 6.05620007e-05 0. 0.
      1.44264253e-04 6.61487575e-05 3.73928706e-05 1.48283795e-03
      7.43458455e-04 3.10324016e-04 1.04963582e-03 -2.04918426e-04
      2.69353564e-04 -4.64461809e-05 -1.63745135e-05 -9.75940609e-04
      -7.26748665e-04 -4.14157315e-04 6.31462783e-04 1.00322987e-03
      1.02495635e-03 2.07564473e-04 0. 0. 1.51660361e-05 3.47237015e-04
      4.25060243e-05 -5.81473396e-05 5.82989363e-04 1.16163015e-03
      1.07423530e-03 1.42279966e-03 5.29793790e-04 -4.11299465e-04
      -1.26802799e-04 7.05210317e-04 3.06753733e-04 -2.24515039e-04
      9.43451538e-04 1.01577316e-03 8.12582031e-04 1.99037575e-04 0.
      -8.74620528e-05 -1.58644703e-04 1.53765926e-04 -7.38406263e-04
      -2.33490253e-04 9.21774365e-04 6.51651470e-04 5.94658952e-04
      1.13238383e-03 -2.52113794e-04 -3.98161683e-05 -4.29251668e-05
      -5.27351862e-04 -7.12293375e-04 3.59157391e-04 4.36621893e-04
      1.73392531e-04 1.06287800e-04 1.45623681e-05 0. -1.79297218e-04
      -1.16324911e-04 5.23461786e-04 -6.56260585e-04 -1.36510702e-03
      -3.36256126e-05 6.56395161e-04 8.46465176e-04 3.81016347e-04
      7.90226040e-04 8.92813667e-04 1.28316780e-04 7.73784006e-04
      1.01810275e-03 8.69264361e-04 -6.24193111e-04 -5.91336400e-04
      4.52764689e-05 0. 0. -5.83080373e-06 2.48953002e-04 1.86871650e-04
      8.37234897e-04 4.32948727e-04 -1.15601288e-04 -1.20307915e-04
      3.47957917e-04 -2.64299510e-04 -9.85945226e-04 1.41734854e-04
      2.89150339e-04 -5.47032570e-04 -2.18679736e-04 -5.37371052e-05
      -3.70516791e-04 -6.95511233e-04 0. 0. 0. 0. 2.86031227e-05
      -2.24800111e-04 9.71516885e-04 1.32372044e-03 8.26848482e-05
      -1.24711471e-04 2.47931021e-04 1.20784949e-04 -9.52805800e-04
      -5.10161626e-04 6.83480350e-04 -7.61172734e-04 -6.43690699e-04
      -9.55394207e-05 -2.27726141e-05 -9.99120384e-05 0. 0. 0. 0.
      -1.62806700e-05 -3.23001324e-04 -3.06812872e-05 1.94408989e-04
      -5.33096143e-04 -6.78981945e-04 -6.87119435e-04 -6.74936455e-04
      -7.76377798e-04 -3.08774994e-04 3.06718226e-04 8.03402916e-04
      8.95907113e-04 2.97547929e-04 4.41320190e-05 2.78892026e-06 0. 0.
      0. 0. 0. 0. 0. 0. 0. 0. 0. 0. 0. -2.01152834e-05 -2.92108180e-05
      3.45691602e-04 2.24121119e-04 0. 0. 0. 0. 0. 0. 0. 0. 0. 0. 0. 0.
      0. 0. 0. 0. 0. 0. 0. 0. 0. 0. 0. 0. 0.</_>
    <_>
      0. 0. 0. 0. 0. -9.65318804e-07 -4.15087088e-05 -3.47514797e-05
      -1.45817939e-05 -8.74907637e-05 -1.09363455e-05 0. 0.
      -1.81973803e-06 -8.18882108e-05 -2.72960697e-05 0. 0. 0. 0. 0. 0.
      0. 0. 0. -5.69538133e-05 -3.88407381e-04 -2.17950015e-04
      6.99731463e-05 2.88894662e-05 -1.14060262e-04 -1.45370344e-04
      -9.24922933e-05 -2.55840016e-04 -4.50077699e-04 -2.01176299e-04
