<?xml version="1.0"?>
<opencv_storage>
<opencv_ml_svm>
  <format>3</format>
  <svmType>C_SVC</svmType>
  <kernel>
    <type>LINEAR</type></kernel>
  <C>1.</C>
  <term_criteria><epsilon>1.1920928955078125e-07</epsilon>
    <iterations>1000</iterations></term_criteria>
  <var_count>16</var_count>
  <class_count>26</class_count>
  <class_labels type_id="opencv-matrix">
    <rows>26</rows>
    <cols>1</cols>
    <dt>i</dt>
    <data>
      65 66 67 68 69 70 71 72 73 74 75 76 77 78 79 80 81 82 83 84 85 86
      87 88 89 90</data></class_labels>
  <sv_total>325</sv_total>
  <support_vectors>
    <_>
      2.45965987e-01 -3.05886995e-02 9.87874687e-01 4.97514397e-01
      -5.42271316e-01 3.40855658e-01 -1.83640927e-01 -2.74018556e-01
      -5.76901197e-01 -2.82795787e-01 2.22485401e-02 1.16085923e+00
      -6.74982131e-01 -2.65065461e-01 -1.06763399e+00 -1.09245944e+00</_>
    <_>
      -1.40102934e-02 -4.82494354e-01 8.75520408e-01 6.24197006e-01
      -3.97773415e-01 9.28106129e-01 -6.98785260e-02 -9.91564810e-01
      -3.45847338e-01 3.56665045e-01 1.53730959e-02 -6.24764800e-01
      -1.00955971e-01 -7.87131429e-01 3.34447138e-02 -8.26473832e-01</_>
    <_>
      -3.96324635e-01 -4.39539909e-01 1.24488640e+00 1.06387484e+00
      -5.56201518e-01 5.05439460e-01 5.94626218e-02 -5.66151023e-01
      -1.96503508e+00 -5.77589333e-01 2.19207212e-01 1.09903610e+00
      -5.57383835e-01 -3.68379056e-02 -1.77752420e-01 -3.83014858e-01</_>
    <_>
      1.43640742e-01 -1.51824504e-01 -1.95492759e-01 2.54954070e-01
      2.98662513e-01 2.90456533e-01 -5.22799671e-01 4.16148938e-02
      -1.54296517e-01 -2.16665834e-01 -4.72715467e-01 2.19858617e-01
      5.57907283e-01 -3.79925519e-01 -9.08678889e-01 -1.10934937e+00</_>
    <_>
      -3.80501933e-02 2.27684334e-01 6.61143482e-01 8.79928377e-03
      -4.37806100e-01 2.14635238e-01 -2.76218623e-01 2.82404631e-01
      -3.69208872e-01 -1.24648583e+00 -6.11021444e-02 2.84946293e-01
      -2.40554944e-01 -3.35067540e-01 -7.22208381e-01 -3.49993408e-01</_>
    <_>
      -4.58414197e-01 -5.92247903e-01 3.97410333e-01 6.88190937e-01
      1.41850829e-01 7.29253888e-01 -1.17380060e-01 -5.83475173e-01
      -4.50871438e-01 5.24996459e-01 1.45925716e-01 2.32986853e-01
      2.20054165e-01 -9.18335199e-01 -7.41760492e-01 -1.59386611e+00</_>
    <_>
      -2.21722007e-01 1.47807240e-01 4.52985883e-01 1.94735408e-01
      -3.37294728e-01 4.82791394e-01 -1.00158356e-01 -2.98820049e-01
      -2.46939078e-01 -5.06451368e-01 -1.15899101e-01 8.45178425e-01
      2.55914461e-02 -1.81998909e-01 -2.94243872e-01 -7.81731606e-01</_>
    <_>
      -2.96124816e-01 -9.02355164e-02 1.62170184e+00 -5.08000016e-01
      2.01870233e-01 1.99231103e-01 -4.05273080e-01 5.34517705e-01
      -1.34480596e+00 -5.58078527e-01 -5.82792878e-01 8.17937434e-01
      4.99707609e-01 3.33162636e-01 -1.19732940e+00 -7.48756647e-01</_>
    <_>
      -6.76141977e-02 7.20057786e-02 5.39477944e-01 -2.66996145e-01
      1.88387930e-01 -3.35945114e-02 -1.55414790e-01 -3.68463546e-02
      -3.79833370e-01 -7.44517267e-01 -1.84610739e-01 5.48302531e-01
      1.57553256e-01 9.15012956e-02 -2.13297740e-01 3.51310521e-02</_>
    <_>
      -4.39448804e-01 -3.20744962e-01 5.99153399e-01 6.75205410e-01
      -1.21867806e-01 1.15131462e+00 -4.69818115e-01 1.59412757e-01
      -6.21095896e-01 -3.30950886e-01 2.36177936e-01 3.35294724e-01
      1.77602232e-01 -3.05130094e-01 -8.58921289e-01 -1.08502245e+00</_>
    <_>
      -1.03124402e-01 -4.70684886e-01 8.37581217e-01 4.22520250e-01
      -6.62020743e-02 4.06490862e-01 1.71783134e-01 6.43344522e-02
      -1.20092547e+00 -3.37543264e-02 2.14871660e-01 8.84968266e-02
      1.40863627e-01 -5.95152974e-01 -5.29448569e-01 -5.12978077e-01</_>
    <_>
      5.22862434e-01 -8.32168579e-01 -1.75913155e-01 1.66319919e+00
      -9.08176959e-01 3.96357447e-01 -9.68871415e-02 -8.10979366e-01
      7.01707751e-02 -4.57399517e-01 4.35475037e-02 9.64937627e-01
      -9.08879817e-01 -8.80329981e-02 1.04636109e+00 -1.90048635e-01</_>
    <_>
      -4.48593378e-01 -7.22108960e-01 5.34001410e-01 1.35797095e+00
      -5.40990174e-01 8.71901274e-01 -1.02116144e+00 -7.61053443e-01
      -3.10281426e-01 -8.30079377e-01 4.62048352e-01 1.21173382e+00
      -9.70611751e-01 -2.58589268e-01 9.06271040e-01 4.27869350e-01</_>
    <_>
      -2.16383696e-01 2.01580927e-01 3.48513544e-01 -4.57884036e-02
      -3.42750847e-01 4.23892736e-01 -4.96850610e-02 -5.06309986e-01
      -3.85654479e-01 -3.36494267e-01 1.01505011e-01 1.36879981e-01
      -1.81153655e-01 -1.97070017e-01 1.71814889e-01 -2.49742851e-01</_>
    <_>
      -8.10450494e-01 7.18854785e-01 1.30215776e+00 -7.03991234e-01
      -2.12627634e-01 1.05156459e-01 1.62309244e-01 -7.50417948e-01
      1.19771004e-01 -5.80256581e-01 -4.01757777e-01 1.06137550e+00
      -3.24139059e-01 -3.47667485e-01 -3.53302509e-01 -9.10092831e-01</_>
    <_>
      -7.29575574e-01 1.03269637e+00 1.15274906e+00 -6.47038102e-01
      -9.36441302e-01 -5.00425510e-02 5.09837985e-01 -3.70554268e-01
      -8.07577193e-01 6.50340199e-01 -6.60985053e-01 3.13794881e-01
      5.79940081e-01 -4.09507677e-02 -8.26545954e-01 -1.61467099e+00</_>
    <_>
      -7.15264827e-02 -9.16904509e-02 1.30620313e+00 5.32315254e-01
      -9.85311747e-01 6.70271814e-01 -8.36535037e-01 1.47713095e-01
      -3.67009103e-01 -4.70483243e-01 8.70943844e-01 5.26446283e-01
      -4.55584615e-01 -4.99055535e-01 -9.71186876e-01 -1.01523507e+00</_>
    <_>
      -8.90617490e-01 -6.01037860e-01 1.32094538e+00 9.25178468e-01
      -1.07756749e-01 2.46618122e-01 -3.74002159e-01 7.03215063e-01
      -6.58593595e-01 -7.29242742e-01 -4.02868688e-02 5.97466409e-01
      3.11447054e-01 -5.39828479e-01 -1.18317771e+00 -5.56253374e-01</_>
    <_>
      -3.00180465e-01 -5.60721457e-01 8.23204875e-01 1.14635861e+00
      -4.52634960e-01 4.51566398e-01 -6.25597477e-01 1.56635657e-01
      -1.36065459e+00 -2.49856159e-01 -4.21914905e-01 2.81794429e-01
      1.87250912e-01 7.35876337e-02 -4.84194249e-01 -6.37254596e-01</_>
    <_>
      8.10455307e-02 -3.75307530e-01 8.91416907e-01 6.19046330e-01
      -6.65342748e-01 4.96193975e-01 2.87760139e-01 -1.20904541e+00
      -1.13840747e+00 7.35854685e-01 -3.11597288e-01 1.90524697e-01
      -6.98873580e-01 2.68611938e-01 1.04491639e+00 -1.91886157e-01</_>
    <_>
      6.00260496e-02 -1.93780571e-01 8.32653940e-01 3.43048424e-01
      -4.80786651e-01 8.99059847e-02 -7.52812445e-01 -4.54153866e-01
      1.18538284e+00 -1.19772643e-01 -1.25593162e+00 7.40736485e-01
      -9.41668332e-01 -9.69526649e-01 -1.05913198e+00 -9.26943779e-01</_>
    <_>
      -4.04226184e-02 -9.44399014e-02 3.54870498e-01 4.67006892e-01
      -5.63887835e-01 4.85407710e-02 -4.64426279e-01 -7.67158926e-01
      5.54246068e-01 -8.05348754e-02 -2.42660746e-01 7.46227503e-01
      -8.56327474e-01 -1.10516563e-01 3.66539329e-01 -1.98466927e-01</_>
    <_>
      -5.92551827e-01 2.01578140e-01 3.83115023e-01 -3.48704696e-01
      8.15687597e-01 7.47894704e-01 -6.75057292e-01 3.67075413e-01
      -6.24870360e-01 -5.52340925e-01 -2.56153852e-01 4.52519178e-01
      6.84118509e-01 -6.19779080e-02 -1.27505898e+00 -1.15073323e+00</_>
    <_>
      -9.19315934e-01 2.30929181e-01 1.04532313e+00 -6.51960194e-01
      3.17635030e-01 -3.01598936e-01 2.22633645e-01 -5.04021406e-01
      1.54685238e-02 -2.52748549e-01 -1.83877182e+00 5.20384192e-01
      -1.56495467e-01 -3.58320743e-01 -4.31548476e-01 -3.60776514e-01</_>
    <_>
      -1.14154541e+00 4.44362879e-01 1.06891012e+00 -4.25416201e-01
      6.76537693e-01 -4.67233956e-01 -7.44387746e-01 4.42097753e-01
      -6.09263957e-01 -2.33129159e-01 5.08859575e-01 3.44116688e-01
      1.47778792e-02 -4.51766402e-01 -1.18253303e+00 -2.00169012e-01</_>
    <_>
      -8.79370868e-02 -3.25168610e-01 -4.70919102e-01 -1.25961721e-01
      5.29449642e-01 4.42781597e-01 -4.05776054e-01 7.88370967e-02
      2.13513181e-01 5.06580234e-01 -4.93900746e-01 -1.36045158e+00
      4.94072825e-01 -4.43926275e-01 8.13485086e-01 1.04621746e-01</_>
    <_>
      -7.91548416e-02 -7.57759809e-02 4.97220680e-02 -1.56882241e-01
      -5.10486625e-02 -8.10869187e-02 1.28972694e-01 -1.07556857e-01
      -1.17468178e-01 -5.20498641e-02 3.76463644e-02 2.78561115e-01
      7.11662099e-02 8.69019609e-03 8.69469047e-02 2.30650261e-01</_>
    <_>
      -8.44897237e-03 -5.45395575e-02 -6.38518110e-02 -2.51123130e-01
      8.12341049e-02 2.29768246e-01 -6.37244508e-02 5.82369924e-01
      -2.77833521e-01 3.52659911e-01 -4.08661902e-01 -1.41696417e+00
      4.34366196e-01 -2.32269555e-01 -1.77294523e-01 -3.10601592e-01</_>
    <_>
      -2.11975753e-01 3.15123908e-02 -9.97963697e-02 -3.83031696e-01
      1.16124541e-01 1.52375445e-01 -1.05792791e-01 1.39801264e-01
      1.26627490e-01 -2.42938530e-02 -5.88607006e-02 4.03268775e-03
      9.80858924e-04 -3.77493471e-01 1.69094317e-02 5.91552146e-02</_>
    <_>
      5.95921949e-02 3.49953510e-02 -1.37672961e-01 -5.68200946e-02
      2.00837880e-01 2.08606683e-02 8.86718463e-03 5.72151430e-02
      1.04411259e-01 1.73871845e-01 8.73659644e-03 -2.61786789e-01
      5.43845929e-02 -6.45188540e-02 7.99361691e-02 3.74757797e-02</_>
    <_>
      2.34806225e-01 1.45901188e-01 -1.39625460e-01 4.15819958e-02
      1.82073593e-01 -4.00021635e-02 -1.19700739e-02 -3.43331732e-02
      2.09300220e-01 6.05402775e-02 -1.05895698e-01 -2.09165603e-01
      -2.06789359e-01 3.21814530e-02 1.68554366e-01 -5.02282232e-02</_>
    <_>
      -5.09303808e-01 1.11893341e-01 2.22253993e-01 -1.14858234e+00
      7.58703589e-01 -3.24936539e-01 -1.67580098e-01 4.45739090e-01
      1.87986344e-01 4.30718549e-02 -3.76387149e-01 9.85154957e-02
      3.63731086e-01 -4.64807183e-01 1.83201864e-01 5.00611007e-01</_>
    <_>
      -2.65816391e-01 5.84569097e-01 -3.89476061e-01 -1.50954616e+00
      1.23608685e+00 -6.61223590e-01 -2.75830835e-01 6.28680766e-01
      5.04930139e-01 2.62296826e-01 -3.88320297e-01 -4.97046739e-01
      4.09865290e-01 1.78183079e-01 1.32351846e-01 6.70080066e-01</_>
    <_>
      1.91758946e-01 -2.02853575e-01 -6.01605356e-01 -2.08881870e-02
      3.84343803e-01 3.66808325e-01 -9.76954475e-02 2.83001512e-01
      9.23565552e-02 4.23229039e-01 2.71440774e-01 -5.32437325e-01
      -1.47542208e-01 2.27489054e-01 2.19747216e-01 -1.50296062e-01</_>
    <_>
      5.10174453e-01 -6.59488067e-02 -1.06241584e+00 -7.63192594e-01
      1.00486624e+00 4.00187790e-01 6.18637860e-01 9.61727679e-01
      -7.02417791e-02 1.44669235e+00 -5.02657294e-01 -1.66683042e+00
      3.90076637e-01 -1.64553612e-01 3.23138684e-01 -4.75267947e-01</_>
    <_>
      8.68848979e-01 -4.25770879e-01 -5.65912127e-01 8.67932141e-01
      -7.40336120e-01 -5.98165691e-02 -7.76389122e-01 -9.59383130e-01
      4.08257306e-01 4.10989463e-01 8.38290989e-01 -1.90122664e+00
      -8.75474036e-01 3.77256960e-01 1.49475038e+00 -6.47383230e-03</_>
    <_>
      7.45594651e-02 -2.12396070e-01 -3.30992252e-01 2.45869353e-01
      -3.50512862e-01 4.77054477e-01 5.24281226e-02 -2.81510979e-01
      -2.51076162e-01 -1.90260246e-01 4.02388543e-01 3.60549182e-01
      -7.73654282e-01 -5.15375912e-01 1.76395166e+00 8.48998666e-01</_>
    <_>
      -1.17707834e-01 4.99181263e-02 -9.09963965e-01 -3.61601144e-01
      6.77793384e-01 1.03345752e+00 3.50405514e-01 -7.93750703e-01
      5.69397986e-01 9.96757150e-02 4.51849699e-01 -8.53038669e-01
      -4.61863875e-01 -8.65992367e-01 1.91480267e+00 1.48967415e-01</_>
    <_>
      -1.88165665e-01 2.88827956e-01 -1.22940516e+00 -9.08667982e-01
      1.15250528e+00 4.75584090e-01 3.08357328e-01 -4.23057377e-01
      1.31776512e+00 -3.88451308e-01 -7.68165708e-01 -1.24713657e-02
      6.97212666e-02 -9.20285821e-01 9.22203958e-01 -4.52666171e-02</_>
    <_>
      8.64898413e-02 6.27909005e-02 -3.33261527e-02 -7.46474415e-02
      1.18044265e-01 -1.04758427e-01 1.83880150e-01 3.13738734e-02
      2.18934342e-02 1.08124688e-01 -1.26120389e-01 -2.73392648e-01
      9.79763940e-02 -9.98045281e-02 1.22264460e-01 4.85805981e-02</_>
    <_>
      1.27624154e-01 -9.96467471e-02 -1.15626216e-01 -1.13540687e-01
      -2.18330417e-03 1.07160248e-01 -1.16987666e-02 -1.75618142e-01
      1.51638240e-01 6.24862798e-02 9.92382541e-02 -1.98552251e-01
      -1.05829544e-01 2.47002631e-01 7.71055818e-02 5.79290427e-02</_>
    <_>
      1.06673561e-01 1.26869872e-01 4.44834866e-03 -3.89581583e-02
      5.75831532e-02 -2.64327452e-02 -3.04521397e-02 1.37369812e-01
      2.72442941e-02 1.35931289e-02 -7.41215935e-03 -1.52007833e-01
      2.18584448e-01 -1.03440478e-01 -1.25500172e-01 1.20719567e-01</_>
    <_>
      -5.68259396e-02 -3.95351410e-01 -2.54780412e-01 -4.85659111e-03
      2.06111267e-01 2.27992728e-01 -2.80601293e-01 5.61959684e-01
      -1.07805276e+00 5.83056390e-01 -9.63680148e-01 -1.10649443e+00
      5.47384739e-01 -3.86755288e-01 6.01030111e-01 5.44858754e-01</_>
    <_>
      1.60468638e-01 2.54471079e-02 1.89013675e-01 -1.67461306e-01
      -3.16227973e-01 3.29189122e-01 -9.88005847e-02 -3.41144294e-01
      -2.55736381e-01 5.45065224e-01 -9.57059085e-01 -7.44082272e-01
      -4.66451913e-01 7.39151478e-01 1.32963037e+00 2.89476007e-01</_>
    <_>
      -3.86990100e-01 1.71590164e-01 -1.58808231e-01 -4.24208552e-01
      2.53114160e-02 2.58776784e-01 4.17125262e-02 -7.47588873e-02
      2.07817689e-01 1.79110065e-01 -2.54243761e-01 -3.91099870e-01
      -8.85103792e-02 -2.63347328e-01 5.25594354e-01 7.02744722e-02</_>
    <_>
      -5.51104188e-01 2.76742488e-01 2.19646707e-01 5.05139343e-02
      -3.24085116e-01 3.39527160e-01 -5.07173836e-01 -9.25791860e-01
      5.42956412e-01 2.89065003e-01 1.80392250e-01 -4.50205386e-01
      -1.30462968e+00 2.22060442e-01 1.06666279e+00 6.24631606e-02</_>
    <_>
      -1.10640846e-01 -2.08502542e-02 -2.85118371e-01 -4.40836132e-01
      8.41982901e-01 1.35969952e-01 -7.33893290e-02 5.98708212e-01
      7.93798640e-03 5.72944462e-01 2.15077579e-01 -4.36169595e-01
      3.36978823e-01 -2.32669376e-02 -1.16087049e-01 3.81815314e-01</_>
    <_>
      -4.52051342e-01 3.65325212e-01 -2.79725194e-01 -9.80111837e-01
      5.75088620e-01 -4.24953364e-02 2.98623919e-01 6.58017546e-02
      4.90175426e-01 1.93612814e-01 -1.08110130e+00 -2.93355316e-01
      2.84033716e-01 -1.73041716e-01 6.17354631e-01 4.13250893e-01</_>
    <_>
      -8.12132061e-02 3.62195224e-02 2.47549057e-01 -8.47909033e-01
      7.37293661e-01 -2.63857782e-01 -5.26836514e-02 8.13347280e-01
      -5.72488129e-01 -8.16403031e-02 6.78251863e-01 -1.28900063e+00
      1.54669666e+00 1.99606195e-01 -7.04605281e-01 1.31592870e+00</_>
    <_>
      -9.38079581e-02 -1.21875420e-01 7.50222862e-01 5.48742771e-01
      -8.70914459e-01 -2.41870329e-01 8.07866216e-01 1.32022314e-02
      -4.95617867e-01 -3.41823287e-02 6.54301286e-01 1.50841117e+00
      -1.97443336e-01 6.84457779e-01 4.35024410e-01 5.30633867e-01</_>
    <_>
      1.26532659e-01 -9.87610146e-02 6.81670979e-02 3.43898870e-02
      -3.62465471e-01 -4.10188101e-02 1.52570875e-02 5.95524199e-02
      -7.13838711e-02 -2.05574021e-01 2.26588964e-01 1.06894597e-02
      2.48181242e-02 6.04876578e-02 -4.34138864e-01 9.31328833e-02</_>
    <_>
      6.39482677e-01 6.05915129e-01 -5.99588513e-01 -7.11902618e-01
      -6.45632446e-01 4.50530089e-02 -8.10460672e-02 7.71763444e-01
      6.27215981e-01 -7.03515708e-01 -2.09759295e-01 1.62696373e+00
      5.72744131e-01 8.50931644e-01 -3.26452047e-01 -2.25893751e-01</_>
    <_>
      3.51826921e-02 -2.83037759e-02 -1.25033036e-01 -8.47103819e-02
      -1.34360805e-01 -2.48769149e-02 1.21022284e-01 -1.06506757e-01
      8.27086195e-02 -9.23505332e-03 1.03880711e-01 5.53170703e-02
      2.53505874e-02 3.10350358e-02 -5.12911230e-02 1.95813142e-02</_>
    <_>
      1.10885035e-02 1.44947276e-01 -2.04977915e-01 1.19119190e-01
      -5.05037755e-02 1.34928720e-02 -6.21503629e-02 2.11334843e-02
      9.87713784e-02 1.01260185e-01 -8.38010479e-03 2.36738890e-01
      -7.70016909e-02 1.48153275e-01 1.29392892e-01 -7.72069544e-02</_>
    <_>
      3.39458168e-01 2.08987340e-01 -2.85249919e-01 -5.61694741e-01
      1.48838580e-01 -7.36272216e-01 3.97706449e-01 8.29634249e-01
      3.59917670e-01 1.19460374e-02 4.79992896e-01 7.60421515e-01
      9.78761375e-01 3.82485509e-01 -2.14525238e-02 1.74947679e-01</_>
    <_>
      2.30039850e-01 3.50016773e-01 -2.52398163e-01 -5.73990107e-01
      -8.69167447e-02 -5.21541059e-01 3.02875102e-01 4.75385875e-01
      2.03446552e-01 -2.63755441e-01 -1.29515633e-01 4.94000852e-01
      4.42471951e-01 5.24397492e-01 -8.07991773e-02 2.95505464e-01</_>
    <_>
      7.74025545e-03 -5.53957187e-02 -2.54771471e-01 9.64579955e-02
      1.47258967e-01 1.35525346e-01 2.63831634e-02 1.06322385e-01
      6.99006841e-02 1.49049506e-01 2.90985201e-02 1.81419596e-01
      -2.37248734e-01 7.36448392e-02 9.03352909e-03 -1.15928009e-01</_>
    <_>
      2.91286349e-01 -2.64280796e-01 -3.49126548e-01 2.01054081e-01
      -3.44634987e-02 -1.32709473e-01 3.59370559e-01 1.64857566e-01
      -1.23926923e-01 2.38127280e-02 -1.30280973e-02 2.48386756e-01
      8.20788145e-02 7.03762611e-03 -8.96524265e-02 -6.87692836e-02</_>
    <_>
      2.28212073e-01 -1.95581257e-01 -8.63838613e-01 9.97807443e-01
      -4.43978429e-01 4.77517188e-01 -6.31407022e-01 -4.93142754e-01
      1.26541018e+00 -7.02704132e-01 1.78021997e-01 1.30597115e+00
      -1.06765652e+00 6.24855399e-01 4.70012665e-01 -5.53125858e-01</_>
    <_>
      -5.78972936e-01 -2.58189678e-01 7.27696121e-02 6.38003528e-01
      -3.51380795e-01 2.74013370e-01 -6.36835396e-01 3.66849512e-01
      6.02045655e-01 6.03609562e-01 1.27868682e-01 1.56059909e+00
      -2.17863515e-01 8.11665356e-01 1.02279019e+00 1.00659120e+00</_>
    <_>
      -1.70275927e-01 6.80118203e-02 2.53748074e-02 -1.30761296e-01
      1.50183022e-01 6.52520359e-02 -6.61455244e-02 -2.19425559e-01
      4.19998407e-01 7.60977017e-03 1.13210618e-01 3.68339479e-01
      -1.18995674e-01 2.68231202e-02 1.44563587e-02 1.06048256e-01</_>
    <_>
      5.63888669e-01 2.68600345e-01 -3.64292145e-01 1.12161428e-01
      -1.25715566e+00 -2.07665205e-01 2.66219705e-01 -1.60070062e-01
      7.88625777e-01 -5.57889044e-01 2.40637258e-01 1.66359079e+00
      6.38035357e-01 2.44326323e-01 -5.12065887e-01 -1.52468652e-01</_>
    <_>
      4.58621234e-02 8.55889320e-01 2.06331536e-01 -1.13680828e+00
      -4.32740569e-01 -2.08742094e+00 2.49478221e-01 3.41224879e-01
      4.58518773e-01 3.28765303e-01 5.01016080e-01 1.02460873e+00
      1.27871048e+00 6.32897019e-01 -7.61779964e-01 4.45572734e-01</_>
    <_>
      5.02030432e-01 -1.97964564e-01 1.21595807e-01 6.66023612e-01
      -7.03908443e-01 -3.08224440e-01 -3.62820745e-01 -2.61707097e-01
      1.02263130e-01 2.76423860e-02 2.40426755e+00 1.40742981e+00
      -2.92292237e-01 5.49152672e-01 -8.07599843e-01 6.66115284e-02</_>
    <_>
      8.50012898e-01 1.31371737e-01 -7.07366943e-01 -5.20426154e-01
      -2.60509044e-01 -1.05394578e+00 8.10798824e-01 9.65115845e-01
      3.42866182e-01 -1.03135305e-02 -5.41497283e-02 1.50893247e+00
      1.52032554e+00 2.94615358e-01 -3.04069012e-01 3.33572030e-01</_>
    <_>
      1.13314897e-01 8.86504054e-02 4.97370690e-01 9.15816069e-01
      -1.89824522e+00 -1.11717486e+00 -3.82456183e-02 7.69807160e-01
      -1.17038739e+00 3.55522871e-01 -7.42402673e-01 1.71243095e+00
      6.77995861e-01 8.84094536e-02 -2.53534168e-01 3.38160098e-01</_>
    <_>
      -4.50578958e-01 4.01672423e-01 1.30240778e-02 1.74015805e-01
      -4.33810085e-01 3.71116519e-01 4.59281020e-02 -1.90203622e-01
      -1.41713426e-01 8.34078610e-01 -4.55299526e-01 9.16112602e-01
      -5.13650656e-01 6.25736117e-01 7.35201120e-01 8.67105067e-01</_>
    <_>
      -7.10350946e-02 7.83378601e-01 -3.44460785e-01 -7.59973884e-01
      -4.86703873e-01 -3.93354774e-01 -4.52093571e-01 3.85331452e-01
      9.14585292e-01 -4.61518243e-02 -4.80785906e-01 1.75070250e+00
      1.11222372e-03 4.00985889e-02 -1.27436921e-01 2.08235532e-02</_>
    <_>
      -1.83631822e-01 2.61382312e-01 7.05180783e-03 1.53552338e-01
      -3.66327316e-01 5.14332354e-02 -3.16741526e-01 -2.33218595e-01
      5.46711922e-01 1.17552221e-01 -1.93995774e-01 1.12695038e+00
      -4.84677315e-01 1.30871460e-01 3.65607500e-01 1.00178253e-02</_>
    <_>
      -2.79846713e-02 3.50815713e-01 -5.76620042e-01 -5.31503201e-01
      8.13802063e-01 -1.04967535e+00 3.51001322e-01 1.39438009e+00
      1.92078222e-02 2.44662404e-01 -5.71503639e-01 1.16860867e+00
      2.67943203e-01 5.92761159e-01 -1.37376890e-01 8.22135448e-01</_>
    <_>
      -1.02235131e-01 3.15771788e-01 -1.96787074e-01 -1.97456419e-01
      -1.70732975e-01 -3.81578535e-01 1.71166256e-01 4.52476114e-01
      2.32915744e-01 1.37801811e-01 -6.21222854e-01 7.29774714e-01
      2.99193352e-01 2.58819968e-01 -6.84498670e-03 4.33135182e-01</_>
    <_>
      3.71026576e-01 1.10516911e-02 5.98362610e-02 -1.15762651e-01
      -1.56108364e-01 -6.07300341e-01 2.15260878e-01 4.29105908e-01
      -4.03916180e-01 -4.71905246e-02 -1.30152360e-01 4.10385489e-01
      2.28153691e-01 2.72354126e-01 -4.05112803e-01 3.56911689e-01</_>
    <_>
      5.97506821e-01 -5.26682846e-02 -4.14215803e-01 2.02321738e-01
      -3.65781896e-02 2.75137097e-01 -4.03397679e-01 5.79497814e-01
      -1.58070564e-01 1.13708220e-01 -6.27863705e-01 -1.31356418e+00
      5.88483095e-01 -2.87318319e-01 -5.36417603e-01 -9.69650030e-01</_>
    <_>
      -9.26233709e-01 7.44253933e-01 -3.87828410e-01 -1.02650225e+00
      6.65079176e-01 -6.33685961e-02 -7.22037196e-01 1.39605296e+00
      9.79381204e-01 -3.65058720e-01 -1.00439620e+00 -6.55777872e-01
      5.35598814e-01 -5.60719848e-01 -5.23545146e-01 -3.09128225e-01</_>
    <_>
      -4.96061385e-01 -1.05699943e-02 -6.27489462e-02 -4.71633703e-01
      6.11997962e-01 4.91058901e-02 1.66801125e-01 5.31278439e-02
      9.58291233e-01 4.61781561e-01 -3.89895290e-01 -6.39052570e-01
      3.64773184e-01 -2.30237082e-01 -2.75166899e-01 -1.85899988e-01</_>
    <_>
      2.97976658e-02 9.34042037e-02 -1.28080890e-01 2.25145575e-02
      5.36149256e-02 -4.32660542e-02 -1.59182310e-01 2.42790803e-02
      1.43262267e-01 1.25470221e-01 -4.64148298e-02 -1.54950470e-01
      7.12419301e-02 -9.97617543e-02 3.43198143e-02 -2.03071442e-02</_>
    <_>
      -2.97504753e-01 2.88942128e-01 2.49411240e-01 -8.93461525e-01
      6.14245057e-01 -1.25006840e-01 -1.55000389e-01 6.88631356e-01
      6.07330978e-01 -3.38727124e-02 -3.46763074e-01 -8.98598507e-03
      6.03947520e-01 -2.02049837e-01 -1.20822974e-01 3.01716640e-03</_>
    <_>
      6.01154417e-02 5.72078586e-01 -1.00869465e+00 -1.48642707e+00
      1.29734850e+00 -5.09977520e-01 -2.25359082e-01 7.01060653e-01
      1.34221041e+00 1.78313330e-01 -6.88203871e-01 -4.76702869e-01
      1.01427352e+00 3.72920692e-01 -1.02551550e-01 4.71713841e-01</_>
    <_>
      -1.48768023e-01 -3.70383441e-01 -5.72728693e-01 4.29780245e-01
      1.75651968e-01 5.65483332e-01 -1.46893132e+00 1.41639018e+00
      6.47988319e-01 4.52892989e-01 3.66219968e-01 -1.12851667e+00
      -1.36100063e-02 -8.19960311e-02 -2.16875404e-01 -7.04756558e-01</_>
    <_>
      5.71258664e-01 -1.21836312e-01 -2.41042271e-01 -2.32968077e-01
      7.75505379e-02 4.80482906e-01 1.10434818e+00 5.32665312e-01
      -1.30212814e-01 1.33840430e+00 -4.70352381e-01 -1.41233802e+00
      4.89634693e-01 -4.82847214e-01 -3.72882545e-01 -5.41472256e-01</_>
    <_>
      1.52318060e-01 6.12995446e-01 -6.18947566e-01 3.33260387e-01
      -4.61538583e-01 3.88176516e-02 2.40871966e-01 9.06046405e-02
      2.45655727e+00 4.05463934e-01 1.52467573e-02 -7.45335817e-01
      -1.14271128e+00 4.65637445e-03 3.40849906e-01 -5.52121885e-02</_>
    <_>
      2.32084900e-01 -1.87731460e-02 -3.81561428e-01 -6.39700815e-02
      1.70635417e-01 5.63367419e-02 -3.08567911e-01 -6.29874086e-03
      3.43279630e-01 7.75732696e-02 1.15433045e-01 -8.87586772e-02
      -1.83500320e-01 -1.88044664e-02 1.98454425e-01 8.74910951e-02</_>
    <_>
      -1.61399931e-01 -2.83695925e-02 -1.20829739e-01 -2.00461760e-01
      7.69945309e-02 3.15409750e-02 -1.49444669e-01 4.61138822e-02
      3.28247607e-01 1.98152274e-01 -7.73843601e-02 -2.27009788e-01
      4.31127027e-02 -2.65566017e-02 -1.23893209e-01 -6.65118871e-03</_>
    <_>
      -3.66562337e-01 5.05951226e-01 -4.15168345e-01 -8.36040497e-01
      5.69638669e-01 4.86047417e-01 6.50751889e-02 2.32064322e-01
      1.14614248e+00 -4.00992483e-01 -3.48911405e-01 -2.81451911e-01
      6.23649895e-01 -1.07716000e+00 -2.12259963e-01 -2.74470419e-01</_>
    <_>
      1.46087930e-01 4.06621814e-01 -3.30347657e-01 -6.31895065e-01
      1.28252760e-01 1.47064388e-01 8.22896779e-01 -5.61508574e-02
      7.27689385e-01 5.84879398e-01 -7.47931957e-01 -1.46663380e+00
      9.69134927e-01 -1.62357748e-01 -8.32382917e-01 -1.11537516e+00</_>
    <_>
      1.09150559e-01 9.12006646e-02 -1.38062492e-01 -3.84008163e-03
      1.10613532e-01 1.63562343e-01 -2.96413600e-01 2.23561287e-01
      3.59507233e-01 1.82788506e-01 2.12416440e-01 -2.75130212e-01
      -1.26081973e-01 1.80756390e-01 -2.82782279e-02 -2.33676270e-01</_>
    <_>
      -4.95075256e-01 2.49349982e-01 -3.72482667e-04 -7.98161566e-01
      5.73710680e-01 7.39498496e-01 -5.50287306e-01 7.27917850e-01
      9.75789845e-01 -1.83264703e-01 -6.47142455e-02 -1.24204206e+00
      2.08775258e+00 -2.81666517e-02 -1.05187869e+00 -6.74049795e-01</_>
    <_>
      1.79317832e-01 -2.20844802e-02 -5.41622713e-02 -2.14138657e-01
      2.57188752e-02 -1.31883413e-01 -1.31059372e+00 3.32086653e-01
      -4.87847805e-01 -3.67277265e-01 -5.26867867e-01 -1.76708210e+00
      6.56463861e-01 -7.36053824e-01 -2.58063525e-01 -3.49220663e-01</_>
    <_>
      -2.88809627e-01 2.14739796e-02 4.24763173e-01 -3.56312990e-02
      -2.04935074e-02 -4.01292294e-02 4.97074544e-01 8.88507217e-02
      5.37528574e-01 2.91831553e-01 -1.20783567e+00 -9.44613814e-01
      -1.84030160e-01 -4.11062807e-01 2.98682213e-01 4.32572186e-01</_>
    <_>
      -1.13118792e+00 7.22872436e-01 1.88500822e-01 -5.54149389e-01
      4.74610358e-01 -3.87322664e-01 -2.32712582e-01 2.62894481e-02
      9.37896073e-01 1.55628353e-01 -1.15561926e+00 -8.43201756e-01
      -4.14444089e-01 -5.38171172e-01 -3.44371349e-01 -2.79539824e-01</_>
    <_>
      -2.10796967e-01 5.73866367e-01 5.26629835e-02 -8.33435282e-02
      -4.15417075e-01 9.03044045e-02 9.78197753e-02 9.17225257e-02
      8.57593119e-01 2.05256745e-01 -1.92910671e-01 -2.47851506e-01
      -6.71858251e-01 -2.37941250e-01 1.78568214e-01 -2.47707605e-01</_>
    <_>
      2.27988377e-01 -9.51899737e-02 -8.74810994e-01 -6.17253929e-02
      1.01459205e+00 -1.16735496e-01 -9.77478862e-01 1.05553305e+00
      1.68337792e-01 2.92546570e-01 -1.65970698e-01 -6.25517786e-01
      5.40566444e-01 8.33228976e-02 -3.44300836e-01 -2.25494713e-01</_>
    <_>
      -4.02245760e-01 3.62299174e-01 -3.55162919e-01 -3.29917908e-01
      4.01128948e-01 -2.95857131e-01 4.06444967e-01 8.45330209e-02
      5.89444399e-01 -3.38438712e-02 -1.10894847e+00 -1.73686028e-01
      3.73299904e-02 -5.29039621e-01 1.26385555e-01 6.21957958e-01</_>
    <_>
      1.11253262e-02 1.81069255e-01 -2.48028606e-01 -6.07019305e-01
      7.69665718e-01 -3.87393907e-02 -3.60585839e-01 9.90160778e-02
      1.39014414e-02 -2.40722150e-01 1.96547776e-01 -8.52344811e-01
      1.57116520e+00 -2.60443002e-01 -9.88726497e-01 1.23516202e-01</_>
    <_>
      -7.86691234e-02 1.22418113e-01 -3.13621968e-01 -2.11119279e-01
      -2.50566751e-02 -1.03443423e-02 -4.85294342e-01 -2.91086316e-01
      2.54447550e-01 1.14008114e-02 1.47666752e-01 8.85864019e-01
      3.30531187e-02 -1.09217927e-01 5.45185030e-01 5.11057489e-02</_>
    <_>
      -7.95087740e-02 -4.84707430e-02 -2.84755100e-02 -6.71361163e-02
      7.56936893e-02 -7.84885734e-02 7.84208924e-02 -9.11366940e-02
      1.70026161e-02 9.60550979e-02 6.93848282e-02 -2.74031628e-02
      -1.39493793e-01 -5.67426123e-02 1.93037048e-01 -2.43988186e-02</_>
    <_>
      -2.90922225e-01 4.58038598e-01 -3.39534223e-01 -3.01943094e-01
      -7.02848881e-02 7.26075768e-02 -4.64046337e-02 -3.64929646e-01
      8.72061431e-01 2.17055529e-01 -5.09526543e-02 8.58274758e-01
      -6.19250953e-01 1.72020957e-01 1.25873816e+00 -6.98208883e-02</_>
    <_>
      -3.77932578e-01 5.03297806e-01 -5.05221963e-01 -1.25568354e+00
      1.06569779e+00 -3.01555216e-01 -4.96515743e-02 2.00082585e-01
      8.77146125e-01 3.09599608e-01 -7.23779649e-02 8.94437850e-01
      1.01321864e+00 5.28466702e-01 3.56565744e-01 2.10394502e-01</_>
    <_>
      -1.32181048e-01 1.30790102e+00 -5.67090571e-01 -2.28563476e+00
      1.15566528e+00 -8.33078682e-01 3.10784519e-01 2.20061004e-01
      1.12363136e+00 -1.28537446e-01 -7.20419511e-02 7.55712688e-01
      3.25792283e-01 3.20999891e-01 2.53765315e-01 8.39900672e-01</_>
    <_>
      -2.71580189e-01 5.33338375e-02 -2.85730273e-01 -2.41070658e-01
      4.76588547e-01 4.77516174e-01 2.87449121e-01 4.17318940e-01
      2.27524877e-01 3.72215927e-01 1.73932668e-02 -2.17713322e-03
      -4.09325242e-01 5.19180775e-01 4.93941337e-01 -4.39949545e-05</_>
    <_>
      1.67306680e-02 -7.68385530e-02 2.18094629e-03 2.43732799e-02
      2.12366730e-01 2.18440406e-02 1.60753727e-01 1.33699432e-01
      2.11836025e-02 2.37866700e-01 -7.53283575e-02 2.94582918e-03
      -5.76457754e-02 1.18112043e-01 1.35466158e-01 -8.30724835e-03</_>
    <_>
      5.37150264e-01 2.86614597e-02 -2.49045938e-02 4.81476963e-01
      -9.99678552e-01 2.56095201e-01 3.38739336e-01 -1.02954400e+00
      5.11216998e-01 -6.73122108e-02 2.64466673e-01 2.56341994e-01
      -8.57666850e-01 -2.55886689e-02 1.24849856e+00 2.39755258e-01</_>
    <_>
      -3.09339404e-01 1.06327049e-02 2.30166037e-02 1.65411562e-01
      -2.28142098e-01 1.28140688e-01 5.79183519e-01 -2.58360714e-01
      2.17022732e-01 1.11990273e-01 3.54090750e-01 2.96770692e-01
      -6.67999029e-01 -5.43832313e-03 1.12998414e+00 6.50909603e-01</_>
    <_>
      -8.38735998e-01 3.13332200e-01 1.26484334e-01 -2.02667847e-01
      1.59508958e-01 1.02314159e-01 4.79728788e-01 -8.17281961e-01
      5.06816566e-01 1.08604930e-01 3.00463468e-01 4.41857368e-01
      -8.90272141e-01 1.63066193e-01 1.50351214e+00 4.87334549e-01</_>
    <_>
      -6.45089984e-01 2.88215369e-01 -2.66312331e-01 -5.98875284e-01
      2.09762350e-01 1.69672817e-01 4.40321527e-02 -1.34561598e+00
      5.77250004e-01 3.54167312e-01 5.16465604e-02 1.33788252e+00
      1.69104850e-03 -8.28420103e-01 1.34777653e+00 -2.75161505e-01</_>
    <_>
      -7.16082677e-02 1.36300996e-01 5.50539866e-02 -1.64134800e-01
      1.77223220e-01 -1.59415722e-01 1.31769463e-01 -1.17146457e-02
      1.34217203e-01 1.08711571e-01 5.30952737e-02 -3.59744299e-04
      -5.58052585e-02 4.59321402e-02 3.35829258e-02 4.39553261e-02</_>
    <_>
      9.10759158e-03 -1.00350156e-01 -2.54395008e-01 2.18618974e-01
      8.01788867e-02 2.37987459e-01 -1.78945988e-01 -1.14532486e-01
      3.68740201e-01 1.82909653e-01 5.23338675e-01 7.95679271e-01
      -3.14299971e-01 4.18460816e-01 5.22107303e-01 2.25058347e-01</_>
    <_>
      1.65708102e-02 -4.24285941e-02 -2.24179197e-02 2.52402890e-02
      1.80581361e-01 -9.13493112e-02 4.61432897e-02 1.96368620e-03
      1.41946793e-01 -2.39717811e-02 -9.32958946e-02 2.40292221e-01
      1.06767386e-01 -7.14745745e-02 -6.64742216e-02 1.86676800e-01</_>
    <_>
      -1.74329460e-01 -1.03108659e-01 -5.30359372e-02 -2.99480893e-02
      1.15118409e-02 4.51085791e-02 -1.39950328e-02 4.25178595e-02
      9.26222950e-02 2.03351051e-01 -1.00229062e-01 2.82843620e-01
      -5.22303730e-02 5.07286377e-02 9.54594687e-02 1.22737251e-01</_>
    <_>
      -5.95860302e-01 7.11269736e-01 2.89639890e-01 -3.23821336e-01
      -3.50602180e-01 1.24385811e-01 2.49435574e-01 -8.02880824e-01
      3.66672784e-01 9.39874500e-02 -4.13633883e-02 -1.29976362e-01
      -1.23948944e+00 3.50151360e-01 1.49761713e+00 3.69563907e-01</_>
    <_>
      -4.58322242e-02 6.22422218e-01 2.68535223e-02 -6.24168992e-01
      -4.43868041e-01 -2.80715257e-01 -4.34899151e-01 -2.58181661e-01
      7.88900316e-01 1.88318416e-02 9.42585617e-02 6.46510899e-01
      -1.15747356e+00 -3.11361164e-01 1.23948932e+00 4.71701324e-01</_>
    <_>
      -1.20542295e-01 3.80236953e-01 1.15070090e-01 -3.91831808e-02
      -4.57041860e-01 2.46975899e-01 4.10884432e-02 -3.30498099e-01
      1.90971032e-01 1.95511550e-01 -1.83404863e-01 1.94122136e-01
      -5.97856700e-01 9.29786041e-02 6.05579495e-01 9.13319215e-02</_>
    <_>
      -4.48136806e-01 -1.61282811e-02 -3.19134653e-01 -6.51422590e-02
      5.60928524e-01 -2.20151573e-01 3.58598500e-01 7.76951373e-01
      1.89772651e-01 7.41854012e-01 -2.42272124e-01 5.24540484e-01
      -1.98515296e-01 2.76607633e-01 9.33414102e-02 4.57646340e-01</_>
    <_>
      -2.67441481e-01 2.79947519e-01 -1.15131520e-01 -4.84139085e-01
      3.52661073e-01 -4.62252527e-01 3.01889747e-01 -1.04812250e-01
      4.41294283e-01 5.27722418e-01 -9.34705198e-01 7.14095831e-01
      -9.13777947e-02 -4.51166064e-01 3.92880589e-01 3.37440789e-01</_>
    <_>
      7.20447628e-03 7.04033971e-02 1.04004599e-01 -5.62056154e-02
      -2.23964676e-02 -3.99151176e-01 2.84641981e-01 9.53287706e-02
      -9.86780599e-02 -2.75497641e-02 1.40182257e-01 2.26048663e-01
      2.30518609e-01 1.69199128e-02 -3.57012093e-01 3.26234251e-01</_>
    <_>
      -6.09072030e-01 -2.54336987e-02 2.84520894e-01 -2.69480217e-02
      5.46807766e-01 -1.24788232e-01 4.65768367e-01 -7.08052933e-01
      5.66578686e-01 5.73076785e-01 -2.57218063e-01 -4.77693111e-01
      -3.20659995e-01 2.58201629e-01 1.93288431e-01 1.55227855e-01</_>
    <_>
      6.78540766e-02 6.30948022e-02 -2.76264101e-01 -9.98420343e-02
      1.06541678e-01 -1.86798170e-01 -1.94658246e-02 -1.31042317e-01
      1.77496389e-01 1.82355717e-01 4.10043336e-02 -1.79865897e-01
      -1.48967236e-01 1.46393776e-01 1.19666748e-01 1.15576647e-01</_>
    <_>
      3.16145539e-01 -9.36934203e-02 1.62775710e-01 -3.15007925e-01
      6.70763999e-02 -2.47819662e-01 1.29810005e-01 7.92945251e-02
      1.98464915e-02 9.56248268e-02 7.80740529e-02 8.38886648e-02
      2.22620696e-01 3.92890364e-01 -1.40341818e-01 -1.05930477e-01</_>
    <_>
      2.66619533e-01 2.24787712e-01 -2.85323858e-01 -4.25934315e-01
      3.03976476e-01 -1.11674018e-01 1.09627247e-01 1.14203557e-01
      1.32959038e-01 1.94432959e-01 1.10672966e-01 -1.88090041e-01
      1.43839598e-01 3.07250321e-01 -1.49717718e-01 1.49562759e-02</_>
    <_>
      8.72664750e-02 -2.29331121e-01 -1.05795586e+00 1.72290564e-01
      7.93010473e-01 1.03262186e-01 2.26729602e-01 -9.10834223e-02
      9.34153572e-02 1.30789137e+00 4.67705101e-01 -1.03238833e+00
      -4.92090911e-01 1.21825504e+00 1.03464496e+00 -1.25019718e-02</_>
    <_>
      6.61920190e-01 -3.41635235e-02 -3.59272122e-01 -4.65480417e-01
      6.62003279e-01 -4.17344868e-01 1.12930954e+00 3.61292839e-01
      -7.43567109e-01 1.11465013e+00 -5.41023135e-01 -1.27551973e+00
      1.72847614e-01 4.35225010e-01 4.34515662e-02 -7.25197047e-02</_>
    <_>
      1.48769423e-01 -2.60844409e-01 -2.65962988e-01 6.73470795e-01
      -3.97382438e-01 -3.20016325e-01 1.81298658e-01 -8.75254452e-01
      3.52856904e-01 5.32750785e-01 -1.55296832e-01 -5.62433302e-01
      -5.80293596e-01 3.59373063e-01 6.41294777e-01 3.65189165e-01</_>
    <_>
      -5.80577226e-03 -4.48537111e-01 -6.30543172e-01 9.36173379e-01
      2.22759515e-01 -4.80878085e-01 -1.66497052e-01 -1.00881636e+00
      6.31650507e-01 1.02647042e+00 1.72174588e-01 -4.12960231e-01
      -9.51544642e-01 2.85919696e-01 1.05150843e+00 4.01665002e-01</_>
    <_>
      -8.11580300e-01 -3.42235528e-02 -3.34684074e-01 2.67070264e-01
      6.87654078e-01 -9.19431373e-02 3.70728642e-01 -9.45428252e-01
      8.79512608e-01 7.81577468e-01 3.07585567e-01 -3.18273246e-01
      -6.30625248e-01 5.77580690e-01 9.74069595e-01 2.75453687e-01</_>
    <_>
      2.31510457e-02 -5.05842641e-03 6.35356409e-03 -6.73519596e-02
      -4.19696122e-02 -8.36716145e-02 9.31631401e-02 -8.12904388e-02
      7.04426840e-02 1.76712394e-01 5.92951030e-02 6.58828542e-02
      -3.17822956e-02 5.12211677e-03 1.90030113e-02 -9.07646865e-02</_>
    <_>
      -2.59801149e-01 6.11667216e-01 7.28396652e-03 -1.15036809e+00
      9.41945612e-01 -6.75783694e-01 9.80577469e-01 -3.54211517e-02
      3.18482190e-01 2.42280483e-01 -1.49222193e-02 -8.07868183e-01
      -3.09607456e-03 4.57879484e-01 -1.18182264e-01 -2.54274219e-01</_>
    <_>
      1.02964520e+00 -7.14852989e-01 -7.20234990e-01 7.85665274e-01
      2.56984606e-02 -4.89941686e-02 -1.37297511e-01 -6.73827350e-01
      5.87997176e-02 1.36938310e+00 1.42243040e+00 -6.39159858e-01
      -5.34298837e-01 1.13308179e+00 8.98030639e-01 2.43384406e-01</_>
    <_>
      1.13844559e-01 -3.93368378e-02 -1.06032498e-01 3.91505286e-02
      3.26210707e-02 -1.20125353e-01 1.14470996e-01 -2.19313800e-02
      -4.24429448e-03 -2.70138029e-03 -2.17520669e-02 -6.33140951e-02
      1.88601743e-02 7.54082724e-02 -1.18337408e-01 1.09770529e-01</_>
    <_>
      -7.99045190e-02 -1.31162241e-01 -2.28360984e-02 1.19753323e-01
      -1.15496017e-01 -1.37725309e-01 -6.80867806e-02 -3.75414453e-02
      -2.52108097e-01 2.42157370e-01 6.85693696e-02 -1.12744898e-01
      -1.05944693e-01 -7.83936232e-02 8.86841863e-02 -5.84501140e-02</_>
    <_>
      -4.97175194e-02 -7.92557187e-03 3.75554524e-02 2.96895534e-01
      -1.03119686e-01 -2.88090497e-01 6.93906069e-01 -6.93989396e-01
      -4.07198101e-01 1.97141871e-01 -3.95395905e-01 -1.09434986e+00
      -7.15252280e-01 5.67391992e-01 8.65809858e-01 5.68608567e-02</_>
    <_>
      -7.63018012e-01 1.33169487e-01 2.09024966e-01 3.33555490e-01
      -1.50117755e-01 -1.09982304e-02 -4.09424067e-01 -6.67733908e-01
      5.02782762e-01 1.06277716e+00 -5.85854053e-01 -4.16175306e-01
      -7.18373477e-01 -1.76246613e-02 6.34931982e-01 1.02233373e-01</_>
    <_>
      -8.01178336e-01 4.50996190e-01 2.04995111e-01 2.50419199e-01
      -5.58325112e-01 2.80818045e-01 4.17307281e-04 -6.27468228e-01
      4.55865711e-01 4.89729464e-01 -3.99922580e-01 -2.56909579e-01
      -5.45912921e-01 -7.38330260e-02 5.83310366e-01 6.56266436e-02</_>
    <_>
      7.98279140e-03 -1.13244895e-02 -4.00457501e-01 -1.22487158e-01
      5.65492034e-01 -1.66275859e-01 -4.79378439e-02 2.84223706e-01
      -2.61003017e-01 5.61244130e-01 -1.09464750e-01 -3.75544280e-01
      1.18880272e-02 2.08850116e-01 -1.41527653e-01 4.98740119e-04</_>
    <_>
      -3.28550130e-01 -1.63395312e-02 2.22813487e-02 -4.24633101e-02
      7.41662979e-02 -1.44569680e-01 3.71931583e-01 -4.95824628e-02
      2.08826080e-01 2.63422191e-01 -5.23066282e-01 -1.76414907e-01
      -7.36385435e-02 -4.15789098e-01 -7.01895729e-03 2.85170168e-01</_>
    <_>
      7.60191679e-01 2.34532282e-01 -6.57486379e-01 -4.29315776e-01
      3.72939050e-01 -8.71451080e-01 5.74300766e-01 3.92510861e-01
      -5.39116442e-01 -1.24463759e-01 -3.35746258e-01 -8.87651265e-01
      1.58357537e+00 2.88455844e-01 -1.16215563e+00 8.97651672e-01</_>
    <_>
      6.16235733e-02 1.44212499e-01 -4.58061956e-02 -9.47035030e-02
      -3.07165994e-03 -4.65336256e-02 -2.25417539e-02 2.87370048e-02
      6.81096166e-02 -5.68780899e-02 2.54923012e-02 2.57744920e-02
      -7.37051815e-02 3.11172567e-02 8.46994370e-02 -5.90129085e-02</_>
    <_>
      3.21726948e-01 4.92521763e-01 1.89985007e-01 -1.05016017e+00
      -5.56200564e-01 -9.20179904e-01 -7.41048038e-01 1.07262802e+00
      -8.71730875e-03 -8.31454098e-01 3.01003575e-01 1.69973150e-01
      1.48361170e+00 1.99140579e-01 -1.16674341e-01 2.67763704e-01</_>
    <_>
      1.19856322e+00 6.61110222e-01 -4.36136097e-01 -9.63337421e-01
      -7.86022544e-01 -1.18231499e+00 -9.39368736e-03 7.20651567e-01
      -1.24469928e-01 -9.48237121e-01 -5.47170997e-01 7.07692444e-01
      5.83474398e-01 3.33842695e-01 7.70464540e-03 8.49545956e-01</_>
    <_>
      -4.67809327e-02 -2.85018273e-02 -2.05743834e-02 -4.95072789e-02
      -3.65837999e-02 2.00606972e-01 -1.12706997e-01 1.66700467e-01
      2.69273724e-02 -4.75382479e-03 8.02228376e-02 2.10910141e-02
      -1.50019974e-01 8.48806128e-02 2.99624708e-02 -7.42189877e-04</_>
    <_>
      8.73027667e-02 -9.72247496e-02 -5.92693724e-02 -5.67334751e-03
      -6.17570281e-02 5.64197376e-02 1.40814677e-01 8.90382230e-02
      7.70236552e-02 -1.14887387e-01 -4.31025214e-02 -3.64613049e-02
      2.63680890e-02 3.40884291e-02 5.14608882e-02 -5.84333530e-03</_>
    <_>
      9.46240604e-01 -5.34064531e-01 -4.99503940e-01 9.44397509e-01
      -6.11509979e-01 9.35684666e-02 -4.10678118e-01 -4.14686471e-01
      -2.91745305e-01 -3.50865811e-01 3.92601728e-01 1.16527371e-01
      -6.94147050e-01 2.31899485e-01 5.99535286e-01 1.86377034e-01</_>
    <_>
      4.69276011e-02 -7.80761614e-02 8.02547559e-02 5.68187237e-01
      -9.43379104e-01 1.42012209e-01 -7.18785644e-01 6.15390688e-02
      -5.99508047e-01 -1.97645202e-02 4.15513754e-01 9.29116607e-01
      -7.95231819e-01 2.96252389e-02 1.80179155e+00 7.85091698e-01</_>
    <_>
      1.87919345e-02 -7.43920654e-02 -5.47013525e-03 -1.22909203e-01
      -4.70360853e-02 3.05506494e-02 -1.22451410e-01 -1.41370848e-01
      -3.53413270e-05 -3.26208621e-02 1.34546936e-01 7.32761398e-02
      -1.69721529e-01 5.90091683e-02 2.15287641e-01 2.21749879e-02</_>
    <_>
      -6.41471613e-03 1.06875829e-01 -4.33551706e-02 -8.17149878e-02
      -2.49351501e-01 4.73994948e-02 -1.45715564e-01 -4.07639332e-02
      -2.53749099e-02 -2.87732869e-01 1.28363386e-01 1.43876553e-01
      1.09468699e-01 -7.17778876e-02 5.82905374e-02 4.87091579e-02</_>
    <_>
      -1.07573150e-02 -1.86007004e-02 2.26120874e-02 -1.32057682e-01
      -3.09803355e-02 -9.53901634e-02 2.41734385e-02 4.32575084e-02
      -5.78549691e-02 -7.00035095e-02 -2.64015943e-02 2.48695295e-02
      2.44744886e-02 1.95613299e-02 -2.71418113e-02 4.89862077e-02</_>
    <_>
      5.13267964e-02 2.73505542e-02 1.11057885e-01 1.50705753e-02
      -4.70082313e-02 1.06532402e-01 -1.57164976e-01 1.49047961e-02
      -8.89244769e-03 -5.33097312e-02 1.40045285e-01 6.30215630e-02
      -8.73039067e-02 1.40962064e-01 7.98471197e-02 -1.11836893e-03</_>
    <_>
      -2.03948133e-02 1.47164776e-03 -7.95051530e-02 -8.76139924e-02
      -1.52219646e-02 -5.55257238e-02 -5.24396077e-03 1.43741757e-01
      -6.88133836e-02 -1.50470108e-01 1.26832575e-02 4.88727614e-02
      9.03585255e-02 7.37246200e-02 -4.42115515e-02 1.25702381e-01</_>
    <_>
      5.40559769e-01 -2.19955727e-01 3.03760707e-01 7.68099666e-01
      -1.48672223e+00 -4.15263563e-01 -3.88021946e-01 5.97112060e-01
      -1.78266311e+00 1.38558045e-01 -9.16189015e-01 8.69322062e-01
      2.55774438e-01 -1.28253803e-01 -1.76383294e-02 4.99015152e-01</_>
    <_>
      -3.67320418e-01 -5.92935421e-02 3.89010757e-01 5.88029861e-01
      -6.17167890e-01 -1.88386708e-01 -1.50769487e-01 -5.30707315e-02
      -5.10011613e-01 2.52831489e-01 -3.96059692e-01 -1.59589842e-01
      -6.81622624e-01 2.01918051e-01 1.08966768e+00 9.05787468e-01</_>
    <_>
      4.39327478e-01 8.01937953e-02 8.18894804e-02 -2.06262320e-01
      -6.67871654e-01 -3.22967798e-01 -1.08116781e-02 8.03857565e-01
      -6.26899242e-01 -1.25105232e-01 -6.31020069e-01 8.10768902e-01
      -3.93892497e-01 -1.78992555e-01 5.46712160e-01 5.05676158e-02</_>
    <_>
      1.70608118e-01 2.77407885e-01 4.75959986e-01 3.59147429e-01
      -1.16538131e+00 3.11905622e-01 1.04608171e-01 -2.41230175e-01
      -4.37816173e-01 4.06519920e-02 -6.81593359e-01 1.36561644e+00
      -1.08144653e+00 5.76537728e-01 1.19712734e+00 2.49085635e-01</_>
    <_>
      3.48733038e-01 1.86681986e-01 -4.80321050e-01 -4.50423986e-01
      4.94577974e-01 -3.57076615e-01 -3.32256734e-01 9.72592175e-01
      -1.99372008e-01 1.62795439e-01 -2.43195280e-01 -2.98801698e-02
      -5.40396245e-03 2.00840920e-01 2.12946415e-01 2.85964608e-01</_>
    <_>
      2.37646967e-01 2.90506274e-01 6.69914559e-02 -3.95654649e-01
      -4.01523918e-01 -6.73447728e-01 2.45715752e-01 2.79525638e-01
      -1.26726508e-01 2.88873841e-03 -8.60279739e-01 6.81589305e-01
      3.64362925e-01 -1.09970242e-01 1.13215156e-01 8.21667910e-01</_>
    <_>
      3.54583383e-01 2.12500051e-01 2.37191260e-01 -2.19244197e-01
      -7.73137271e-01 -9.89966810e-01 7.01910779e-02 8.60529304e-01
      -8.18530381e-01 -3.65223199e-01 -2.01457247e-01 3.35675515e-02
      9.90960121e-01 1.11081414e-01 -6.28294170e-01 7.91029036e-01</_>
    <_>
      -4.19985682e-01 -3.14266741e-01 1.56882083e+00 -7.40398690e-02
      3.94376665e-02 -2.91996390e-01 1.98761195e-01 8.25220406e-01
      -8.32198858e-01 -1.73036397e-01 -1.47569418e-01 3.35591137e-01
      1.15219331e+00 6.08416736e-01 -1.08458579e+00 3.67629647e-01</_>
    <_>
      -1.71711016e-02 -1.32740662e-01 1.86523497e-01 -2.52296090e-01
      4.28715199e-02 -3.04711789e-01 1.44575760e-01 1.49701566e-01
      -2.83543527e-01 -1.57540232e-01 -1.70334101e-01 -1.63772274e-02
      3.82246107e-01 4.41514701e-01 -3.76251012e-01 2.48702183e-01</_>
    <_>
      -3.26849259e-02 -8.93158186e-03 5.82764894e-02 2.16236785e-02
      6.20039329e-02 7.03387856e-02 -2.26168148e-02 1.02917619e-01
      7.86830485e-02 8.58781710e-02 8.15065950e-02 -1.54622242e-01
      1.85230630e-03 6.45218566e-02 4.88029793e-02 -1.09317213e-01</_>
    <_>
      -1.95707351e-01 -1.91307008e-01 4.32832986e-01 -1.09111086e-01
      3.13873947e-01 1.81861714e-01 7.47860074e-01 2.31585324e-01
      -7.19468474e-01 7.14032471e-01 2.37905726e-01 -5.82738459e-01
      1.59148604e-01 -4.90688652e-01 -5.37684143e-01 -2.29148284e-01</_>
    <_>
      1.02614298e-01 -1.40534595e-01 -1.18470646e-01 4.09737788e-02
      -8.16413090e-02 -4.94578816e-02 6.50193989e-02 5.80678172e-02
      8.58285725e-02 5.94424270e-02 2.67818496e-02 -2.37341002e-01
      -2.12177470e-01 -5.62021472e-02 1.05260924e-01 2.19690893e-02</_>
    <_>
      8.35365728e-02 1.75584108e-02 -4.82699387e-02 2.70906743e-02
      3.55674624e-02 1.80839345e-01 3.37580517e-02 5.29174283e-02
      9.48694125e-02 9.41333696e-02 7.42953569e-02 1.14405222e-01
      -1.30480513e-01 -6.34364039e-02 2.16135323e-01 9.59740579e-02</_>
    <_>
      4.22876365e-02 -6.15681745e-02 5.06956354e-02 -7.21860304e-02
      -4.07459773e-02 -2.43368605e-03 1.92772280e-02 7.04748705e-02
      -1.03363460e-02 7.68305687e-03 2.41971407e-02 -2.09986176e-02
      -3.31308097e-02 -1.29867466e-02 -6.36652410e-02 -2.81978417e-02</_>
    <_>
      -1.50501519e-01 -5.47857359e-02 1.41033128e-01 -4.48767319e-02
      -8.08597580e-02 1.20457225e-01 2.06579864e-02 5.42759374e-02
      4.54340987e-02 -9.87866893e-02 -1.68617221e-03 1.26326665e-01
      3.36723365e-02 -1.76178262e-01 -7.11738691e-02 -6.49526641e-02</_>
    <_>
      -1.22633882e-01 7.84952426e-04 6.29597604e-02 -4.97833192e-02
      -5.47808297e-02 -1.40861109e-01 6.57697394e-02 2.36152150e-02
      -3.82094942e-02 1.05143592e-01 9.14054643e-03 -1.68749750e-01
      7.35260174e-02 -1.60783287e-02 -1.26312345e-01 2.81858258e-02</_>
    <_>
      -8.91323108e-03 1.20073773e-01 1.27059832e-01 2.60857604e-02
      -4.92491946e-02 1.00195311e-01 -4.93844785e-02 1.25429556e-02
      2.07650214e-02 -9.07012145e-04 6.49817586e-02 -1.98080409e-02
      6.44038618e-02 -6.89166188e-02 -7.20540360e-02 -6.30499721e-02</_>
    <_>
      -6.26506209e-01 -4.76179540e-01 1.27197242e+00 3.73757780e-01
      -1.00676879e-01 -3.13881375e-02 6.25515103e-01 3.70620191e-01
      -9.20338035e-01 -8.03334236e-01 -3.05275798e-01 2.32761011e-01
      1.34177315e+00 -4.08969790e-01 -1.63181901e+00 -4.36787382e-02</_>
    <_>
      -4.87293124e-01 -4.60325360e-01 8.51357639e-01 2.19249770e-01
      -1.14539929e-01 3.61581594e-01 -4.01371866e-01 3.31070542e-01
      -1.10460925e+00 6.68193281e-01 -2.62550354e-01 2.19753176e-01
      3.22263032e-01 -3.95465553e-01 -5.51877022e-01 3.21479946e-01</_>
    <_>
      -2.83090658e-02 -5.17202467e-02 6.52180910e-02 -1.23626068e-01
      -3.40055749e-02 9.54832807e-02 1.94685776e-02 4.16566096e-02
      -9.75269824e-02 1.59621552e-01 -2.10477397e-01 -6.86006397e-02
      -8.56241211e-02 -5.85808838e-03 1.53627485e-01 1.74775749e-01</_>
    <_>
      6.07820712e-02 9.61080566e-02 3.94578017e-02 -7.42619038e-02
      -2.43772373e-01 8.57459828e-02 2.04151720e-02 -2.63464227e-02
      1.54475840e-02 1.88211247e-01 -5.99890314e-02 1.65291294e-01
      -1.35383978e-01 -1.65568173e-01 3.74233648e-02 -1.00234576e-01</_>
    <_>
      -1.79433122e-01 8.14171851e-01 1.27087727e-01 -7.59188309e-02
      -1.01608157e+00 7.36749411e-01 1.98233932e-01 3.89571905e-01
      7.59140849e-01 2.64103442e-01 -4.43441480e-01 -3.39199185e-01
      -1.52481043e+00 -1.53542846e-01 1.13001692e+00 -8.04506689e-02</_>
    <_>
      -2.59072810e-01 -1.83511123e-01 4.57421951e-02 -6.26865476e-02
      3.64159644e-01 1.78336278e-01 1.17197335e-01 4.43691552e-01
      -3.61778766e-01 1.77341402e-01 1.44193023e-01 -4.56423983e-02
      3.20866734e-01 -1.75163835e-01 -4.37891990e-01 1.15755379e-01</_>
    <_>
      -3.55697840e-01 1.19481139e-01 9.42306936e-01 -2.65205175e-01
      -4.36156094e-01 -3.55611950e-01 4.92474884e-01 3.73210490e-01
      -3.21811140e-01 3.42580557e-01 -1.43774486e+00 6.22227192e-01
      1.99559048e-01 -5.41972101e-01 4.26310189e-02 6.74263716e-01</_>
    <_>
      -9.95701924e-02 -1.74829233e-02 1.49399057e-01 -1.79153651e-01
      3.46420586e-01 -3.27499360e-01 9.62631181e-02 -2.21389785e-01
      -6.92957103e-01 -2.35757217e-01 4.48159069e-01 -6.13138795e-01
      7.87268341e-01 6.54339939e-02 -9.90193665e-01 5.73099792e-01</_>
    <_>
      1.19242363e-03 5.24925776e-02 -1.30568624e-01 -1.32168844e-01
      -4.27410975e-02 -9.97619927e-02 -2.88182963e-02 6.36684373e-02
      2.81814933e-02 -7.40899369e-02 1.52603900e-02 3.89251783e-02
      -3.25943045e-02 -2.02712100e-02 2.37491596e-02 -7.99061283e-02</_>
    <_>
      1.97385266e-01 -2.31099769e-01 -6.23610020e-01 7.97802866e-01
      -1.53504079e-02 8.41578603e-01 -4.73319776e-02 2.94541776e-01
      -2.43029878e-01 5.78132197e-02 3.12181383e-01 -8.73160064e-01
      -2.17407060e+00 6.70432568e-01 3.30100268e-01 -7.02189088e-01</_>
    <_>
      5.82879245e-01 -2.72028923e-01 1.17007591e-01 6.29447281e-01
      -5.77081621e-01 5.37160933e-01 9.54606116e-01 -3.75207663e-01
      -1.79868564e-01 3.10834318e-01 3.83259475e-01 -9.11955833e-01
      -6.68543756e-01 2.36227632e-01 -2.87692726e-01 -3.11585397e-01</_>
    <_>
      -6.86720908e-02 3.39884721e-02 -2.22083285e-01 2.50873268e-01
      -2.00956956e-01 1.37485400e-01 3.99125665e-02 -2.73027956e-01
      2.55908221e-01 1.74551040e-01 7.09952936e-02 -2.76101172e-01
      -4.65515345e-01 -3.76904123e-02 3.02158147e-01 -7.69473389e-02</_>
    <_>
      -5.33812046e-01 2.11184025e-01 -5.73417187e-01 7.17543662e-01
      -3.12227547e-01 4.12932575e-01 -3.44774351e-02 -5.00665307e-01
      2.69371778e-01 4.24762726e-01 7.25523770e-01 -4.18008596e-01
      -1.01380467e+00 5.75200329e-03 7.34750450e-01 2.30738312e-01</_>
    <_>
      -2.90949434e-01 -9.89586636e-02 -4.04721498e-01 6.80517972e-01
      7.94338286e-02 1.39222670e+00 4.40783590e-01 -1.15476632e+00
      6.79614902e-01 4.63062435e-01 1.73897073e-01 -3.29122692e-01
      -1.16221178e+00 -2.54189856e-02 2.46357575e-01 1.31027937e-01</_>
    <_>
      3.22253734e-01 1.20620869e-01 -8.24939489e-01 2.85629600e-01
      -5.08303106e-01 6.45864606e-01 1.40303209e-01 -7.89002657e-01
      4.15328413e-01 -4.76373583e-01 -1.84616536e-01 1.89601287e-01
      -3.87420803e-01 -9.26625252e-01 5.73728383e-01 -3.37373950e-02</_>
    <_>
      1.10757925e-01 -1.19890809e-01 1.26304790e-01 3.17968130e-01
      -2.89752990e-01 -6.17439300e-02 6.04518652e-01 -3.87457699e-01
      -1.18747048e-01 1.94101453e-01 -2.22198755e-01 -6.86087847e-01
      -7.60842860e-01 -9.88865569e-02 -1.33847697e-02 -1.82506308e-01</_>
    <_>
      4.21504557e-01 -1.06535867e-01 -2.51361787e-01 8.01650405e-01
      -4.23616141e-01 5.93967080e-01 -4.75832850e-01 -4.12206829e-01
      -1.83983833e-01 5.57547271e-01 1.27922082e+00 -3.07584316e-01
      -1.55015790e+00 4.63320434e-01 3.75386417e-01 -8.00442219e-01</_>
    <_>
      8.68271291e-02 2.63910573e-02 -1.49547637e-01 2.35689297e-01
      1.12587266e-01 5.70932999e-02 3.79076004e-02 -2.72335261e-02
      -1.37600834e-02 -3.55738476e-02 5.54507039e-02 2.32646312e-03
      1.75197404e-02 6.89886976e-03 -1.28440425e-01 -3.83343957e-02</_>
    <_>
      -3.43413293e-01 -9.04044509e-01 5.63653350e-01 1.03817141e+00
      -4.09664243e-01 4.48721312e-02 -7.99416900e-01 -7.87168622e-01
      -1.14799893e+00 2.43296221e-01 -1.11514473e+00 -5.24467885e-01
      -6.20769322e-01 -2.43084565e-01 2.35989809e-01 5.98663688e-01</_>
    <_>
      -1.79723442e-01 5.60198091e-02 -1.71361983e-01 1.13541156e-01
      -7.38515407e-02 1.71417847e-01 2.20127538e-01 -3.58149260e-01
      7.75441602e-02 2.05769107e-01 -3.78665090e-01 -4.00503308e-01
      -6.85286999e-01 -7.39858672e-02 5.93401611e-01 2.37315714e-01</_>
    <_>
      -2.47569486e-01 -3.17656487e-01 3.55655290e-02 5.86429417e-01
      -4.91699055e-02 5.65628745e-02 -6.70920387e-02 -2.21179023e-01
      1.95895866e-01 2.62553304e-01 -5.32994032e-01 -3.74583095e-01
      -7.95652807e-01 -2.25309476e-01 1.71650454e-01 3.13488916e-02</_>
    <_>
      -1.03315942e-01 2.51695979e-02 -7.85821024e-03 1.32941887e-01
      -1.24257177e-01 9.31260586e-02 3.19652595e-02 -1.34061575e-01
      2.32742175e-01 7.38152489e-02 -6.39173388e-02 -1.67315200e-01
      -3.37210327e-01 -1.29187867e-01 1.41190782e-01 -6.63355812e-02</_>
    <_>
      -8.29583406e-02 -1.62906066e-01 -1.26483545e-01 2.15054408e-01
      1.32476687e-01 6.67730719e-02 -2.01613471e-01 1.74582720e-01
      -6.36573741e-03 9.24926326e-02 -9.48794186e-02 -1.52892815e-02
      -2.66018927e-01 -1.99657958e-02 1.12934835e-01 8.88362452e-02</_>
    <_>
      -4.39377666e-01 -1.84478492e-01 1.96001709e-01 4.95491266e-01
      -5.13036489e-01 -4.23883826e-01 -3.85912880e-02 -1.26443803e-01
      4.71189529e-01 -1.23490371e-01 -1.21540439e+00 -3.05753201e-01
      -1.16269134e-01 -7.25752115e-01 6.00010231e-02 7.67370462e-01</_>
    <_>
      -3.60053815e-02 4.56699207e-02 -1.55837104e-01 -3.62515785e-02
      8.62792507e-02 2.53334679e-02 2.23083362e-01 -1.10060558e-01
      -3.71765316e-01 -3.47915381e-01 4.36143756e-01 -2.93504983e-01
      3.40002090e-01 -1.87486336e-01 -5.63789010e-01 3.63556683e-01</_>
    <_>
      -1.29069835e-01 -7.34932661e-01 -3.13213646e-01 1.41393960e+00
      -2.00036447e-02 9.45779026e-01 -1.91233471e-01 4.13637549e-01
      -4.15020734e-01 3.21363658e-01 6.35505676e-01 -1.27408981e+00
      -1.14194965e+00 -1.09016731e-01 -7.93340579e-02 -8.22705567e-01</_>
    <_>
      -3.75812426e-02 -7.48119712e-01 3.88225704e-01 1.01757360e+00
      -2.66879916e-01 7.29875445e-01 6.63783491e-01 2.56886482e-01
      1.81765378e-01 9.82762277e-01 3.08980912e-01 -9.71162617e-01
      -4.23874445e-02 -5.92586072e-03 -2.46035129e-01 -5.25599897e-01</_>
    <_>
      -1.82332516e-01 -2.67933104e-02 -2.61132568e-01 8.43326807e-01
      -4.59334314e-01 -2.14961797e-01 3.16405118e-01 1.60982031e-02
      7.36626387e-01 2.77851403e-01 -3.15902382e-01 -3.73909324e-01
      -7.59473443e-01 -9.82447341e-02 2.75941077e-03 -2.32477546e-01</_>
    <_>
      -1.55507460e-01 1.03699036e-01 1.19633876e-01 8.25527310e-01
      -1.15848339e+00 5.25332451e-01 -1.03413150e-01 -4.92152274e-01
      -5.73214173e-01 6.97964206e-02 3.03432375e-01 -4.88292053e-02
      -1.07362700e+00 -1.06679189e+00 1.00066769e+00 -2.48576567e-01</_>
    <_>
      -1.93750322e-01 -2.41666213e-01 6.28267154e-02 7.99281240e-01
      -5.07579923e-01 1.88067353e+00 -6.97460622e-02 -1.14938784e+00
      -1.69685390e-02 2.73481339e-01 1.28824639e+00 -5.52713811e-01
      -3.97937149e-01 -3.50145131e-01 3.87471706e-01 -7.43315697e-01</_>
    <_>
      3.16041976e-01 -1.95434451e-01 5.11143208e-02 8.65657270e-01
      -1.12860405e+00 6.00481987e-01 5.43562710e-01 -9.54761267e-01
      1.46631196e-01 -5.94439566e-01 -7.05231965e-01 1.08291113e+00
      -7.08444476e-01 -1.48175371e+00 5.60506046e-01 -6.13377392e-01</_>
    <_>
      -2.94029832e-01 -1.14743590e-01 3.29353541e-01 2.64894277e-01
      -6.94150776e-02 4.03407514e-01 1.44329250e-01 -1.82960480e-01
      1.72183558e-01 3.62391651e-01 1.98168039e-01 -3.06941122e-01
      -2.00366020e-01 -1.44981682e-01 5.80272153e-02 -3.39306116e-01</_>
    <_>
      1.98175371e-01 -3.92370224e-01 1.82789728e-01 1.17519724e+00
      -9.41759527e-01 6.03574276e-01 -6.61813021e-02 -1.20659269e-01
      -8.62910151e-02 6.89446151e-01 1.21774971e+00 -3.46469641e-01
      -6.39928818e-01 3.04229021e-01 3.08854640e-01 -8.98114085e-01</_>
    <_>
      1.70425847e-02 -3.58438343e-01 -6.17092624e-02 5.54914773e-01
      1.38056114e-01 1.93807736e-01 3.67460251e-02 -3.27126123e-02
      -1.90145090e-01 8.51520989e-03 3.18645388e-02 -9.00977626e-02
      1.00290477e-01 -9.85968336e-02 -1.38169155e-01 9.42625701e-02</_>
    <_>
      -2.14543253e-01 -9.97085810e-01 8.33697975e-01 1.29189634e+00
      -5.19148469e-01 4.57433820e-01 -9.39036667e-01 6.80249929e-03
      -1.44936430e+00 2.35114217e-01 -4.49367851e-01 -5.08188367e-01
      -3.99712950e-01 -3.24003488e-01 -2.20840368e-02 -6.13406077e-02</_>
    <_>
      -6.21453702e-01 -1.61609486e-01 8.41008365e-01 7.47853577e-01
      -6.27227604e-01 -5.38313612e-02 -3.91496956e-01 -2.15749532e-01
      -4.39076960e-01 9.59863305e-01 -7.82628953e-01 -6.95607245e-01
      -7.27903605e-01 -6.45821273e-01 7.13511169e-01 1.11033075e-01</_>
    <_>
      -8.22550297e-01 -1.03031054e-01 6.62252367e-01 9.63872254e-01
      -7.00351954e-01 -7.87721947e-02 -2.86207259e-01 -3.34091961e-01
      2.16187060e-01 2.50353128e-01 -1.00030768e+00 -3.96768659e-01
      -7.86008477e-01 -4.35280800e-01 2.98320036e-02 -5.46841025e-02</_>
    <_>
      -6.41739070e-02 8.46478269e-02 4.21502441e-02 1.96231827e-01
      -2.97769785e-01 1.21005118e-01 2.27455646e-02 -1.44079328e-01
      3.08158964e-01 1.23828940e-01 -2.86159217e-01 -1.79313377e-01
      -3.75351638e-01 -2.62716860e-01 5.99985458e-02 -5.59559911e-02</_>
    <_>
      -2.88857311e-01 -1.93424404e-01 -1.51762828e-01 3.31887990e-01
      2.03787908e-01 1.23253010e-01 -1.22000305e-02 3.27008367e-01
      -1.22626215e-01 2.88694382e-01 6.18160218e-02 -9.75886211e-02
      -5.69015257e-02 -3.34347114e-02 -4.58943984e-03 -1.02051176e-01</_>
    <_>
      -5.43290257e-01 -3.83740067e-02 3.38727623e-01 3.89618963e-01
      -3.16298664e-01 -4.54759412e-02 2.38299653e-01 -3.71468365e-02
      3.79082084e-01 4.24355328e-01 -1.17740345e+00 6.98100030e-03
      -1.48618191e-01 -7.66746581e-01 1.77992061e-01 4.61455286e-01</_>
    <_>
      9.19845030e-02 7.28451759e-02 1.36637697e-02 6.33814782e-02
      1.44401774e-01 -6.78145289e-02 1.66243643e-01 4.57381085e-02
      -1.08895548e-01 -7.74993673e-02 1.71143070e-01 -6.40563220e-02
      6.23848662e-02 5.51840700e-02 -2.70420909e-01 6.76301634e-03</_>
    <_>
      1.03808559e-01 -1.32719539e-02 2.46358383e-02 -2.73970123e-02
      -5.01763150e-02 -6.47263378e-02 1.60852134e-01 -1.10630751e-01
      -3.93404588e-02 7.69246072e-02 3.59425806e-02 -8.20131507e-03
      2.09501430e-01 -1.60402313e-01 -5.37547469e-02 1.00111738e-01</_>
    <_>
      4.81316894e-01 -2.00238109e-01 -3.77320886e-01 4.88061309e-01
      -3.86228710e-01 -4.44136262e-02 1.65693775e-01 -7.31191993e-01
      1.59764662e-01 -1.82585150e-01 -7.31916949e-02 3.82208437e-01
      -5.96384048e-01 -5.01677692e-02 5.62321901e-01 3.82027507e-01</_>
    <_>
      2.26270705e-01 8.38327873e-03 -2.67358065e-01 1.18175991e-01
      -6.93652213e-01 2.66069859e-01 -1.59922764e-01 -7.49741793e-01
      3.44799638e-01 5.70181489e-01 8.63644108e-02 1.14982736e+00
      -4.45094198e-01 -1.42944977e-01 1.89681220e+00 1.33277035e+00</_>
    <_>
      -1.53296992e-01 2.58809924e-01 1.66872069e-01 3.23250927e-02
      -2.11965621e-01 5.91573957e-03 2.03315184e-01 -6.13548100e-01
      -3.08311358e-02 -2.69303411e-01 4.67773601e-02 4.08680409e-01
      9.70376059e-02 -1.32038012e-01 1.72438413e-01 4.04865533e-01</_>
    <_>
      3.59777391e-01 2.46769890e-01 7.01935813e-02 -1.78838000e-01
      -3.21792096e-01 7.35830665e-02 4.96986330e-01 -9.95571434e-01
      4.20391187e-03 -6.78115189e-01 -6.03581592e-02 8.50701094e-01
      1.50401294e-01 -1.09186172e+00 -4.73223686e-01 2.79910833e-01</_>
    <_>
      -6.21042728e-01 2.99952388e-01 4.86190706e-01 -2.53362387e-01
      -2.41620541e-02 -7.23029971e-01 4.12848145e-01 -2.32445464e-01
      -8.53287876e-02 -5.97381257e-02 -1.68517500e-01 7.38737499e-03
      4.20815170e-01 -2.44713575e-01 -2.45106280e-01 2.89532840e-01</_>
    <_>
      -3.09373140e-02 -3.70927081e-02 1.10674948e-01 -1.12652918e-03
      -8.32845718e-02 -1.52192637e-02 -9.96931717e-02 -3.01282536e-02
      -7.09010065e-02 -3.35054100e-02 8.63271356e-02 8.51156265e-02
      -5.91964386e-02 3.55408154e-02 -8.04433525e-02 1.14334933e-01</_>
    <_>
      -7.11786211e-01 -9.28603578e-03 1.03325403e+00 -6.91562071e-02
      -1.86964963e-02 -7.44598985e-01 3.51852298e-01 -3.19037288e-01
      -1.78178534e-01 -6.66708946e-01 -3.04327637e-01 4.31406856e-01
      1.28051054e+00 -3.43312800e-01 -1.01542568e+00 4.40583915e-01</_>
    <_>
      -1.77732229e-01 -2.66885734e-03 6.75968707e-01 -1.44937634e-01
      -6.44191682e-01 -2.80663550e-01 -2.46185243e-01 -5.80134869e-01
      -3.46052825e-01 5.74789941e-02 -2.68014763e-02 2.97938824e-01
      6.12598717e-01 -1.44650847e-01 1.73407733e-01 6.58517241e-01</_>
    <_>
      1.63543403e-01 3.27991620e-02 2.40907699e-01 1.84249550e-01
      -6.00677609e-01 -1.55763865e-01 4.02034707e-02 -1.08376539e+00
      -3.73197526e-01 3.62813205e-01 -5.03674686e-01 6.77579105e-01
      -3.87573659e-01 3.51962745e-01 1.11021686e+00 5.96703529e-01</_>
    <_>
      3.67747247e-01 9.45808291e-01 -2.87880823e-02 -9.00813103e-01
      -3.69820595e-01 -2.66292959e-01 -1.86711580e-01 -7.16587722e-01
      5.56689680e-01 -5.81522048e-01 -1.09744823e+00 1.60756445e+00
      -1.09333955e-01 -9.80831683e-01 -8.90534073e-02 4.07402158e-01</_>
    <_>
      3.34109515e-02 5.29466212e-01 -2.57916331e-01 1.24125928e-01
      -7.06000447e-01 2.49746293e-01 1.42241508e-01 -9.12643492e-01
      -4.48268130e-02 1.66405231e-01 -5.86532116e-01 1.15453005e+00
      -3.74222577e-01 -5.91421604e-01 7.49870300e-01 3.35985094e-01</_>
    <_>
      5.27766123e-02 -7.71479234e-02 -1.77480448e-02 -5.29869366e-03
      1.23918556e-01 -2.69752920e-01 3.85447517e-02 1.27932308e-02
      -9.14365333e-03 2.84871310e-02 -3.45480293e-02 2.57572263e-01
      2.14225113e-01 -4.96972427e-02 -1.06468320e-01 8.69145319e-02</_>
    <_>
      3.94746304e-01 2.61474371e-01 5.02687739e-03 -4.91269290e-01
      -2.17304025e-02 -2.40562737e-01 3.37166548e-01 -6.02708638e-01
      1.15854017e-01 6.41439036e-02 -9.73885655e-01 1.14518273e+00
      1.31123573e-01 -4.03269023e-01 9.41150710e-02 2.32767209e-01</_>
    <_>
      -4.78794388e-02 1.06364368e-02 3.60550940e-01 -1.62550122e-01
      4.80113775e-02 -4.52186078e-01 2.64008373e-01 -1.05943605e-01
      -3.75418037e-01 -3.55862916e-01 6.62990138e-02 1.27678230e-01
      8.90700638e-01 -1.59684688e-01 -6.58286154e-01 5.46453238e-01</_>
    <_>
      5.94165847e-02 7.92923793e-02 -4.84239340e-01 4.17352974e-01
      -4.33838159e-01 4.18714106e-01 -4.69494611e-01 -2.16838136e-01
      1.64508688e+00 -2.39210844e-01 2.44676009e-01 1.80954114e-01
      -4.86786157e-01 5.59771776e-01 1.96374834e-01 2.86896974e-01</_>
    <_>
      -8.08338761e-01 -1.38585493e-01 -1.08217262e-01 4.82403755e-01
      9.21252370e-03 -1.58431023e-01 -1.04067373e+00 -2.88957149e-01
      6.26274586e-01 -5.31031609e-01 1.20389231e-01 6.08375609e-01
      -1.59842536e-01 1.25907287e-01 7.94449449e-01 6.50108993e-01</_>
    <_>
      -9.91011679e-01 7.13670850e-01 1.85010582e-01 -6.70142174e-01
      1.91090450e-01 -6.98299289e-01 -9.34735000e-01 -1.17944562e+00
      8.52751791e-01 -7.90037870e-01 4.95528519e-01 5.76734364e-01
      -3.66220146e-01 3.14102978e-01 2.89775074e-01 9.67015028e-01</_>
    <_>
      6.43476993e-02 7.08506346e-01 -7.55033970e-01 -1.67131387e-02
      -4.11953986e-01 6.11874342e-01 -1.42179370e-01 -9.52329993e-01
      1.44214606e+00 -1.33706677e+00 4.94181037e-01 9.65977430e-01
      -3.00468087e-01 -1.14280842e-01 -1.74985528e-01 6.49981081e-01</_>
    <_>
      -3.91826145e-02 1.54742301e-01 8.78285430e-03 4.53246646e-02
      1.30026024e-02 -7.17712045e-02 -1.75607026e-01 -1.07411049e-01
      1.61408521e-02 2.26248950e-02 3.83405462e-02 1.12193376e-01
      -2.07426380e-02 7.05288127e-02 2.06861412e-03 1.32378684e-02</_>
    <_>
      -2.39026263e-01 -1.76113755e-01 4.99089286e-02 6.66999638e-01
      -5.44791162e-01 1.07523605e-01 -1.27010727e+00 -5.00786960e-01
      6.90905154e-01 -1.24964392e+00 1.04292154e+00 1.47488451e+00
      -2.30111137e-01 6.55383110e-01 -4.20440793e-01 6.49270773e-01</_>
    <_>
      -1.00343883e-01 6.47254288e-02 1.93656042e-01 4.43290770e-02
      1.27253309e-01 -2.26942986e-01 -8.62298459e-02 -9.23272409e-03
      2.13643885e-03 -8.29322636e-02 1.50540516e-01 2.53064871e-01
      1.09572761e-01 4.55699638e-02 -1.16218984e-01 4.64456864e-02</_>
    <_>
      -4.19923872e-01 4.29197580e-01 1.39284596e-01 8.57160166e-02
      -7.41661131e-01 1.86622992e-01 -1.61975586e+00 -7.75159419e-01
      -5.80277383e-01 -7.82802999e-01 -5.58204293e-01 9.89800155e-01
      4.33539413e-02 4.54293966e-01 3.63115609e-01 7.73323655e-01</_>
    <_>
      -4.22977567e-01 -2.41031405e-02 1.16909266e-01 2.87265271e-01
      -2.14845926e-01 1.19478807e-01 -7.57672668e-01 -5.27179003e-01
      8.39728832e-01 -1.77878737e-01 -1.04201412e+00 4.95135814e-01
      -5.01790047e-01 9.19128120e-01 9.24921632e-01 7.68819809e-01</_>
    <_>
      -3.20901036e-01 5.41012466e-01 -2.49057442e-01 -2.78158516e-01
      -1.01847425e-01 2.59922504e-01 -5.73762357e-01 -4.95898515e-01
      1.26894224e+00 -3.21042001e-01 -3.68182898e-01 7.92909682e-01
      -3.41569155e-01 -2.07052231e-01 8.87010396e-02 1.93387687e-01</_>
    <_>
      -1.38136625e-01 2.69043475e-01 -6.88927025e-02 8.90749693e-02
      -3.31598967e-01 7.52312765e-02 -2.67937481e-01 -2.95194566e-01
      6.03515983e-01 2.19669659e-02 -1.48425475e-01 4.58289742e-01
      -4.76816386e-01 5.78129813e-02 2.57257909e-01 4.97864038e-02</_>
    <_>
      2.07922440e-02 1.38262346e-01 -2.11742863e-01 -1.35043077e-02
      2.70618111e-01 -2.15744954e-02 -2.88250506e-01 1.99236572e-01
      -1.35780862e-02 -7.47364759e-02 -1.17584832e-01 2.86433518e-01
      1.07604183e-01 1.35887370e-01 -3.62482220e-02 1.01111561e-01</_>
    <_>
      -1.80169448e-01 2.70345449e-01 -1.50145078e-02 -1.93443373e-01
      -1.80318743e-01 -3.37159038e-01 -4.03764397e-02 -3.88960570e-01
      4.25050080e-01 -1.90517217e-01 -1.01234496e+00 5.72945476e-01
      1.30622223e-01 -7.44271129e-02 2.36885518e-01 4.41424608e-01</_>
    <_>
      -1.29489154e-01 1.67836919e-01 1.01212673e-01 7.47951621e-04
      1.34463713e-01 -1.01866996e+00 -5.02468467e-01 -3.26002449e-01
      -9.99457121e-01 -9.02522087e-01 5.13770521e-01 8.64674926e-01
      3.07293147e-01 -4.09538656e-01 -9.27077115e-01 8.14669669e-01</_>
    <_>
      -1.82836801e-01 1.03868343e-01 -2.65209824e-02 -3.40064257e-01
      1.68832749e-01 2.97780424e-01 -3.21881682e-01 7.14327535e-03
      2.68751115e-01 -1.91096235e-02 4.25317079e-01 5.32058895e-01
      5.17261386e-01 -1.41248271e-01 3.01974290e-03 3.23503315e-01</_>
    <_>
      -1.19056135e-01 1.46625757e-01 1.51625007e-01 -1.12638801e-01
      2.41515506e-02 3.16178948e-02 -6.30580187e-02 1.14703156e-01
      -1.95438303e-02 3.13404575e-02 -6.05765656e-02 3.16021405e-02
      2.88318619e-02 -1.73765227e-01 -1.57089457e-01 -2.82027796e-02</_>
    <_>
      -1.14126539e+00 5.08069754e-01 7.55398095e-01 -1.12864494e+00
      6.03915453e-01 2.69114077e-01 4.76972312e-01 3.12549114e-01
      -3.56549248e-02 -1.94251567e-01 -3.32092255e-01 9.08763170e-01
      7.13638306e-01 -1.01214312e-01 -6.13052249e-01 -3.24973285e-01</_>
    <_>
      -2.70269901e-01 1.06683278e+00 1.80566341e-01 -1.53571665e+00
      4.74261820e-01 -6.66603565e-01 8.79233539e-01 4.90579121e-02
      3.26751769e-01 4.49108221e-02 -3.35239053e-01 3.43493484e-02
      9.70969081e-01 -1.97702065e-01 -1.15886903e+00 -2.17899363e-02</_>
    <_>
      -6.25697672e-01 6.50934219e-01 1.63153455e-01 -9.96153593e-01
      4.73980457e-01 1.75503850e-01 1.06571741e-01 5.22847354e-01
      -2.28490800e-01 -2.73273915e-01 2.41238534e-01 1.23069771e-01
      6.69770658e-01 6.32412285e-02 -8.67166400e-01 -5.17293550e-02</_>
    <_>
      -2.81070173e-01 -1.18967317e-01 1.01388827e-01 -3.47022410e-03
      2.35056534e-01 -2.46585742e-01 -1.17824506e-02 3.50895941e-01
      -2.09327534e-01 -8.68491158e-02 -9.59646478e-02 2.23630309e-01
      6.67980134e-01 -1.23047203e-01 -4.77160543e-01 -1.29334554e-01</_>
    <_>
      -3.28750610e-01 4.63189594e-02 4.85290527e-01 -5.30519128e-01
      2.03797743e-01 -1.11612365e-01 -3.74161489e-02 9.93799984e-01
      -1.13658249e+00 5.11831582e-01 -2.70916581e-01 1.65697992e-01
      8.03456068e-01 -1.90880314e-01 -3.63803059e-01 2.37169683e-01</_>
    <_>
      -1.63228020e-01 -5.45843989e-02 3.66705954e-01 -2.87991971e-01
      -2.08050222e-03 -9.80363116e-02 1.53426975e-01 2.08351344e-01
      -3.22304964e-01 1.76807120e-01 -1.58133283e-01 -2.29119547e-02
      1.21181607e-01 -1.71689883e-01 -4.57767807e-02 2.01570000e-02</_>
    <_>
      -7.00590611e-01 7.28989601e-01 9.54135120e-01 -1.10920072e+00
      2.19121486e-01 -3.29726607e-01 7.47640073e-01 9.85278845e-01
      1.75312251e-01 -3.34464073e-01 -9.62905169e-01 9.46217120e-01
      4.56212431e-01 -9.88690078e-01 -8.81833732e-01 -8.63194913e-02</_>
    <_>
      2.08309898e-03 5.21054715e-02 1.83976471e-01 -1.15618862e-01
      9.21405777e-02 -3.87502387e-02 1.03721768e-01 2.05585867e-01
      1.70780748e-01 5.74611239e-02 -2.53291637e-01 1.39057085e-01
      8.86091962e-02 -2.05014452e-01 -1.25172883e-01 -7.48576224e-02</_>
    <_>
      -2.95833409e-01 2.40751281e-01 4.81988564e-02 -5.01615047e-01
      7.56380081e-01 -3.38591705e-03 -8.83764550e-02 3.70320648e-01
      -3.62901568e-01 1.76835712e-02 3.59737985e-02 -1.74609765e-01
      4.84197259e-01 -3.56145054e-02 -4.96577770e-01 -4.95318584e-02</_>
    <_>
      -5.74295938e-01 1.30477622e-01 9.54421282e-01 -7.61361361e-01
      4.39985722e-01 -6.99912906e-01 1.00356388e+00 2.24793792e-01
      -3.09218854e-01 -1.20951369e-01 -7.90327847e-01 2.85341620e-01
      4.13409561e-01 -9.64262843e-01 -3.70401770e-01 4.68606561e-01</_>
    <_>
      -2.92591173e-02 2.64489707e-02 2.97609922e-02 -1.78722888e-01
      1.65504336e-01 -1.02486454e-01 -3.09263729e-02 1.87081262e-01
      -2.12763190e-01 -4.17462848e-02 1.37267888e-01 1.01302959e-01
      4.20037091e-01 1.19532123e-02 -2.62969017e-01 1.56834111e-01</_>
    <_>
      -5.51964231e-02 1.98462203e-01 1.82710171e-01 -1.08041219e-01
      5.19276671e-02 -2.39302754e-01 2.95413733e-01 -1.77181121e-02
      2.77598435e-03 -1.40829161e-01 -2.22550541e-01 -2.98043877e-01
      1.27335176e-01 3.11519504e-02 -3.87502134e-01 -4.22385216e-01</_>
    <_>
      -8.12821031e-01 5.32487690e-01 5.11490285e-01 -7.45004117e-01
      3.53038579e-01 3.30800153e-02 6.97822273e-01 3.56044859e-01
      6.55864239e-01 -4.28280860e-01 -5.85948408e-01 5.35214841e-01
      1.00294065e+00 -6.75844252e-01 -9.90399778e-01 -8.16605031e-01</_>
    <_>
      -1.16183758e-01 5.06629825e-01 1.70524463e-01 -7.26212442e-01
      6.11060560e-02 -4.97306257e-01 6.35672629e-01 3.66495810e-02
      3.19198728e-01 9.47751850e-03 -2.44761392e-01 -5.00640094e-01
      7.60737836e-01 9.82495919e-02 -7.67310321e-01 -1.70940802e-01</_>
    <_>
      4.63965572e-02 4.81784374e-01 3.85139257e-01 -4.13138360e-01
      1.11698195e-01 -2.69562393e-01 3.93136859e-01 3.07410628e-01
      -4.33961600e-01 -3.16916198e-01 3.29718411e-01 -8.13967705e-01
      2.28651926e-01 3.86326075e-01 -1.03801990e+00 -5.75865030e-01</_>
    <_>
      -1.98614329e-01 -3.29061225e-02 7.47580379e-02 -8.47952589e-02
      3.21009696e-01 -1.56952426e-01 -8.33565816e-02 3.23343545e-01
      -4.46342938e-02 -2.32800320e-01 -9.83310714e-02 2.47513372e-02
      6.69271529e-01 -7.96960592e-02 -6.17416382e-01 -1.76015928e-01</_>
    <_>
      -3.95823792e-02 4.03097123e-01 9.76304889e-01 -4.26651090e-01
      -2.80962318e-01 2.40404859e-01 -1.11017478e+00 1.73012197e-01
      -1.47240770e+00 -1.65661216e-01 -5.01763999e-01 -3.75673056e-01
      9.26759660e-01 -4.43697125e-01 -1.27920330e+00 -5.18154323e-01</_>
    <_>
      -1.02769531e-01 9.14722681e-03 2.96860129e-01 -7.88028240e-02
      -1.19161770e-01 -1.92325696e-01 4.66742486e-01 3.91335078e-02
      -4.89990771e-01 1.18350089e-01 -4.04279500e-01 -3.66155326e-01
      -3.87497209e-02 1.87856883e-01 -1.78517625e-02 -2.00794246e-02</_>
    <_>
      -3.97383988e-01 3.14188898e-01 3.26864809e-01 -4.29780751e-01
      1.61759853e-01 -3.04622173e-01 1.15217738e-01 1.83682874e-01
      2.99852014e-01 -3.72570120e-02 -4.70253438e-01 1.75321162e-01
      1.82103589e-01 -2.39672422e-01 -7.00230122e-01 -3.77065271e-01</_>
    <_>
      -2.94068724e-01 4.60696109e-02 3.37533683e-01 2.52123296e-01
      -2.38195077e-01 -2.49452963e-01 3.32879536e-02 1.37926087e-01
      3.21885794e-01 8.11408758e-02 -3.75419974e-01 1.04334511e-01
      -5.06536782e-01 -3.31026375e-01 -1.29520938e-01 -1.92850038e-01</_>
    <_>
      -4.59053010e-01 1.43317923e-01 1.14741445e-01 -3.39113235e-01
      6.97130740e-01 1.19484188e-02 1.61835596e-01 4.64590311e-01
      2.81924307e-02 -2.11745918e-01 -1.26279160e-01 -7.78995380e-02
      6.88590646e-01 -1.70744017e-01 -8.71240854e-01 -2.59820729e-01</_>
    <_>
      -7.72132218e-01 2.43490845e-01 9.94605303e-01 -4.66765732e-01
      -2.81939507e-01 -6.97730601e-01 7.52657413e-01 -3.73118371e-01
      -2.50549257e-01 -1.57184407e-01 -1.74790668e+00 2.42180586e-01
      9.20247972e-01 -1.05764151e-01 -4.88139629e-01 4.98778880e-01</_>
    <_>
      -1.32490411e-01 -4.18023281e-02 1.15324020e-01 -1.20602906e-01
      2.53918678e-01 -7.05868155e-02 -1.62500232e-01 1.30086809e-01
      3.18871252e-02 -1.22355051e-01 1.04891501e-01 -1.00133359e-01
      6.04452372e-01 1.00823179e-01 -5.09256005e-01 5.13337888e-02</_>
    <_>
      2.83943787e-02 2.43698537e-01 -1.11279346e-01 -1.82593659e-01
      8.76983907e-03 5.11089787e-02 6.66580573e-02 1.28442347e-01
      2.14919731e-01 -1.22100692e-02 -7.37298429e-02 1.89782366e-01
      1.68137744e-01 -2.10002959e-01 -2.26652905e-01 1.68593988e-01</_>
    <_>
      -1.13747008e-01 4.33595292e-02 1.18051134e-01 -2.21877977e-01
      -6.22649714e-02 -2.78809369e-01 1.59307986e-01 1.25260293e-01
      9.22596976e-02 3.78493965e-01 -6.39817044e-02 -1.42637551e-01
      3.23387146e-01 -1.71777681e-02 -3.07497025e-01 -9.91204455e-02</_>
    <_>
      1.78264633e-01 6.10169768e-02 6.95043057e-02 4.91585620e-02
      -1.78513974e-02 4.08346672e-03 -2.68353462e-01 8.82321671e-02
      -1.07424624e-01 2.81799845e-02 1.27016842e-01 -8.87715444e-03
      6.29046857e-02 2.22020254e-01 -2.46420130e-01 -1.88831463e-02</_>
    <_>
      4.39952940e-01 -8.11301410e-01 -2.91772842e-01 8.94014478e-01
      1.21566914e-01 -5.61753988e-01 4.36305135e-01 1.27126777e+00
      -2.07064435e-01 -3.26472342e-01 -1.04236984e+00 4.67972398e-01
      1.51796496e+00 6.01857364e-01 -1.56138861e+00 -5.51457584e-01</_>
    <_>
      4.66413885e-01 -9.31285247e-02 -1.95103750e-01 4.34041470e-01
      -6.28385842e-01 1.84875764e-02 -6.64798439e-01 1.26882005e+00
      -9.80819345e-01 2.29695052e-01 -4.53086972e-01 1.51435792e-01
      9.47887719e-01 -8.94377291e-01 -9.33450460e-01 3.86561304e-02</_>
    <_>
      1.98372453e-01 -2.84143984e-01 5.45693971e-02 4.36641306e-01
      -6.65176868e-01 4.02952194e-01 4.62144434e-01 3.53386015e-01
      -5.95915675e-01 5.42465806e-01 -5.47614336e-01 -2.04295218e-01
      -1.54531568e-01 -1.60477206e-01 6.53799236e-01 6.68473780e-01</_>
    <_>
      1.71533123e-01 3.11772525e-01 -6.85144216e-02 -3.28716427e-01
      5.70091419e-02 -7.49974623e-02 7.19200969e-01 1.55821633e+00
      -2.27316886e-01 1.24755248e-01 -1.49419880e+00 8.82212937e-01
      1.10070981e-01 -7.83615530e-01 -7.07924902e-01 2.66180009e-01</_>
    <_>
      6.04227856e-02 3.16250294e-01 -1.96628943e-01 -2.18383133e-01
      -2.14289770e-01 3.98647457e-01 3.22886378e-01 4.86373454e-01
      -2.42388006e-02 2.92690873e-01 -7.47558296e-01 5.17353535e-01
      -1.98666707e-01 -9.25409794e-02 5.60339838e-02 1.97252184e-01</_>
    <_>
      2.55593479e-01 5.11284359e-02 -8.31557155e-01 -4.79864955e-01
      1.29542577e+00 -3.32375377e-01 -4.90001559e-01 1.52006078e+00
      1.76867440e-01 7.37000927e-02 -6.67080879e-01 2.32474785e-02
      2.94439554e-01 2.60528505e-01 -5.03659666e-01 -3.20531964e-01</_>
    <_>
      -1.18071763e-02 2.70495772e-01 -2.14842200e-01 9.37826708e-02
      -2.44205669e-01 -3.41792971e-01 5.40725112e-01 6.83872223e-01
      -7.69106075e-02 -1.92763600e-02 -9.67931926e-01 7.19626188e-01
      6.12426288e-02 -5.02786160e-01 -2.28831545e-01 5.45048594e-01</_>
    <_>
      2.70423412e-01 -2.24639159e-02 4.43011336e-02 -6.31355345e-02
      -3.98492860e-03 -6.22589886e-01 -1.85483575e-01 4.68851000e-01
      -4.33910102e-01 -1.21946625e-01 -5.70071526e-02 2.30736136e-01
      5.08207619e-01 5.79205602e-02 -6.14789426e-01 1.32199526e-01</_>
    <_>
      3.67184952e-02 2.77638048e-01 1.40130043e-01 -1.47174165e-01
      3.00924659e-01 -3.74729753e-01 2.67178677e-02 -4.57589887e-02
      -4.66162749e-02 1.58294216e-01 9.85894129e-02 -2.61118233e-01
      1.20658828e-02 3.35615695e-01 -6.35550544e-02 -2.03740522e-02</_>
    <_>
      5.37133813e-01 -2.68166959e-01 4.16271985e-01 5.06823123e-01
      -4.91814226e-01 -4.59361017e-01 -1.09810686e+00 -1.45785719e-01
      -8.69514465e-01 7.96695411e-01 1.70488894e+00 -5.90285063e-01
      -4.54588413e-01 1.03728628e+00 -3.73940289e-01 1.40140951e-01</_>
    <_>
      4.26851101e-02 -1.75730690e-01 2.18849435e-01 5.07072769e-02
      4.47647899e-01 -4.01346058e-01 -1.01663530e-01 4.76757944e-01
      -7.57969916e-02 -2.49312207e-01 -1.50736645e-01 -7.89022446e-01
      2.62356550e-01 4.13352877e-01 -5.97030580e-01 2.45128617e-01</_>
    <_>
      -3.43934953e-01 -3.93557578e-01 3.21829855e-01 6.38646781e-01
      -1.16331220e-01 -3.82017702e-01 -5.55208087e-01 -2.04472214e-01
      -1.11568260e+00 2.78686136e-01 -2.79512048e-01 -8.92266691e-01
      -1.62605226e-01 -2.08105132e-01 3.78737181e-01 4.75909144e-01</_>
    <_>
      2.16129646e-01 -5.60435712e-01 -1.01120695e-01 8.52065921e-01
      -3.02994192e-01 -2.11693615e-01 -4.89649802e-01 -2.46401921e-01
      -4.81882721e-01 4.38307732e-01 -1.16068430e-01 -7.46643245e-01
      -5.70003569e-01 1.62700698e-01 9.35860157e-01 3.80744308e-01</_>
    <_>
      7.03389496e-02 -3.84281546e-01 -1.15301065e-01 7.58032501e-01
      -2.47969374e-01 2.54599527e-02 -1.52991325e-01 -1.32315487e-01
      -6.74240664e-02 3.23342919e-01 -3.47825348e-01 -5.22482157e-01
      -6.58154488e-01 2.52000578e-02 3.27176422e-01 -6.39842227e-02</_>
    <_>
      3.66708338e-01 -7.77836680e-01 -1.81242362e-01 1.30744159e+00
      -4.27845299e-01 3.86213630e-01 -5.94084561e-01 -4.12037760e-01
      4.33213711e-01 9.34930384e-01 -4.84205455e-01 -5.26346087e-01
      -1.01373112e+00 3.16543207e-02 4.48807210e-01 8.54330808e-02</_>
    <_>
      -3.84749532e-01 -1.84900105e-01 -6.58512175e-01 2.55814195e-01
      1.64171851e+00 -4.81569231e-01 -4.67238247e-01 1.62935698e+00
      -4.69777286e-01 1.11020041e+00 4.21673805e-01 -1.31133080e+00
      4.13955867e-01 2.39357889e-01 -4.46604788e-01 4.07579631e-01</_>
    <_>
      -3.47243965e-01 -1.51704088e-01 3.27852249e-01 4.11470272e-02
      1.16657525e-01 -2.39409178e-01 1.58056229e-01 -1.22981332e-01
      -1.65831879e-01 -2.03998283e-01 -6.56575441e-01 -4.89926368e-01
      6.58482686e-02 -2.94503719e-01 -6.11168779e-02 1.64995790e-01</_>
    <_>
      -8.66578135e-04 8.10977221e-02 1.48382306e-01 -2.51183599e-01
      1.35774404e-01 -1.27818987e-01 4.35301289e-02 3.31721634e-01
      -4.99017179e-01 4.31342907e-02 3.00452560e-01 -5.63035727e-01
      4.50291097e-01 2.40027487e-01 -4.57268476e-01 4.65079367e-01</_>
    <_>
      1.38817012e-01 -3.33572954e-01 -4.45474498e-02 3.86739910e-01
      -1.57904431e-01 4.95395660e-01 -7.56589413e-01 1.22766532e-01
      7.46770250e-03 -9.39385742e-02 3.40079308e-01 4.44085389e-01
      -4.06950295e-01 1.93962902e-01 2.49618515e-01 -2.26597771e-01</_>
    <_>
      6.06249534e-02 -2.58250684e-02 -2.21917126e-02 -1.32629097e-01
      -7.83309788e-02 1.07211340e-02 -5.73159233e-02 -6.54265732e-02
      1.65331978e-02 7.09946230e-02 -5.14041120e-03 1.44090325e-01
      1.49805650e-01 1.07169479e-01 -5.30609228e-02 1.07517704e-01</_>
    <_>
      2.88974047e-01 -6.53521836e-01 3.58482413e-02 1.18550098e+00
      -8.18798959e-01 4.12979573e-01 -5.00142217e-01 3.66077423e-02
      -1.26886809e+00 1.56739369e-01 -8.25480640e-01 5.55481315e-01
      -1.38872340e-01 -3.88194412e-01 4.79545176e-01 6.35221958e-01</_>
    <_>
      2.48061463e-01 -7.43242800e-01 -1.02259360e-01 9.86133873e-01
      -4.39832330e-01 2.94678748e-01 -4.28347111e-01 -3.02268367e-04
      -7.80469537e-01 -6.37778044e-02 -3.69040966e-01 -3.52775961e-01
      -7.59491324e-01 1.02241114e-01 1.18672466e+00 6.27808630e-01</_>
    <_>
      6.67396903e-01 -6.86047614e-01 -1.77410141e-01 9.84161735e-01
      -4.18846816e-01 6.93063676e-01 -4.34137493e-01 5.30328274e-01
      -6.87065542e-01 -4.20835316e-02 -7.96485722e-01 8.01642299e-01
      -1.02448368e+00 -4.99951124e-01 5.00690579e-01 3.37881774e-01</_>
    <_>
      -6.51244298e-02 -8.38993788e-01 -1.27365351e-01 1.21194816e+00
      -2.33060747e-01 9.17809963e-01 -4.76874948e-01 3.32820892e-01
      -9.44781676e-02 -1.54667385e-02 -5.01172543e-01 1.52600572e-01
      -9.92840052e-01 -1.68170556e-01 6.71955287e-01 6.63320795e-02</_>
    <_>
      2.12488815e-01 -4.86549474e-02 -4.17171210e-01 1.31178364e-01
      3.40256959e-01 1.20448321e-01 -2.86459178e-01 5.07610738e-01
      7.32914312e-03 1.06735013e-01 1.75954878e-01 1.80720747e-01
      -2.20113501e-01 -7.64946360e-03 -6.31508678e-02 -3.37387547e-02</_>
    <_>
      6.63255811e-01 -7.59155303e-02 -1.85934514e-01 3.45271766e-01
      -5.75395942e-01 -7.46971905e-01 5.26934147e-01 1.06974089e+00
      -4.89361763e-01 2.39216581e-01 -1.37348974e+00 1.52242362e+00
      -3.05319782e-02 -1.04313123e+00 -1.54240206e-01 7.80062258e-01</_>
    <_>
      4.05556947e-01 2.12462664e-01 -2.23738879e-01 -1.80886984e-01
      -1.19113803e-01 -7.30006993e-01 -1.79285295e-02 2.97411531e-01
      -5.22700846e-01 -3.50766808e-01 -1.81411266e-01 7.48473257e-02
      7.48365581e-01 -6.19205199e-02 -3.84873599e-01 6.60647035e-01</_>
    <_>
      -5.04499614e-01 1.41020298e-01 3.77408355e-01 -2.22699091e-01
      4.56351519e-01 2.75507476e-02 5.41486144e-01 3.93409699e-01
      -3.44014227e-01 -6.72151625e-01 -4.23327908e-02 -2.06937999e-01
      1.48178542e+00 -6.23916328e-01 -1.60376823e+00 1.75727502e-01</_>
    <_>
      -2.84534395e-01 -2.00067639e-01 8.86645973e-01 4.95600641e-01
      -4.88937646e-01 -4.47637141e-02 -2.91638047e-01 -4.80762899e-01
      -1.68096673e+00 -9.53507185e-01 -1.79642963e+00 -1.15789080e+00
      -9.59001184e-02 -2.98842192e-01 4.93876785e-01 5.73545933e-01</_>
    <_>
      2.68903732e-01 -4.60960776e-01 1.28166676e-01 5.61017692e-01
      -3.51210535e-01 -3.61701071e-01 -7.01029673e-02 -5.47606587e-01
      -3.29791427e-01 8.96837413e-02 -9.87166166e-01 -9.49872434e-01
      -9.48911607e-01 4.03333038e-01 1.47881138e+00 5.66271305e-01</_>
    <_>
      -5.17261267e-01 4.89898920e-01 6.53868079e-01 -1.72161460e-01
      -2.01361150e-01 -1.81350648e-01 9.89100859e-02 -6.84936404e-01
      -4.75428216e-02 -6.84137881e-01 -1.82232797e+00 3.95163111e-02
      -4.64098513e-01 -6.07182384e-01 -6.08091541e-02 3.90804224e-02</_>
    <_>
      -4.74033117e-01 8.64171386e-01 3.58867735e-01 5.48410676e-02
      -8.50380898e-01 1.90598667e-01 -1.80761054e-01 -1.03127992e+00
      6.16124332e-01 2.98571169e-01 -1.53763032e+00 2.59587318e-01
      -1.42725706e+00 -1.42788723e-01 7.64463782e-01 1.14330232e-01</_>
    <_>
      -2.72596013e-02 -1.08146265e-01 -3.30213100e-01 -3.55812073e-01
      5.99452615e-01 -3.04376662e-01 2.94195712e-01 3.72469723e-01
      -1.50114104e-01 1.19635640e-02 -3.77723575e-01 -1.64279774e-01
      4.08004582e-01 -9.18665156e-02 -2.25389645e-01 2.97293603e-01</_>
    <_>
      -2.00213104e-01 2.40588993e-01 -8.52993503e-03 -6.12058580e-01
      2.32022852e-01 -2.48832032e-01 4.36098099e-01 -1.08029276e-01
      2.63829142e-01 -8.91481712e-02 -9.61812139e-01 1.02440588e-01
      3.35951686e-01 -2.27134302e-01 1.49158016e-01 4.66452152e-01</_>
    <_>
      -1.00737266e-01 2.29560941e-01 1.01815194e-01 -2.98705965e-01
      1.14655308e-01 -5.28537571e-01 2.31018767e-01 -1.00281261e-01
      -6.27083540e-01 -3.80325139e-01 1.03642516e-01 -2.99514562e-01
      6.71057880e-01 -3.40393275e-01 -6.65734947e-01 7.14028358e-01</_>
    <_>
      -3.42629761e-01 -1.26775891e-01 3.67100149e-01 2.15880886e-01
      -7.15419091e-03 3.30928937e-02 -2.85340667e-01 -9.34655219e-02
      -3.72183740e-01 6.67338893e-02 1.46861061e-01 2.54529901e-02
      -2.73422331e-01 -4.18783985e-02 2.16513604e-01 2.13019066e-02</_>
    <_>
      5.98874837e-02 6.57886267e-02 8.79748166e-02 5.01702949e-02
      -1.88802823e-01 2.05920950e-01 1.34091631e-01 -4.87251580e-01
      -1.32256910e-01 1.65812939e-01 -3.54453400e-02 2.68548895e-02
      -6.55458152e-01 6.73096720e-03 6.88398778e-01 5.75975925e-02</_>
    <_>
      -1.24543503e-01 -7.66472844e-03 3.85528922e-01 -1.62047938e-01
      -2.28557631e-01 1.87175989e-01 -3.60438377e-01 -2.36023054e-01
      3.49382222e-01 4.59434837e-01 -6.40886799e-02 7.24777579e-02
      -1.12460387e+00 2.53906529e-02 7.81089425e-01 1.12889454e-01</_>
    <_>
      -1.97049268e-02 9.24417228e-02 2.32821535e-02 3.41418036e-03
      -1.52321592e-01 1.81114122e-01 -2.31095869e-02 -1.87467203e-01
      1.52976826e-01 1.10896461e-01 3.68112326e-02 -5.48142679e-02
      -3.82040411e-01 6.00977764e-02 3.05988789e-01 3.39292325e-02</_>
    <_>
      3.32536586e-02 -4.39689644e-02 -1.09559476e-01 6.17621373e-03
      7.84804150e-02 3.26983705e-02 -2.71282289e-02 1.74447790e-01
      -5.13135120e-02 9.93645564e-02 -1.80663075e-02 1.71174966e-02
      -2.84272909e-01 1.44290933e-02 1.33829400e-01 3.29157128e-03</_>
    <_>
      -2.02478722e-01 2.09864125e-01 -2.64296401e-03 -4.85696733e-01
      1.83139622e-01 4.11531627e-02 2.01610625e-01 -7.07377642e-02
      3.74280959e-01 1.13788402e+00 -1.24007022e+00 1.10039365e+00
      -7.54363000e-01 -3.58446568e-01 6.85147405e-01 3.15052003e-01</_>
    <_>
      -4.19116654e-02 -9.46717635e-02 -7.55728316e-03 -9.12363231e-02
      -1.10945620e-01 -1.00933954e-01 -7.09500983e-02 8.20047557e-02
      -8.35762173e-02 -1.03068799e-01 1.00329621e-02 5.87853463e-03
      -1.99681576e-02 5.40836016e-04 -3.93113904e-02 8.94854888e-02</_>
    <_>
      5.05540036e-02 1.22306138e-01 -1.33764088e-01 -1.06476754e-01
      1.42430484e-01 -8.14808309e-02 5.37231147e-01 -8.76690865e-01
      2.91124046e-01 -2.03391269e-01 -4.75732908e-02 -2.82140881e-01
      -1.19079733e+00 5.54140151e-01 1.31462729e+00 3.71657282e-01</_>
    <_>
      -3.47954452e-01 3.60665500e-01 -3.87097925e-01 -6.41488135e-01
      7.87261724e-01 -4.88512814e-01 2.47515649e-01 2.63208181e-01
      1.89018834e+00 -4.62231040e-01 -4.65914398e-01 8.61195475e-02
      -1.08376014e+00 -1.61151007e-01 -2.51299530e-01 -5.67281783e-01</_>
    <_>
      1.85365811e-01 3.57132524e-01 -1.61634117e-01 -1.25231007e-02
      -4.90646809e-01 -3.98137346e-02 -1.92068908e-02 -3.37171823e-01
      7.73594975e-01 -1.19715273e-01 -3.24182719e-01 1.67166635e-01
      -8.25442433e-01 -1.30028859e-01 3.97414118e-01 -1.68555051e-01</_>
    <_>
      3.72098312e-02 -5.74418195e-02 -4.28998083e-01 2.38509309e-02
      3.44778895e-01 1.96411580e-01 4.88467962e-01 3.99395645e-01
      1.64568976e-01 3.77501398e-02 -1.08742416e-01 3.16252932e-02
      -5.02703674e-02 4.80753779e-02 -1.59782872e-01 -2.19314307e-01</_>
    <_>
      2.30405796e-02 8.44052508e-02 -2.29502082e-01 -1.19834021e-01
      8.18467736e-02 1.79358833e-02 2.22958133e-01 9.33066159e-02
      2.25500807e-01 8.64848271e-02 -1.96660936e-01 1.64591044e-01
      -1.71633121e-02 -8.20159763e-02 -1.10598862e-01 1.05381966e-01</_>
    <_>
      2.46274382e-01 -4.46860045e-02 -1.68936238e-01 -7.05041364e-02
      1.00068919e-01 -1.33843690e-01 5.65677099e-02 9.44849029e-02
      8.73688012e-02 -1.56130254e-01 4.98389006e-02 -3.97709981e-02
      2.71044791e-01 7.18439445e-02 -4.32623625e-01 4.31133844e-02</_>
    <_>
      -3.92851919e-01 3.69696230e-01 -6.63755774e-01 -4.87388879e-01
      6.25375152e-01 -3.40013504e-01 -9.45084542e-02 2.33610407e-01
      1.44078088e+00 -4.00348276e-01 -1.96140468e-01 2.84109861e-01
      4.72094268e-01 -6.51696742e-01 -1.09024191e+00 -1.80332258e-01</_>
    <_>
      -8.47911537e-01 3.01425278e-01 -2.70941585e-01 -2.20811605e-01
      2.06712320e-01 1.81626052e-01 -1.25793970e+00 -5.90516746e-01
      2.11514759e+00 -1.17170826e-01 3.47906798e-01 7.53167212e-01
      -2.01980248e-01 -5.84291101e-01 -3.71381581e-01 -2.81457026e-02</_>
    <_>
      -1.41587242e-01 -1.86998203e-01 -3.20805997e-01 6.29307283e-03
      9.36177373e-01 -9.00345575e-03 -6.41878486e-01 1.14181376e+00
      7.13720441e-01 -3.49525303e-01 1.98330045e-01 -9.93734226e-03
      9.06430602e-01 1.25611320e-01 -1.50088120e+00 -1.34341344e-01</_>
    <_>
      8.27477500e-02 2.36586407e-01 -2.92753160e-01 -4.09877062e-01
      2.50274569e-01 -7.16818571e-01 1.24374911e-01 5.36282301e-01
      4.66927767e-01 -4.11291718e-01 -5.18876314e-01 3.33181977e-01
      3.13069314e-01 -5.39825559e-01 -4.71308112e-01 2.61611968e-01</_>
    <_>
      -1.30217550e-02 -1.04329318e-01 1.53764442e-01 -1.63866635e-02
      1.01962790e-01 -1.60149410e-01 -1.85692862e-01 2.99224108e-01
      -3.51937041e-02 -8.89770836e-02 1.38072222e-01 2.17795335e-02
      4.26222444e-01 1.96407381e-02 -4.46960628e-01 -4.44692224e-02</_>
    <_>
      -2.52329912e-02 5.48235886e-02 1.96215123e-01 3.32542092e-01
      -2.36603156e-01 3.73197436e-01 -2.52527505e-01 -2.99717873e-01
      1.47347018e-01 3.19879711e-01 3.78350437e-01 1.32382303e-01
      -6.42066777e-01 1.73329979e-01 7.03213394e-01 5.78573905e-04</_>
    <_>
      -3.20369899e-01 6.68841675e-02 -1.43950611e-01 -1.85166135e-01
      8.84557724e-01 -9.09029022e-02 6.86299384e-01 4.99482155e-01
      -5.88001728e-01 -1.86821729e-01 3.23210239e-01 -4.92771953e-01
      9.57971692e-01 -5.20825572e-02 -6.28525138e-01 -1.57900766e-01</_>
    <_>
      -2.94480473e-02 -1.10642286e-02 5.44518465e-03 -1.28850117e-01
      -3.41589339e-02 3.78420088e-03 8.26342851e-02 -2.36610267e-02
      -1.63934974e-03 -1.23419492e-02 3.03113554e-02 -1.35956937e-02
      1.53243214e-01 -7.84751847e-02 -4.31261249e-02 1.45785406e-01</_>
    <_>
      5.51874004e-02 -9.24657509e-02 -8.94839764e-02 -6.33464307e-02
      1.65228754e-01 -3.18621285e-03 -3.40459906e-02 9.05004740e-02
      -1.80127040e-01 -7.29529411e-02 2.45457798e-01 -1.53199993e-02
      6.30558848e-01 1.13817424e-01 -2.79520571e-01 1.65782318e-01</_>
    <_>
      -1.21331170e-01 3.34935449e-02 -9.96581614e-02 -1.25117123e-01
      4.18314070e-01 -9.50754900e-03 1.45875409e-01 8.87836963e-02
      -2.92573184e-01 -1.60499364e-01 1.63430974e-01 -1.11941174e-01
      4.80105877e-01 -4.24355417e-02 -3.04767996e-01 5.28248847e-02</_>
    <_>
      -2.83994973e-01 3.61557454e-01 9.66790020e-01 -1.11826241e+00
      3.52717340e-01 -4.83156592e-01 7.37299204e-01 -5.73450439e-02
      -9.78259981e-01 -2.96332419e-01 -9.97083068e-01 2.35761717e-01
      5.58961987e-01 -4.74598408e-01 -3.96059513e-01 4.20862049e-01</_>
    <_>
      1.52526395e-02 -5.36928773e-02 -9.86990752e-04 -6.03767373e-02
      1.15409784e-01 -3.64662223e-02 -2.64169890e-02 6.93415701e-02
      -1.32847086e-01 -5.48861586e-02 1.29785717e-01 7.09162876e-02
      2.84200132e-01 5.34199774e-02 -1.69544831e-01 7.96747059e-02</_>
    <_>
      -5.85372925e-01 4.61067855e-01 8.32731128e-01 -6.01051152e-01
      -7.50485003e-01 -6.87960684e-01 3.91439378e-01 -4.87659544e-01
      3.72142166e-01 7.78789222e-01 -1.59431279e+00 1.08546066e+00
      4.42170620e-01 -3.81168604e-01 7.27533400e-01 8.01149726e-01</_>
    <_>
      -6.05610549e-01 2.14038223e-01 9.06982899e-01 -4.44554687e-01
      1.84676319e-01 -3.03339660e-01 1.44616872e-01 -1.21991169e+00
      -4.38342482e-01 -1.30741167e+00 4.03941184e-01 -1.39016449e-01
      1.52694738e+00 -1.79882318e-01 -1.28749466e+00 7.64540553e-01</_>
    <_>
      9.64236110e-02 2.54239962e-02 3.15119103e-02 7.85093457e-02
      5.03911562e-02 1.15373336e-01 -3.05470049e-01 -1.63939849e-01
      -4.78148162e-01 -5.44090807e-01 9.02459323e-01 -3.66870880e-01
      1.18585899e-01 4.10661668e-01 -4.55122709e-01 -2.00657472e-02</_></support_vectors>
  <uncompressed_sv_total>5394</uncompressed_sv_total>
  <uncompressed_support_vectors>
    <_>
      5. 12. 3. 7. 2. 10. 5. 5. 4. 13. 3. 9. 2. 8. 4. 10.</_>
    <_>
      4. 11. 6. 8. 6. 10. 6. 2. 6. 10. 3. 7. 3. 7. 3. 9.</_>
    <_>
      7. 11. 6. 6. 3. 5. 9. 4. 6. 4. 4. 10. 6. 10. 2. 8.</_>
    <_>
      11. 15. 13. 9. 7. 13. 2. 6. 2. 12. 1. 9. 8. 1. 1. 8.</_>
    <_>
      6. 9. 5. 4. 3. 10. 6. 3. 5. 10. 5. 7. 3. 9. 6. 9.</_>
    <_>
      1. 3. 2. 2. 1. 8. 8. 2. 5. 14. 5. 8. 0. 7. 0. 7.</_>
    <_>
      6. 11. 7. 8. 5. 7. 6. 9. 6. 7. 5. 9. 4. 8. 5. 5.</_>
    <_>
      3. 6. 4. 4. 2. 6. 6. 4. 4. 14. 8. 12. 1. 6. 1. 6.</_>
    <_>
      6. 11. 7. 8. 3. 7. 8. 7. 11. 4. 7. 14. 1. 7. 4. 8.</_>
    <_>
      7. 11. 11. 8. 9. 3. 8. 4. 5. 10. 11. 10. 10. 9. 5. 7.</_>
    <_>
      12. 14. 12. 8. 5. 9. 10. 4. 3. 5. 10. 7. 10. 12. 2. 6.</_>
    <_>
      6. 9. 8. 7. 6. 8. 6. 6. 7. 7. 7. 9. 6. 8. 4. 8.</_>
    <_>
      8. 12. 8. 6. 4. 3. 10. 4. 7. 12. 11. 9. 3. 7. 3. 4.</_>
    <_>
      5. 9. 7. 7. 10. 9. 8. 4. 4. 6. 8. 6. 6. 11. 8. 7.</_>
    <_>
      4. 7. 6. 5. 3. 6. 6. 6. 8. 6. 5. 9. 3. 10. 4. 8.</_>
    <_>
      7. 9. 6. 5. 2. 8. 10. 4. 5. 8. 10. 5. 4. 12. 3. 8.</_>
    <_>
      4. 10. 5. 7. 5. 8. 7. 3. 8. 5. 6. 6. 3. 8. 6. 8.</_>
    <_>
      1. 3. 2. 1. 1. 7. 7. 5. 6. 7. 5. 10. 1. 9. 3. 9.</_>
    <_>
      3. 9. 4. 7. 2. 7. 5. 6. 10. 5. 6. 10. 0. 9. 9. 8.</_>
    <_>
      4. 5. 6. 6. 5. 8. 10. 4. 4. 7. 7. 9. 3. 7. 7. 5.</_>
    <_>
      6. 9. 7. 11. 7. 8. 5. 7. 5. 9. 6. 9. 3. 8. 6. 8.</_>
    <_>
      3. 5. 5. 4. 4. 9. 3. 4. 3. 8. 4. 9. 3. 6. 4. 8.</_>
    <_>
      6. 10. 4. 5. 2. 6. 9. 6. 6. 11. 7. 7. 2. 9. 5. 9.</_>
    <_>
      5. 10. 6. 8. 5. 9. 3. 2. 6. 9. 2. 9. 2. 5. 3. 9.</_>
    <_>
      3. 3. 3. 5. 2. 7. 7. 13. 2. 5. 6. 8. 5. 8. 0. 8.</_>
    <_>
      2. 3. 3. 1. 1. 5. 9. 4. 6. 11. 9. 11. 1. 9. 2. 8.</_>
    <_>
      4. 9. 5. 6. 5. 7. 6. 3. 5. 6. 6. 9. 2. 8. 8. 8.</_>
    <_>
      3. 3. 4. 1. 2. 8. 7. 5. 6. 7. 6. 8. 5. 8. 3. 7.</_>
    <_>
      8. 12. 8. 6. 4. 9. 8. 4. 5. 8. 4. 5. 6. 9. 5. 9.</_>
    <_>
      5. 10. 5. 5. 4. 9. 6. 5. 6. 10. 6. 7. 4. 8. 9. 9.</_>
    <_>
      4. 6. 6. 4. 5. 8. 5. 6. 4. 6. 7. 10. 4. 7. 5. 9.</_>
    <_>
      4. 7. 5. 5. 2. 8. 9. 1. 7. 14. 5. 6. 0. 8. 1. 8.</_>
    <_>
      2. 6. 4. 4. 3. 6. 7. 5. 5. 6. 5. 7. 3. 7. 5. 8.</_>
    <_>
      6. 10. 9. 7. 8. 3. 7. 4. 5. 10. 11. 10. 7. 9. 3. 7.</_>
    <_>
      6. 12. 5. 7. 4. 8. 5. 4. 3. 9. 9. 11. 4. 9. 8. 10.</_>
    <_>
      6. 10. 8. 8. 7. 8. 5. 7. 5. 7. 6. 6. 3. 9. 8. 9.</_>
    <_>
      2. 3. 3. 1. 1. 5. 9. 3. 3. 10. 8. 8. 4. 8. 0. 8.</_>
    <_>
      6. 9. 9. 8. 10. 8. 7. 5. 5. 7. 6. 8. 8. 9. 9. 3.</_>
    <_>
      6. 11. 8. 8. 9. 5. 8. 3. 4. 8. 8. 9. 7. 9. 5. 4.</_>
    <_>
      6. 7. 8. 6. 6. 6. 6. 5. 6. 8. 5. 8. 3. 6. 5. 6.</_>
    <_>
      4. 8. 5. 6. 5. 7. 10. 8. 5. 8. 5. 6. 3. 6. 7. 11.</_>
    <_>
      6. 9. 8. 7. 4. 6. 12. 6. 6. 13. 7. 3. 2. 9. 2. 5.</_>
    <_>
      5. 9. 6. 7. 7. 7. 6. 6. 4. 7. 7. 8. 5. 10. 9. 12.</_>
    <_>
      6. 9. 5. 4. 3. 10. 6. 5. 5. 10. 2. 8. 6. 6. 4. 9.</_>
    <_>
      3. 3. 3. 4. 3. 7. 7. 5. 5. 7. 6. 6. 5. 8. 5. 10.</_>
    <_>
      4. 4. 6. 5. 4. 8. 9. 4. 5. 7. 6. 9. 3. 7. 8. 8.</_>
    <_>
      5. 8. 7. 6. 4. 8. 8. 4. 9. 11. 3. 8. 2. 6. 4. 9.</_>
    <_>
      1. 3. 2. 2. 1. 10. 7. 1. 5. 11. 4. 8. 0. 7. 0. 7.</_>
    <_>
      2. 6. 2. 4. 1. 9. 5. 0. 6. 13. 5. 9. 0. 8. 1. 8.</_>
    <_>
      7. 11. 10. 8. 6. 6. 11. 3. 6. 13. 6. 3. 0. 10. 3. 8.</_>
    <_>
      6. 11. 9. 8. 11. 7. 7. 3. 6. 6. 7. 11. 6. 11. 9. 7.</_>
    <_>
      5. 7. 6. 5. 5. 8. 8. 8. 5. 6. 7. 9. 4. 8. 4. 5.</_>
    <_>
      3. 3. 5. 5. 2. 9. 6. 9. 7. 7. 5. 10. 3. 8. 4. 8.</_>
    <_>
      3. 8. 3. 6. 3. 3. 6. 5. 9. 5. 4. 13. 0. 8. 6. 9.</_>
    <_>
      3. 7. 5. 5. 6. 7. 8. 6. 4. 6. 6. 8. 5. 8. 7. 9.</_>
    <_>
      5. 8. 5. 6. 4. 8. 6. 11. 4. 8. 13. 7. 3. 9. 0. 8.</_>
    <_>
      6. 10. 5. 6. 3. 5. 9. 6. 3. 10. 5. 6. 5. 9. 4. 7.</_>
    <_>
      5. 5. 5. 8. 4. 7. 9. 10. 8. 7. 5. 7. 2. 8. 9. 10.</_>
    <_>
      5. 6. 5. 8. 2. 1. 14. 5. 3. 12. 9. 5. 0. 8. 3. 6.</_>
    <_>
      3. 2. 3. 4. 3. 7. 8. 5. 7. 7. 5. 9. 2. 8. 5. 10.</_>
    <_>
      6. 9. 6. 4. 4. 8. 9. 5. 3. 10. 5. 5. 5. 10. 5. 6.</_>
    <_>
      7. 10. 9. 8. 9. 7. 7. 5. 5. 7. 6. 7. 7. 6. 9. 13.</_>
    <_>
      4. 10. 6. 7. 4. 8. 6. 8. 7. 4. 5. 3. 3. 8. 4. 8.</_>
    <_>
      4. 7. 6. 5. 7. 9. 6. 4. 4. 6. 6. 7. 7. 8. 6. 7.</_>
    <_>
      5. 10. 7. 8. 6. 7. 9. 8. 5. 8. 5. 6. 3. 7. 7. 10.</_>
    <_>
      6. 11. 7. 8. 3. 4. 13. 9. 2. 10. 6. 4. 1. 10. 4. 8.</_>
    <_>
      4. 7. 6. 5. 4. 3. 8. 3. 7. 11. 11. 12. 3. 8. 3. 5.</_>
    <_>
      7. 11. 10. 8. 5. 6. 11. 2. 7. 14. 7. 4. 1. 10. 2. 7.</_>
    <_>
      8. 14. 8. 8. 4. 9. 4. 4. 4. 13. 5. 8. 3. 10. 3. 8.</_>
    <_>
      1. 3. 3. 2. 1. 7. 8. 1. 9. 11. 7. 7. 1. 8. 5. 7.</_>
    <_>
      3. 5. 4. 5. 3. 8. 7. 4. 5. 7. 6. 8. 3. 8. 7. 10.</_>
    <_>
      2. 5. 3. 3. 1. 10. 7. 1. 7. 12. 3. 7. 0. 7. 1. 7.</_>
    <_>
      3. 6. 4. 4. 2. 5. 4. 3. 8. 3. 2. 6. 1. 6. 2. 5.</_>
    <_>
      4. 5. 5. 4. 2. 4. 12. 4. 4. 11. 11. 6. 2. 10. 1. 8.</_>
    <_>
      5. 8. 6. 6. 3. 6. 6. 4. 5. 14. 8. 12. 1. 6. 1. 7.</_>
    <_>
      3. 5. 5. 7. 4. 10. 11. 3. 2. 7. 8. 8. 3. 10. 7. 9.</_>
    <_>
      4. 8. 5. 6. 3. 5. 10. 4. 6. 11. 10. 5. 2. 10. 3. 5.</_>
    <_>
      5. 9. 6. 7. 6. 6. 9. 4. 6. 9. 9. 6. 5. 9. 3. 6.</_>
    <_>
      6. 11. 9. 8. 5. 8. 10. 7. 5. 10. 4. 3. 3. 10. 4. 8.</_>
    <_>
      5. 6. 7. 7. 6. 7. 8. 4. 5. 7. 7. 8. 4. 6. 8. 6.</_>
    <_>
      4. 2. 4. 4. 3. 8. 7. 6. 10. 6. 5. 9. 2. 8. 6. 8.</_>
    <_>
      5. 9. 7. 7. 6. 7. 9. 5. 6. 10. 6. 6. 3. 8. 7. 8.</_>
    <_>
      8. 10. 11. 8. 9. 9. 6. 2. 5. 9. 4. 7. 11. 9. 3. 8.</_>
    <_>
      9. 10. 7. 5. 3. 6. 11. 6. 2. 11. 5. 5. 4. 10. 4. 8.</_>
    <_>
      3. 8. 5. 6. 6. 8. 7. 4. 4. 6. 7. 8. 7. 9. 5. 6.</_>
    <_>
      7. 13. 7. 7. 5. 6. 7. 2. 9. 11. 6. 8. 4. 5. 8. 6.</_>
    <_>
      1. 0. 2. 1. 0. 8. 9. 4. 2. 7. 12. 8. 2. 10. 0. 8.</_>
    <_>
      3. 7. 4. 5. 5. 7. 7. 4. 6. 6. 6. 6. 2. 8. 5. 10.</_>
    <_>
      5. 8. 7. 6. 4. 7. 5. 8. 4. 6. 4. 7. 3. 9. 4. 9.</_>
    <_>
      7. 10. 9. 8. 10. 9. 5. 5. 4. 9. 6. 9. 6. 9. 12. 11.</_>
    <_>
      4. 8. 6. 6. 8. 9. 6. 2. 2. 8. 4. 8. 7. 7. 2. 5.</_>
    <_>
      2. 1. 3. 2. 1. 6. 8. 6. 7. 7. 8. 12. 1. 9. 4. 10.</_>
    <_>
      3. 6. 4. 4. 4. 6. 7. 3. 7. 6. 6. 9. 3. 8. 6. 10.</_>
    <_>
      6. 9. 9. 7. 5. 8. 5. 7. 7. 8. 6. 7. 2. 6. 4. 6.</_>
    <_>
      6. 9. 8. 8. 8. 8. 7. 3. 5. 7. 8. 8. 6. 8. 4. 5.</_>
    <_>
      5. 12. 5. 6. 4. 8. 7. 3. 6. 10. 5. 7. 5. 8. 7. 6.</_>
    <_>
      4. 8. 6. 6. 4. 8. 8. 8. 6. 7. 6. 8. 4. 7. 4. 8.</_>
    <_>
      4. 7. 4. 5. 2. 9. 10. 6. 9. 5. 6. 6. 0. 7. 8. 9.</_>
    <_>
      4. 9. 6. 6. 4. 9. 8. 1. 6. 13. 5. 5. 1. 10. 2. 9.</_>
    <_>
      5. 10. 7. 8. 5. 8. 3. 3. 1. 7. 1. 8. 5. 9. 5. 8.</_>
    <_>
      5. 9. 6. 7. 5. 7. 7. 8. 7. 7. 6. 7. 2. 8. 3. 8.</_>
    <_>
      2. 6. 3. 4. 1. 14. 1. 6. 5. 14. 2. 11. 0. 7. 0. 8.</_>
    <_>
      4. 8. 5. 5. 2. 7. 5. 15. 1. 7. 9. 8. 3. 8. 0. 8.</_>
    <_>
